svm_type c_svc
kernel_type linear
nr_class 2
total_sv 167
rho 0.9760069035866674
label 5 4
probA -0.5795083026500472
probB 0.05418890858011805
nr_sv 82 85
SV
1.0 33:1.0 56:1.0 94:1.0 116:1.0 129:1.0 176:1.0 210:1.0 236:1.0 257:1.0 296:1.0 303:1.0 356:1.0 
1.0 38:1.0 56:1.0 75:1.0 116:1.0 142:1.0 176:1.0 213:1.0 236:1.0 270:1.0 296:1.0 317:1.0 356:1.0 363:1.0 416:1.0 
1.0 33:1.0 56:1.0 94:1.0 116:1.0 129:1.0 176:1.0 183:1.0 236:1.0 278:1.0 296:1.0 317:1.0 356:1.0 363:1.0 416:1.0 
1.0 29:1.0 56:1.0 98:1.0 116:1.0 142:1.0 176:1.0 213:1.0 236:1.0 270:1.0 296:1.0 317:1.0 356:1.0 390:1.0 416:1.0 
1.0 38:1.0 56:1.0 75:1.0 116:1.0 130:1.0 176:1.0 183:1.0 236:1.0 278:1.0 296:1.0 317:1.0 356:1.0 410:1.0 416:1.0 
0.8572058371979449 31:1.0 60:1.0 90:1.0 116:1.0 144:1.0 176:1.0 183:1.0 236:1.0 278:1.0 296:1.0 317:1.0 356:1.0 363:1.0 416:1.0 458:1.0 476:1.0 
1.0 49:1.0 56:1.0 62:1.0 116:1.0 144:1.0 176:1.0 183:1.0 236:1.0 278:1.0 296:1.0 317:1.0 356:1.0 363:1.0 416:1.0 
1.0 38:1.0 56:1.0 94:1.0 116:1.0 129:1.0 176:1.0 183:1.0 236:1.0 278:1.0 296:1.0 317:1.0 356:1.0 363:1.0 416:1.0 
1.0 27:1.0 60:1.0 94:1.0 116:1.0 129:1.0 176:1.0 183:1.0 236:1.0 278:1.0 296:1.0 317:1.0 356:1.0 391:1.0 416:1.0 
0.48053966426230593 12:1.0 56:1.0 62:1.0 116:1.0 135:1.0 176:1.0 218:1.0 236:1.0 257:1.0 296:1.0 327:1.0 360:1.0 
1.0 38:1.0 56:1.0 94:1.0 116:1.0 129:1.0 176:1.0 213:1.0 236:1.0 278:1.0 296:1.0 338:1.0 356:1.0 377:1.0 416:1.0 423:1.0 476:1.0 
1.0 15:1.0 56:1.0 91:1.0 116:1.0 142:1.0 176:1.0 218:1.0 236:1.0 257:1.0 296:1.0 328:1.0 356:1.0 
0.548036991488228 49:1.0 56:1.0 91:1.0 116:1.0 131:1.0 176:1.0 210:1.0 236:1.0 257:1.0 296:1.0 333:1.0 356:1.0 
1.0 26:1.0 60:1.0 90:1.0 116:1.0 131:1.0 176:1.0 183:1.0 236:1.0 278:1.0 296:1.0 317:1.0 356:1.0 363:1.0 416:1.0 
1.0 27:1.0 60:1.0 91:1.0 116:1.0 135:1.0 176:1.0 183:1.0 236:1.0 278:1.0 296:1.0 317:1.0 356:1.0 363:1.0 416:1.0 
0.5423795309957149 12:1.0 56:1.0 62:1.0 116:1.0 135:1.0 176:1.0 183:1.0 236:1.0 276:1.0 296:1.0 338:1.0 356:1.0 377:1.0 416:1.0 453:1.0 476:1.0 518:1.0 536:1.0 589:1.0 596:1.0 
1.0 49:1.0 56:1.0 91:1.0 116:1.0 131:1.0 176:1.0 213:1.0 236:1.0 270:1.0 296:1.0 334:1.0 356:1.0 398:1.0 416:1.0 
1.0 2:1.0 56:1.0 62:1.0 116:1.0 144:1.0 176:1.0 183:1.0 236:1.0 273:1.0 296:1.0 338:1.0 356:1.0 377:1.0 416:1.0 423:1.0 476:1.0 
1.0 24:1.0 56:1.0 62:1.0 116:1.0 130:1.0 176:1.0 213:1.0 236:1.0 278:1.0 296:1.0 317:1.0 356:1.0 410:1.0 418:1.0 
0.38738948574027676 31:1.0 56:1.0 91:1.0 116:1.0 144:1.0 176:1.0 183:1.0 236:1.0 278:1.0 296:1.0 317:1.0 356:1.0 410:1.0 418:1.0 
0.6848756002007264 25:1.0 60:1.0 94:1.0 116:1.0 129:1.0 176:1.0 218:1.0 236:1.0 257:1.0 296:1.0 303:1.0 356:1.0 
1.0 24:1.0 56:1.0 94:1.0 116:1.0 129:1.0 176:1.0 218:1.0 236:1.0 257:1.0 296:1.0 303:1.0 356:1.0 
1.0 50:1.0 58:1.0 91:1.0 116:1.0 144:1.0 176:1.0 183:1.0 236:1.0 278:1.0 296:1.0 317:1.0 356:1.0 391:1.0 416:1.0 
1.0 27:1.0 60:1.0 94:1.0 116:1.0 129:1.0 176:1.0 183:1.0 236:1.0 278:1.0 296:1.0 317:1.0 356:1.0 363:1.0 416:1.0 
0.15433209093423023 44:1.0 56:1.0 84:1.0 116:1.0 142:1.0 176:1.0 218:1.0 236:1.0 257:1.0 296:1.0 303:1.0 356:1.0 
1.0 31:1.0 56:1.0 84:1.0 116:1.0 130:1.0 176:1.0 183:1.0 236:1.0 278:1.0 296:1.0 317:1.0 356:1.0 363:1.0 416:1.0 
1.0 31:1.0 56:1.0 84:1.0 116:1.0 130:1.0 176:1.0 183:1.0 236:1.0 278:1.0 296:1.0 317:1.0 356:1.0 363:1.0 416:1.0 
0.05904972121992583 33:1.0 56:1.0 90:1.0 117:1.0 144:1.0 176:1.0 183:1.0 236:1.0 278:1.0 296:1.0 317:1.0 356:1.0 363:1.0 416:1.0 
1.0 26:1.0 60:1.0 91:1.0 119:1.0 144:1.0 176:1.0 183:1.0 236:1.0 278:1.0 296:1.0 317:1.0 356:1.0 391:1.0 416:1.0 
1.0 2:1.0 56:1.0 94:1.0 116:1.0 129:1.0 176:1.0 183:1.0 236:1.0 273:1.0 296:1.0 330:1.0 356:1.0 377:1.0 416:1.0 423:1.0 476:1.0 
1.0 34:1.0 56:1.0 69:1.0 116:1.0 144:1.0 176:1.0 183:1.0 236:1.0 275:1.0 296:1.0 338:1.0 356:1.0 377:1.0 416:1.0 423:1.0 476:1.0 
0.7972149862319039 24:1.0 56:1.0 94:1.0 116:1.0 129:1.0 176:1.0 213:1.0 236:1.0 278:1.0 296:1.0 334:1.0 356:1.0 405:1.0 416:1.0 
1.0 31:1.0 56:1.0 84:1.0 116:1.0 142:1.0 176:1.0 183:1.0 236:1.0 278:1.0 296:1.0 317:1.0 356:1.0 391:1.0 416:1.0 
1.0 31:1.0 56:1.0 62:1.0 116:1.0 144:1.0 176:1.0 213:1.0 236:1.0 270:1.0 296:1.0 317:1.0 356:1.0 393:1.0 416:1.0 
1.0 26:1.0 60:1.0 91:1.0 116:1.0 144:1.0 176:1.0 183:1.0 236:1.0 278:1.0 296:1.0 334:1.0 356:1.0 369:1.0 416:1.0 
1.0 13:1.0 56:1.0 62:1.0 116:1.0 129:1.0 176:1.0 183:1.0 236:1.0 273:1.0 296:1.0 330:1.0 356:1.0 377:1.0 416:1.0 448:1.0 476:1.0 
0.9485273539924188 3:1.0 56:1.0 98:1.0 116:1.0 144:1.0 176:1.0 218:1.0 236:1.0 257:1.0 296:1.0 317:1.0 356:1.0 
1.0 27:1.0 60:1.0 91:1.0 116:1.0 144:1.0 176:1.0 183:1.0 236:1.0 278:1.0 296:1.0 317:1.0 356:1.0 388:1.0 416:1.0 
0.11294217024860188 29:1.0 60:1.0 62:1.0 116:1.0 144:1.0 176:1.0 183:1.0 236:1.0 278:1.0 296:1.0 317:1.0 356:1.0 382:1.0 416:1.0 
0.7203546400819899 22:1.0 56:1.0 98:1.0 116:1.0 144:1.0 176:1.0 214:1.0 236:1.0 243:1.0 296:1.0 338:1.0 356:1.0 377:1.0 416:1.0 423:1.0 476:1.0 
0.45462116322293283 27:1.0 60:1.0 91:1.0 114:1.0 144:1.0 176:1.0 213:1.0 236:1.0 270:1.0 296:1.0 334:1.0 356:1.0 369:1.0 416:1.0 
0.6847397879319613 3:1.0 56:1.0 98:1.0 116:1.0 144:1.0 176:1.0 183:1.0 236:1.0 278:1.0 296:1.0 317:1.0 356:1.0 400:1.0 416:1.0 
0.9064855980866138 27:1.0 60:1.0 91:1.0 116:1.0 144:1.0 176:1.0 183:1.0 236:1.0 278:1.0 296:1.0 317:1.0 356:1.0 391:1.0 416:1.0 
1.0 3:1.0 56:1.0 98:1.0 116:1.0 135:1.0 176:1.0 218:1.0 236:1.0 257:1.0 296:1.0 350:1.0 358:1.0 
0.819139796575429 24:1.0 56:1.0 62:1.0 116:1.0 144:1.0 176:1.0 183:1.0 236:1.0 273:1.0 296:1.0 338:1.0 356:1.0 377:1.0 416:1.0 442:1.0 476:1.0 
0.3388949068204224 27:1.0 60:1.0 84:1.0 116:1.0 130:1.0 176:1.0 210:1.0 236:1.0 257:1.0 296:1.0 303:1.0 356:1.0 
1.0 17:1.0 56:1.0 91:1.0 116:1.0 144:1.0 176:1.0 183:1.0 236:1.0 270:1.0 296:1.0 317:1.0 356:1.0 362:1.0 416:1.0 
0.4758539921762232 26:1.0 60:1.0 91:1.0 116:1.0 135:1.0 176:1.0 210:1.0 236:1.0 257:1.0 296:1.0 331:1.0 356:1.0 
0.5509175414156 28:1.0 56:1.0 98:1.0 116:1.0 135:1.0 176:1.0 183:1.0 236:1.0 278:1.0 296:1.0 317:1.0 356:1.0 398:1.0 416:1.0 
0.5427164024877207 30:1.0 56:1.0 94:1.0 116:1.0 129:1.0 176:1.0 218:1.0 236:1.0 257:1.0 296:1.0 328:1.0 356:1.0 
1.0 12:1.0 56:1.0 94:1.0 116:1.0 129:1.0 176:1.0 218:1.0 236:1.0 257:1.0 296:1.0 328:1.0 356:1.0 
1.0 34:1.0 56:1.0 62:1.0 116:1.0 129:1.0 176:1.0 210:1.0 236:1.0 257:1.0 296:1.0 331:1.0 356:1.0 
0.7110716158300808 15:1.0 56:1.0 70:1.0 116:1.0 142:1.0 176:1.0 218:1.0 236:1.0 257:1.0 296:1.0 303:1.0 356:1.0 
1.0 30:1.0 56:1.0 62:1.0 116:1.0 144:1.0 176:1.0 183:1.0 236:1.0 278:1.0 296:1.0 317:1.0 356:1.0 398:1.0 416:1.0 
0.26171448678204884 21:1.0 56:1.0 98:1.0 116:1.0 144:1.0 176:1.0 183:1.0 236:1.0 273:1.0 296:1.0 338:1.0 356:1.0 394:1.0 416:1.0 423:1.0 476:1.0 513:1.0 536:1.0 
0.2785816285885809 22:1.0 56:1.0 94:1.0 116:1.0 129:1.0 176:1.0 183:1.0 236:1.0 278:1.0 296:1.0 317:1.0 356:1.0 363:1.0 416:1.0 
0.6822582956637977 3:1.0 56:1.0 98:1.0 116:1.0 144:1.0 176:1.0 213:1.0 236:1.0 278:1.0 296:1.0 317:1.0 356:1.0 363:1.0 416:1.0 
1.0 24:1.0 56:1.0 94:1.0 116:1.0 129:1.0 176:1.0 183:1.0 236:1.0 278:1.0 296:1.0 317:1.0 356:1.0 391:1.0 416:1.0 
1.0 24:1.0 56:1.0 94:1.0 116:1.0 129:1.0 176:1.0 210:1.0 236:1.0 257:1.0 296:1.0 330:1.0 356:1.0 
0.8913112054822978 33:1.0 56:1.0 98:1.0 116:1.0 144:1.0 176:1.0 183:1.0 236:1.0 273:1.0 296:1.0 338:1.0 356:1.0 394:1.0 416:1.0 429:1.0 476:1.0 
0.29106388636866043 10:1.0 56:1.0 94:1.0 116:1.0 129:1.0 176:1.0 218:1.0 236:1.0 257:1.0 296:1.0 331:1.0 360:1.0 
1.0 27:1.0 60:1.0 91:1.0 116:1.0 144:1.0 176:1.0 197:1.0 236:1.0 243:1.0 296:1.0 338:1.0 356:1.0 377:1.0 416:1.0 451:1.0 476:1.0 
0.7072305524946572 50:1.0 58:1.0 94:1.0 116:1.0 129:1.0 176:1.0 218:1.0 236:1.0 257:1.0 296:1.0 331:1.0 356:1.0 
0.30111860803226337 26:1.0 60:1.0 91:1.0 116:1.0 144:1.0 176:1.0 218:1.0 236:1.0 257:1.0 296:1.0 303:1.0 356:1.0 
1.0 12:1.0 56:1.0 62:1.0 116:1.0 144:1.0 176:1.0 183:1.0 236:1.0 278:1.0 296:1.0 338:1.0 356:1.0 377:1.0 416:1.0 470:1.0 478:1.0 
1.0 44:1.0 56:1.0 62:1.0 116:1.0 144:1.0 176:1.0 183:1.0 236:1.0 278:1.0 296:1.0 317:1.0 356:1.0 393:1.0 416:1.0 
1.0 33:1.0 56:1.0 98:1.0 116:1.0 130:1.0 176:1.0 218:1.0 236:1.0 257:1.0 296:1.0 303:1.0 356:1.0 398:1.0 416:1.0 437:1.0 476:1.0 
1.0 24:1.0 56:1.0 94:1.0 116:1.0 129:1.0 176:1.0 183:1.0 236:1.0 278:1.0 296:1.0 317:1.0 356:1.0 363:1.0 416:1.0 
1.0 49:1.0 56:1.0 62:1.0 116:1.0 144:1.0 176:1.0 213:1.0 236:1.0 270:1.0 296:1.0 334:1.0 356:1.0 391:1.0 416:1.0 
0.6800758523601305 38:1.0 56:1.0 86:1.0 120:1.0 142:1.0 176:1.0 218:1.0 236:1.0 257:1.0 296:1.0 331:1.0 359:1.0 
0.6607147076793007 31:1.0 56:1.0 91:1.0 116:1.0 135:1.0 176:1.0 183:1.0 236:1.0 278:1.0 296:1.0 317:1.0 356:1.0 363:1.0 416:1.0 
0.3184054984193293 3:1.0 56:1.0 84:1.0 116:1.0 131:1.0 176:1.0 218:1.0 236:1.0 274:1.0 296:1.0 309:1.0 356:1.0 
0.8859264808287156 38:1.0 60:1.0 86:1.0 120:1.0 144:1.0 176:1.0 183:1.0 236:1.0 278:1.0 296:1.0 317:1.0 356:1.0 372:1.0 416:1.0 
0.09950395354455027 25:1.0 60:1.0 94:1.0 116:1.0 129:1.0 176:1.0 218:1.0 236:1.0 274:1.0 296:1.0 350:1.0 356:1.0 
1.0 12:1.0 56:1.0 94:1.0 116:1.0 129:1.0 176:1.0 218:1.0 236:1.0 257:1.0 296:1.0 331:1.0 359:1.0 
0.2564561734408737 38:1.0 56:1.0 84:1.0 116:1.0 130:1.0 176:1.0 213:1.0 236:1.0 257:1.0 296:1.0 303:1.0 356:1.0 
1.0 27:1.0 60:1.0 91:1.0 116:1.0 135:1.0 176:1.0 183:1.0 236:1.0 273:1.0 296:1.0 338:1.0 356:1.0 377:1.0 416:1.0 453:1.0 476:1.0 
1.0 38:1.0 60:1.0 90:1.0 116:1.0 131:1.0 176:1.0 210:1.0 236:1.0 257:1.0 296:1.0 303:1.0 356:1.0 
0.309582157125732 45:1.0 56:1.0 75:1.0 116:1.0 142:1.0 176:1.0 183:1.0 236:1.0 278:1.0 296:1.0 317:1.0 356:1.0 363:1.0 416:1.0 
0.5727616597535738 31:1.0 56:1.0 71:1.0 116:1.0 130:1.0 176:1.0 210:1.0 236:1.0 257:1.0 296:1.0 303:1.0 356:1.0 
0.36507715128710017 30:1.0 56:1.0 84:1.0 116:1.0 142:1.0 176:1.0 210:1.0 236:1.0 257:1.0 296:1.0 303:1.0 356:1.0 
0.12040894994746003 4:1.0 56:1.0 94:1.0 116:1.0 129:1.0 176:1.0 218:1.0 236:1.0 257:1.0 296:1.0 350:1.0 358:1.0 
-0.3962160638657206 27:1.0 60:1.0 90:1.0 116:1.0 131:1.0 176:1.0 183:1.0 236:1.0 278:1.0 296:1.0 317:1.0 356:1.0 390:1.0 416:1.0 
-1.0 33:1.0 56:1.0 90:1.0 116:1.0 131:1.0 176:1.0 218:1.0 236:1.0 278:1.0 296:1.0 338:1.0 356:1.0 377:1.0 416:1.0 423:1.0 476:1.0 
-1.0 33:1.0 56:1.0 90:1.0 116:1.0 131:1.0 176:1.0 183:1.0 236:1.0 278:1.0 296:1.0 338:1.0 356:1.0 377:1.0 416:1.0 423:1.0 476:1.0 
-0.6043359666985016 15:1.0 56:1.0 62:1.0 116:1.0 129:1.0 176:1.0 183:1.0 236:1.0 278:1.0 296:1.0 317:1.0 356:1.0 363:1.0 416:1.0 
-0.12628029397638874 49:1.0 56:1.0 98:1.0 116:1.0 142:1.0 176:1.0 210:1.0 236:1.0 257:1.0 296:1.0 338:1.0 356:1.0 
-0.8050110316695318 38:1.0 56:1.0 94:1.0 116:1.0 129:1.0 176:1.0 213:1.0 236:1.0 278:1.0 296:1.0 317:1.0 356:1.0 393:1.0 416:1.0 
-0.24110800152458606 31:1.0 59:1.0 91:1.0 116:1.0 135:1.0 176:1.0 183:1.0 236:1.0 278:1.0 296:1.0 317:1.0 356:1.0 393:1.0 416:1.0 
-0.13890148201616756 25:1.0 60:1.0 94:1.0 116:1.0 129:1.0 176:1.0 183:1.0 236:1.0 273:1.0 296:1.0 338:1.0 356:1.0 377:1.0 416:1.0 458:1.0 476:1.0 
-0.26552353071055135 26:1.0 60:1.0 91:1.0 116:1.0 135:1.0 176:1.0 183:1.0 236:1.0 278:1.0 296:1.0 317:1.0 356:1.0 398:1.0 416:1.0 
-1.0 31:1.0 60:1.0 75:1.0 116:1.0 142:1.0 176:1.0 183:1.0 236:1.0 278:1.0 296:1.0 317:1.0 356:1.0 393:1.0 416:1.0 
-0.2955579162131834 27:1.0 60:1.0 94:1.0 116:1.0 129:1.0 176:1.0 183:1.0 236:1.0 278:1.0 296:1.0 317:1.0 356:1.0 388:1.0 416:1.0 
-1.0 38:1.0 56:1.0 86:1.0 120:1.0 142:1.0 176:1.0 213:1.0 236:1.0 257:1.0 296:1.0 303:1.0 356:1.0 
-1.0 34:1.0 56:1.0 69:1.0 116:1.0 129:1.0 176:1.0 210:1.0 236:1.0 257:1.0 296:1.0 328:1.0 356:1.0 
-0.3340595049816371 15:1.0 56:1.0 94:1.0 116:1.0 129:1.0 176:1.0 183:1.0 236:1.0 278:1.0 296:1.0 334:1.0 356:1.0 369:1.0 416:1.0 
-1.0 38:1.0 56:1.0 94:1.0 116:1.0 129:1.0 176:1.0 183:1.0 236:1.0 278:1.0 296:1.0 317:1.0 356:1.0 391:1.0 416:1.0 
-1.0 3:1.0 56:1.0 98:1.0 116:1.0 144:1.0 176:1.0 183:1.0 236:1.0 273:1.0 296:1.0 330:1.0 356:1.0 377:1.0 416:1.0 423:1.0 476:1.0 
-1.0 27:1.0 60:1.0 94:1.0 116:1.0 129:1.0 176:1.0 183:1.0 236:1.0 278:1.0 296:1.0 334:1.0 356:1.0 369:1.0 416:1.0 
-1.0 44:1.0 56:1.0 62:1.0 116:1.0 135:1.0 176:1.0 183:1.0 236:1.0 278:1.0 296:1.0 317:1.0 356:1.0 363:1.0 416:1.0 
-0.5156415110123049 12:1.0 56:1.0 94:1.0 116:1.0 129:1.0 176:1.0 183:1.0 236:1.0 278:1.0 296:1.0 317:1.0 356:1.0 372:1.0 416:1.0 
-1.0 49:1.0 56:1.0 62:1.0 116:1.0 129:1.0 176:1.0 218:1.0 236:1.0 257:1.0 296:1.0 303:1.0 356:1.0 
-1.0 27:1.0 60:1.0 91:1.0 116:1.0 135:1.0 176:1.0 183:1.0 236:1.0 273:1.0 296:1.0 338:1.0 356:1.0 377:1.0 416:1.0 458:1.0 476:1.0 
-0.9101468128771892 33:1.0 56:1.0 94:1.0 116:1.0 129:1.0 176:1.0 213:1.0 236:1.0 270:1.0 296:1.0 317:1.0 356:1.0 390:1.0 416:1.0 
-1.0 11:1.0 56:1.0 94:1.0 116:1.0 129:1.0 176:1.0 183:1.0 236:1.0 278:1.0 296:1.0 317:1.0 356:1.0 363:1.0 416:1.0 
-1.0 49:1.0 56:1.0 62:1.0 116:1.0 144:1.0 176:1.0 210:1.0 236:1.0 257:1.0 296:1.0 303:1.0 356:1.0 
-1.0 31:1.0 56:1.0 91:1.0 116:1.0 144:1.0 176:1.0 213:1.0 236:1.0 270:1.0 296:1.0 317:1.0 356:1.0 388:1.0 416:1.0 
-0.5153858339516029 33:1.0 56:1.0 98:1.0 116:1.0 142:1.0 176:1.0 183:1.0 236:1.0 273:1.0 296:1.0 338:1.0 356:1.0 377:1.0 416:1.0 451:1.0 476:1.0 
-0.5767348107441626 24:1.0 56:1.0 62:1.0 116:1.0 130:1.0 176:1.0 214:1.0 236:1.0 243:1.0 296:1.0 331:1.0 356:1.0 377:1.0 416:1.0 451:1.0 476:1.0 
-1.0 12:1.0 56:1.0 62:1.0 116:1.0 144:1.0 176:1.0 183:1.0 236:1.0 278:1.0 296:1.0 317:1.0 356:1.0 391:1.0 416:1.0 
-0.8990996311996959 34:1.0 56:1.0 62:1.0 116:1.0 129:1.0 176:1.0 183:1.0 236:1.0 278:1.0 296:1.0 317:1.0 356:1.0 377:1.0 416:1.0 
-1.0 31:1.0 56:1.0 91:1.0 116:1.0 144:1.0 176:1.0 183:1.0 236:1.0 278:1.0 296:1.0 317:1.0 356:1.0 382:1.0 416:1.0 
-1.0 24:1.0 56:1.0 94:1.0 116:1.0 129:1.0 176:1.0 183:1.0 236:1.0 278:1.0 296:1.0 317:1.0 356:1.0 363:1.0 416:1.0 
-1.0 27:1.0 60:1.0 91:1.0 116:1.0 144:1.0 176:1.0 183:1.0 236:1.0 278:1.0 296:1.0 317:1.0 356:1.0 363:1.0 416:1.0 
-1.0 26:1.0 60:1.0 91:1.0 116:1.0 144:1.0 176:1.0 213:1.0 236:1.0 270:1.0 296:1.0 317:1.0 356:1.0 363:1.0 416:1.0 
-1.0 27:1.0 60:1.0 84:1.0 116:1.0 130:1.0 176:1.0 218:1.0 236:1.0 257:1.0 296:1.0 330:1.0 356:1.0 
-1.0 27:1.0 60:1.0 91:1.0 116:1.0 144:1.0 176:1.0 183:1.0 236:1.0 273:1.0 296:1.0 317:1.0 356:1.0 410:1.0 418:1.0 
-1.0 26:1.0 60:1.0 91:1.0 119:1.0 144:1.0 176:1.0 213:1.0 236:1.0 257:1.0 296:1.0 350:1.0 358:1.0 
-0.5284921648128207 27:1.0 60:1.0 91:1.0 116:1.0 144:1.0 176:1.0 211:1.0 239:1.0 257:1.0 296:1.0 303:1.0 356:1.0 
-1.0 24:1.0 56:1.0 94:1.0 116:1.0 129:1.0 176:1.0 183:1.0 236:1.0 278:1.0 296:1.0 317:1.0 356:1.0 391:1.0 416:1.0 
-0.7317431302777966 38:1.0 56:1.0 75:1.0 116:1.0 142:1.0 176:1.0 197:1.0 236:1.0 243:1.0 296:1.0 338:1.0 356:1.0 377:1.0 416:1.0 453:1.0 476:1.0 
-1.0 24:1.0 56:1.0 62:1.0 116:1.0 130:1.0 176:1.0 218:1.0 236:1.0 278:1.0 296:1.0 317:1.0 356:1.0 363:1.0 416:1.0 
-0.47846667181831154 12:1.0 56:1.0 62:1.0 116:1.0 144:1.0 176:1.0 218:1.0 236:1.0 270:1.0 296:1.0 317:1.0 356:1.0 388:1.0 416:1.0 
-0.10543114120037952 17:1.0 56:1.0 91:1.0 116:1.0 144:1.0 176:1.0 183:1.0 236:1.0 273:1.0 296:1.0 338:1.0 356:1.0 398:1.0 416:1.0 437:1.0 476:1.0 482:1.0 536:1.0 
-1.0 31:1.0 56:1.0 62:1.0 116:1.0 144:1.0 176:1.0 183:1.0 236:1.0 275:1.0 296:1.0 317:1.0 356:1.0 398:1.0 416:1.0 
-0.9178496027423668 26:1.0 60:1.0 91:1.0 116:1.0 144:1.0 176:1.0 183:1.0 236:1.0 273:1.0 296:1.0 338:1.0 356:1.0 377:1.0 416:1.0 470:1.0 478:1.0 
-0.8633939831457922 3:1.0 56:1.0 90:1.0 116:1.0 144:1.0 176:1.0 218:1.0 236:1.0 278:1.0 296:1.0 334:1.0 356:1.0 391:1.0 416:1.0 469:1.0 476:1.0 
-1.0 19:1.0 60:1.0 94:1.0 116:1.0 129:1.0 176:1.0 218:1.0 236:1.0 257:1.0 296:1.0 330:1.0 356:1.0 
-0.35958145134398306 27:1.0 60:1.0 91:1.0 116:1.0 144:1.0 176:1.0 211:1.0 236:1.0 257:1.0 296:1.0 322:1.0 356:1.0 370:1.0 416:1.0 
-1.0 31:1.0 56:1.0 62:1.0 116:1.0 144:1.0 176:1.0 183:1.0 236:1.0 278:1.0 296:1.0 338:1.0 356:1.0 377:1.0 416:1.0 423:1.0 476:1.0 530:1.0 538:1.0 
-0.5214579210854748 12:1.0 56:1.0 84:1.0 116:1.0 142:1.0 176:1.0 183:1.0 236:1.0 278:1.0 296:1.0 317:1.0 356:1.0 384:1.0 416:1.0 
-1.0 12:1.0 60:1.0 62:1.0 116:1.0 144:1.0 176:1.0 183:1.0 236:1.0 273:1.0 296:1.0 338:1.0 356:1.0 394:1.0 416:1.0 429:1.0 476:1.0 
-0.5507478127277173 38:1.0 56:1.0 94:1.0 116:1.0 129:1.0 176:1.0 183:1.0 236:1.0 278:1.0 296:1.0 317:1.0 356:1.0 386:1.0 420:1.0 
-0.23035841593133405 17:1.0 56:1.0 62:1.0 116:1.0 142:1.0 176:1.0 210:1.0 236:1.0 274:1.0 296:1.0 322:1.0 356:1.0 
-0.075338718239241 27:1.0 60:1.0 91:1.0 116:1.0 144:1.0 176:1.0 197:1.0 236:1.0 243:1.0 296:1.0 331:1.0 356:1.0 391:1.0 419:1.0 451:1.0 479:1.0 511:1.0 536:1.0 578:1.0 596:1.0 617:1.0 656:1.0 672:1.0 716:1.0 
-1.0 2:1.0 56:1.0 94:1.0 116:1.0 129:1.0 176:1.0 183:1.0 236:1.0 270:1.0 296:1.0 317:1.0 356:1.0 398:1.0 416:1.0 
-0.3757007454217095 2:1.0 56:1.0 69:1.0 116:1.0 130:1.0 176:1.0 183:1.0 236:1.0 278:1.0 296:1.0 317:1.0 356:1.0 363:1.0 416:1.0 
-1.0 15:1.0 56:1.0 62:1.0 116:1.0 130:1.0 176:1.0 210:1.0 236:1.0 257:1.0 296:1.0 331:1.0 359:1.0 
-1.0 26:1.0 60:1.0 91:1.0 116:1.0 144:1.0 176:1.0 218:1.0 236:1.0 257:1.0 296:1.0 328:1.0 356:1.0 
-0.19070287129814603 12:1.0 56:1.0 84:1.0 116:1.0 130:1.0 176:1.0 183:1.0 236:1.0 278:1.0 296:1.0 319:1.0 360:1.0 398:1.0 416:1.0 437:1.0 476:1.0 483:1.0 536:1.0 
-0.5215739543676 31:1.0 56:1.0 91:1.0 116:1.0 142:1.0 176:1.0 183:1.0 236:1.0 273:1.0 296:1.0 331:1.0 356:1.0 391:1.0 416:1.0 451:1.0 476:1.0 497:1.0 536:1.0 543:1.0 596:1.0 
-0.37035022142728535 27:1.0 60:1.0 91:1.0 116:1.0 144:1.0 176:1.0 211:1.0 236:1.0 271:1.0 296:1.0 317:1.0 356:1.0 363:1.0 416:1.0 
-1.0 49:1.0 56:1.0 91:1.0 116:1.0 144:1.0 176:1.0 183:1.0 236:1.0 278:1.0 296:1.0 317:1.0 356:1.0 410:1.0 418:1.0 
-1.0 12:1.0 56:1.0 94:1.0 116:1.0 129:1.0 176:1.0 213:1.0 236:1.0 257:1.0 296:1.0 303:1.0 356:1.0 
-1.0 30:1.0 56:1.0 84:1.0 116:1.0 130:1.0 176:1.0 213:1.0 236:1.0 257:1.0 296:1.0 338:1.0 356:1.0 
-1.0 10:1.0 56:1.0 94:1.0 116:1.0 129:1.0 176:1.0 218:1.0 236:1.0 257:1.0 296:1.0 303:1.0 356:1.0 
-1.0 30:1.0 56:1.0 84:1.0 116:1.0 130:1.0 176:1.0 218:1.0 236:1.0 257:1.0 296:1.0 303:1.0 356:1.0 
-1.0 50:1.0 58:1.0 86:1.0 120:1.0 142:1.0 176:1.0 210:1.0 236:1.0 257:1.0 296:1.0 303:1.0 356:1.0 
-1.0 38:1.0 56:1.0 98:1.0 116:1.0 135:1.0 176:1.0 218:1.0 236:1.0 257:1.0 296:1.0 331:1.0 359:1.0 391:1.0 416:1.0 437:1.0 476:1.0 
-0.2572921237842486 38:1.0 56:1.0 94:1.0 116:1.0 129:1.0 176:1.0 183:1.0 236:1.0 270:1.0 296:1.0 317:1.0 356:1.0 391:1.0 416:1.0 
-0.16537572631310649 31:1.0 56:1.0 94:1.0 116:1.0 129:1.0 176:1.0 183:1.0 236:1.0 271:1.0 296:1.0 317:1.0 356:1.0 398:1.0 416:1.0 
-1.0 3:1.0 56:1.0 98:1.0 116:1.0 144:1.0 176:1.0 183:1.0 236:1.0 278:1.0 296:1.0 317:1.0 356:1.0 391:1.0 416:1.0 
-0.8608586049325755 50:1.0 58:1.0 98:1.0 116:1.0 135:1.0 176:1.0 183:1.0 236:1.0 278:1.0 296:1.0 317:1.0 356:1.0 393:1.0 416:1.0 
-0.39162504142167925 44:1.0 56:1.0 62:1.0 116:1.0 135:1.0 176:1.0 210:1.0 236:1.0 257:1.0 296:1.0 319:1.0 360:1.0 391:1.0 416:1.0 439:1.0 480:1.0 
-1.0 17:1.0 56:1.0 90:1.0 116:1.0 144:1.0 176:1.0 218:1.0 236:1.0 270:1.0 296:1.0 317:1.0 356:1.0 363:1.0 416:1.0 
-0.001020736943260703 31:1.0 56:1.0 91:1.0 116:1.0 144:1.0 176:1.0 197:1.0 236:1.0 243:1.0 296:1.0 338:1.0 356:1.0 377:1.0 416:1.0 450:1.0 476:1.0 
-1.0 24:1.0 56:1.0 94:1.0 116:1.0 129:1.0 176:1.0 210:1.0 236:1.0 257:1.0 296:1.0 338:1.0 356:1.0 
-1.0 49:1.0 56:1.0 91:1.0 116:1.0 131:1.0 176:1.0 183:1.0 236:1.0 278:1.0 296:1.0 334:1.0 356:1.0 369:1.0 416:1.0 
-0.3760859991933205 26:1.0 60:1.0 91:1.0 116:1.0 135:1.0 176:1.0 183:1.0 236:1.0 278:1.0 296:1.0 317:1.0 356:1.0 410:1.0 416:1.0 
-0.05934690366206958 3:1.0 56:1.0 98:1.0 116:1.0 135:1.0 176:1.0 183:1.0 236:1.0 270:1.0 296:1.0 317:1.0 356:1.0 372:1.0 416:1.0 
-0.8682293146841027 13:1.0 56:1.0 69:1.0 116:1.0 142:1.0 176:1.0 183:1.0 236:1.0 278:1.0 296:1.0 317:1.0 356:1.0 363:1.0 416:1.0 
-0.22185194110069545 27:1.0 60:1.0 91:1.0 116:1.0 135:1.0 176:1.0 211:1.0 236:1.0 257:1.0 296:1.0 312:1.0 356:1.0 
-1.0 3:1.0 56:1.0 98:1.0 116:1.0 144:1.0 176:1.0 213:1.0 236:1.0 270:1.0 296:1.0 317:1.0 356:1.0 363:1.0 416:1.0 
-1.0 24:1.0 56:1.0 94:1.0 116:1.0 129:1.0 176:1.0 183:1.0 236:1.0 278:1.0 296:1.0 317:1.0 356:1.0 363:1.0 416:1.0 
-1.0 38:1.0 56:1.0 98:1.0 116:1.0 144:1.0 176:1.0 197:1.0 236:1.0 243:1.0 296:1.0 338:1.0 356:1.0 377:1.0 416:1.0 423:1.0 476:1.0 
-1.0 24:1.0 56:1.0 94:1.0 116:1.0 129:1.0 176:1.0 183:1.0 236:1.0 278:1.0 296:1.0 317:1.0 356:1.0 363:1.0 416:1.0 
-0.8126025356240817 3:1.0 56:1.0 98:1.0 116:1.0 130:1.0 176:1.0 183:1.0 236:1.0 278:1.0 296:1.0 334:1.0 356:1.0 398:1.0 416:1.0 
