svm_type c_svc
kernel_type linear
nr_class 2
total_sv 2187
rho 3.111905820358553
label 1 0
probA -1.1638453871233698
probB -0.3719785353689824
nr_sv 1072 1115
SV
1.0 15:1.0 56:1.0 63:1.0 116:1.0 153:1.0 176:1.0 213:1.0 236:1.0 278:1.0 296:1.0 344:1.0 356:1.0 375:1.0 416:1.0 
1.0 33:1.0 56:1.0 77:1.0 116:1.0 153:1.0 176:1.0 218:1.0 236:1.0 289:1.0 296:1.0 303:1.0 356:1.0 
1.0 38:1.0 56:1.0 109:1.0 116:1.0 153:1.0 176:1.0 210:1.0 236:1.0 251:1.0 296:1.0 333:1.0 356:1.0 
1.0 11:1.0 56:1.0 94:1.0 116:1.0 153:1.0 176:1.0 218:1.0 236:1.0 270:1.0 296:1.0 351:1.0 356:1.0 393:1.0 416:1.0 
1.0 40:1.0 56:1.0 63:1.0 116:1.0 153:1.0 176:1.0 218:1.0 236:1.0 270:1.0 296:1.0 315:1.0 356:1.0 377:1.0 416:1.0 
1.0 27:1.0 60:1.0 62:1.0 116:1.0 158:1.0 176:1.0 210:1.0 236:1.0 253:1.0 296:1.0 309:1.0 356:1.0 
1.0 30:1.0 56:1.0 109:1.0 116:1.0 153:1.0 176:1.0 218:1.0 236:1.0 266:1.0 300:1.0 317:1.0 356:1.0 
1.0 10:1.0 56:1.0 63:1.0 116:1.0 153:1.0 176:1.0 218:1.0 236:1.0 278:1.0 296:1.0 326:1.0 360:1.0 377:1.0 416:1.0 
1.0 38:1.0 56:1.0 77:1.0 116:1.0 153:1.0 176:1.0 218:1.0 236:1.0 289:1.0 296:1.0 338:1.0 356:1.0 
1.0 38:1.0 56:1.0 109:1.0 116:1.0 153:1.0 176:1.0 210:1.0 236:1.0 291:1.0 296:1.0 327:1.0 360:1.0 
1.0 3:1.0 56:1.0 77:1.0 116:1.0 153:1.0 176:1.0 218:1.0 236:1.0 257:1.0 296:1.0 303:1.0 356:1.0 
0.6608042692952556 17:1.0 56:1.0 63:1.0 116:1.0 158:1.0 176:1.0 218:1.0 236:1.0 243:1.0 296:1.0 330:1.0 356:1.0 
1.0 38:1.0 56:1.0 77:1.0 116:1.0 153:1.0 176:1.0 218:1.0 236:1.0 278:1.0 296:1.0 317:1.0 356:1.0 404:1.0 416:1.0 
1.0 38:1.0 56:1.0 84:1.0 116:1.0 153:1.0 176:1.0 210:1.0 236:1.0 289:1.0 296:1.0 303:1.0 356:1.0 
0.9720009385265059 22:1.0 56:1.0 77:1.0 116:1.0 153:1.0 176:1.0 210:1.0 236:1.0 284:1.0 296:1.0 311:1.0 356:1.0 
1.0 17:1.0 56:1.0 82:1.0 116:1.0 153:1.0 176:1.0 210:1.0 236:1.0 257:1.0 296:1.0 303:1.0 356:1.0 
1.0 38:1.0 56:1.0 77:1.0 116:1.0 153:1.0 176:1.0 218:1.0 236:1.0 278:1.0 296:1.0 344:1.0 356:1.0 375:1.0 416:1.0 
1.0 17:1.0 56:1.0 63:1.0 116:1.0 153:1.0 176:1.0 218:1.0 236:1.0 251:1.0 296:1.0 331:1.0 356:1.0 
1.0 12:1.0 56:1.0 75:1.0 116:1.0 153:1.0 176:1.0 210:1.0 236:1.0 263:1.0 300:1.0 334:1.0 356:1.0 
1.0 34:1.0 56:1.0 69:1.0 116:1.0 153:1.0 176:1.0 218:1.0 236:1.0 257:1.0 296:1.0 333:1.0 356:1.0 
1.0 17:1.0 56:1.0 77:1.0 116:1.0 153:1.0 176:1.0 210:1.0 236:1.0 267:1.0 300:1.0 331:1.0 356:1.0 
1.0 38:1.0 56:1.0 77:1.0 116:1.0 153:1.0 176:1.0 210:1.0 236:1.0 274:1.0 296:1.0 309:1.0 356:1.0 
1.0 15:1.0 56:1.0 63:1.0 116:1.0 153:1.0 176:1.0 218:1.0 236:1.0 257:1.0 296:1.0 303:1.0 356:1.0 
0.09778449498731266 38:1.0 56:1.0 87:1.0 120:1.0 153:1.0 176:1.0 218:1.0 236:1.0 289:1.0 296:1.0 331:1.0 354:1.0 
0.06786268593712483 3:1.0 56:1.0 63:1.0 116:1.0 158:1.0 176:1.0 218:1.0 236:1.0 263:1.0 300:1.0 319:1.0 360:1.0 
1.0 49:1.0 56:1.0 63:1.0 116:1.0 153:1.0 176:1.0 218:1.0 236:1.0 278:1.0 296:1.0 326:1.0 360:1.0 391:1.0 416:1.0 
1.0 17:1.0 56:1.0 63:1.0 116:1.0 153:1.0 176:1.0 218:1.0 236:1.0 274:1.0 296:1.0 303:1.0 356:1.0 
1.0 10:1.0 56:1.0 77:1.0 116:1.0 153:1.0 176:1.0 210:1.0 236:1.0 265:1.0 300:1.0 349:1.0 356:1.0 
1.0 4:1.0 56:1.0 77:1.0 116:1.0 153:1.0 176:1.0 218:1.0 236:1.0 289:1.0 296:1.0 317:1.0 356:1.0 
1.0 49:1.0 56:1.0 63:1.0 116:1.0 153:1.0 176:1.0 210:1.0 236:1.0 257:1.0 296:1.0 338:1.0 356:1.0 
1.0 30:1.0 56:1.0 77:1.0 116:1.0 158:1.0 176:1.0 229:1.0 236:1.0 278:1.0 296:1.0 311:1.0 356:1.0 370:1.0 416:1.0 
0.8489959213110131 17:1.0 56:1.0 63:1.0 116:1.0 158:1.0 176:1.0 218:1.0 236:1.0 268:1.0 296:1.0 338:1.0 356:1.0 
1.0 17:1.0 56:1.0 63:1.0 116:1.0 153:1.0 176:1.0 210:1.0 236:1.0 257:1.0 296:1.0 303:1.0 356:1.0 
1.0 9:1.0 56:1.0 88:1.0 116:1.0 153:1.0 176:1.0 218:1.0 236:1.0 289:1.0 296:1.0 324:1.0 356:1.0 
1.0 17:1.0 56:1.0 63:1.0 116:1.0 153:1.0 176:1.0 218:1.0 236:1.0 262:1.0 296:1.0 303:1.0 356:1.0 
1.0 30:1.0 56:1.0 77:1.0 116:1.0 153:1.0 176:1.0 210:1.0 236:1.0 285:1.0 296:1.0 324:1.0 356:1.0 
1.0 26:1.0 60:1.0 88:1.0 116:1.0 153:1.0 176:1.0 218:1.0 236:1.0 242:1.0 296:1.0 324:1.0 356:1.0 
1.0 17:1.0 56:1.0 77:1.0 116:1.0 153:1.0 176:1.0 210:1.0 236:1.0 279:1.0 296:1.0 324:1.0 356:1.0 
1.0 38:1.0 56:1.0 77:1.0 116:1.0 153:1.0 176:1.0 210:1.0 236:1.0 257:1.0 296:1.0 303:1.0 356:1.0 
1.0 17:1.0 56:1.0 63:1.0 116:1.0 153:1.0 176:1.0 218:1.0 236:1.0 278:1.0 296:1.0 326:1.0 360:1.0 377:1.0 416:1.0 
1.0 17:1.0 56:1.0 63:1.0 116:1.0 153:1.0 176:1.0 218:1.0 236:1.0 267:1.0 300:1.0 331:1.0 356:1.0 
1.0 34:1.0 56:1.0 63:1.0 116:1.0 153:1.0 176:1.0 218:1.0 236:1.0 267:1.0 300:1.0 331:1.0 359:1.0 
1.0 38:1.0 56:1.0 77:1.0 116:1.0 153:1.0 176:1.0 218:1.0 236:1.0 257:1.0 296:1.0 333:1.0 356:1.0 
1.0 24:1.0 56:1.0 63:1.0 116:1.0 153:1.0 176:1.0 218:1.0 236:1.0 278:1.0 296:1.0 349:1.0 356:1.0 362:1.0 416:1.0 
1.0 33:1.0 56:1.0 91:1.0 116:1.0 158:1.0 176:1.0 210:1.0 236:1.0 264:1.0 296:1.0 322:1.0 356:1.0 
1.0 24:1.0 56:1.0 82:1.0 116:1.0 153:1.0 176:1.0 218:1.0 236:1.0 267:1.0 300:1.0 344:1.0 356:1.0 
1.0 2:1.0 56:1.0 77:1.0 116:1.0 153:1.0 176:1.0 218:1.0 236:1.0 267:1.0 300:1.0 317:1.0 356:1.0 
0.07980499694126118 17:1.0 56:1.0 82:1.0 116:1.0 158:1.0 176:1.0 218:1.0 236:1.0 290:1.0 296:1.0 330:1.0 356:1.0 
1.0 22:1.0 56:1.0 77:1.0 116:1.0 153:1.0 176:1.0 210:1.0 236:1.0 257:1.0 296:1.0 303:1.0 356:1.0 
0.014708246772702193 49:1.0 56:1.0 69:1.0 116:1.0 158:1.0 176:1.0 210:1.0 236:1.0 266:1.0 300:1.0 317:1.0 356:1.0 
1.0 3:1.0 56:1.0 79:1.0 120:1.0 153:1.0 176:1.0 218:1.0 236:1.0 259:1.0 300:1.0 334:1.0 356:1.0 
1.0 17:1.0 59:1.0 63:1.0 116:1.0 158:1.0 176:1.0 210:1.0 236:1.0 267:1.0 300:1.0 331:1.0 356:1.0 
0.8621271533337604 26:1.0 60:1.0 63:1.0 116:1.0 158:1.0 176:1.0 218:1.0 236:1.0 264:1.0 296:1.0 302:1.0 356:1.0 
1.0 31:1.0 56:1.0 89:1.0 116:1.0 158:1.0 176:1.0 213:1.0 236:1.0 278:1.0 296:1.0 326:1.0 360:1.0 391:1.0 416:1.0 
1.0 9:1.0 56:1.0 77:1.0 116:1.0 153:1.0 176:1.0 210:1.0 236:1.0 267:1.0 300:1.0 322:1.0 356:1.0 
1.0 49:1.0 56:1.0 84:1.0 116:1.0 153:1.0 176:1.0 218:1.0 236:1.0 289:1.0 296:1.0 330:1.0 356:1.0 
1.0 24:1.0 56:1.0 63:1.0 116:1.0 153:1.0 176:1.0 218:1.0 236:1.0 274:1.0 296:1.0 309:1.0 356:1.0 
1.0 30:1.0 56:1.0 77:1.0 116:1.0 158:1.0 176:1.0 210:1.0 236:1.0 259:1.0 300:1.0 317:1.0 356:1.0 
1.0 17:1.0 56:1.0 63:1.0 116:1.0 153:1.0 176:1.0 218:1.0 236:1.0 257:1.0 296:1.0 331:1.0 356:1.0 
1.0 9:1.0 56:1.0 63:1.0 116:1.0 153:1.0 176:1.0 218:1.0 236:1.0 278:1.0 296:1.0 317:1.0 356:1.0 391:1.0 416:1.0 
1.0 38:1.0 56:1.0 87:1.0 120:1.0 153:1.0 176:1.0 218:1.0 236:1.0 267:1.0 300:1.0 349:1.0 356:1.0 
1.0 24:1.0 56:1.0 63:1.0 116:1.0 153:1.0 176:1.0 218:1.0 236:1.0 278:1.0 296:1.0 326:1.0 360:1.0 388:1.0 416:1.0 
0.9991299617502655 34:1.0 56:1.0 110:1.0 116:1.0 158:1.0 176:1.0 210:1.0 236:1.0 270:1.0 296:1.0 317:1.0 356:1.0 363:1.0 416:1.0 
0.012898017050373954 31:1.0 56:1.0 87:1.0 120:1.0 158:1.0 176:1.0 218:1.0 236:1.0 271:1.0 296:1.0 331:1.0 356:1.0 
0.6683365606111019 17:1.0 56:1.0 63:1.0 116:1.0 158:1.0 176:1.0 210:1.0 236:1.0 266:1.0 300:1.0 331:1.0 356:1.0 
0.127001894943857 51:1.0 56:1.0 63:1.0 116:1.0 158:1.0 176:1.0 218:1.0 236:1.0 264:1.0 296:1.0 328:1.0 356:1.0 
1.0 24:1.0 56:1.0 88:1.0 116:1.0 158:1.0 176:1.0 210:1.0 236:1.0 289:1.0 296:1.0 351:1.0 356:1.0 
1.0 24:1.0 56:1.0 88:1.0 116:1.0 158:1.0 176:1.0 210:1.0 236:1.0 266:1.0 300:1.0 319:1.0 360:1.0 
0.403895453435894 17:1.0 56:1.0 88:1.0 116:1.0 158:1.0 176:1.0 218:1.0 236:1.0 278:1.0 296:1.0 338:1.0 356:1.0 386:1.0 420:1.0 432:1.0 476:1.0 
1.0 12:1.0 56:1.0 71:1.0 116:1.0 153:1.0 176:1.0 218:1.0 236:1.0 242:1.0 296:1.0 334:1.0 356:1.0 
1.0 31:1.0 54:1.0 89:1.0 116:1.0 153:1.0 176:1.0 218:1.0 236:1.0 267:1.0 300:1.0 302:1.0 356:1.0 
0.7451387511632774 50:1.0 57:1.0 77:1.0 116:1.0 158:1.0 176:1.0 210:1.0 236:1.0 267:1.0 300:1.0 317:1.0 356:1.0 
1.0 12:1.0 56:1.0 84:1.0 116:1.0 158:1.0 176:1.0 213:1.0 236:1.0 270:1.0 296:1.0 317:1.0 356:1.0 391:1.0 416:1.0 
0.13306125206634267 3:1.0 56:1.0 110:1.0 118:1.0 158:1.0 176:1.0 218:1.0 236:1.0 250:1.0 296:1.0 317:1.0 356:1.0 
0.4101296564157509 31:1.0 60:1.0 110:1.0 118:1.0 158:1.0 176:1.0 218:1.0 236:1.0 266:1.0 300:1.0 317:1.0 356:1.0 
1.0 15:1.0 56:1.0 110:1.0 116:1.0 158:1.0 176:1.0 210:1.0 236:1.0 257:1.0 296:1.0 350:1.0 358:1.0 
1.0 17:1.0 56:1.0 63:1.0 116:1.0 158:1.0 176:1.0 210:1.0 236:1.0 262:1.0 296:1.0 319:1.0 360:1.0 
1.0 38:1.0 56:1.0 109:1.0 116:1.0 153:1.0 176:1.0 210:1.0 236:1.0 267:1.0 300:1.0 349:1.0 356:1.0 
0.47572512070653894 27:1.0 60:1.0 63:1.0 116:1.0 158:1.0 176:1.0 218:1.0 236:1.0 255:1.0 296:1.0 338:1.0 356:1.0 
0.46390243470043124 31:1.0 56:1.0 87:1.0 120:1.0 158:1.0 176:1.0 218:1.0 236:1.0 257:1.0 296:1.0 303:1.0 356:1.0 
0.9060932657877201 10:1.0 56:1.0 63:1.0 116:1.0 158:1.0 176:1.0 218:1.0 236:1.0 266:1.0 300:1.0 303:1.0 356:1.0 
0.2683315712960453 11:1.0 56:1.0 77:1.0 116:1.0 158:1.0 176:1.0 210:1.0 236:1.0 289:1.0 296:1.0 330:1.0 356:1.0 
0.35396175874627717 49:1.0 56:1.0 63:1.0 116:1.0 158:1.0 176:1.0 218:1.0 236:1.0 266:1.0 300:1.0 302:1.0 356:1.0 
1.0 9:1.0 56:1.0 63:1.0 116:1.0 153:1.0 176:1.0 218:1.0 236:1.0 278:1.0 296:1.0 334:1.0 356:1.0 369:1.0 416:1.0 
1.0 17:1.0 56:1.0 63:1.0 116:1.0 153:1.0 176:1.0 218:1.0 236:1.0 250:1.0 296:1.0 317:1.0 356:1.0 
0.15516618280617808 17:1.0 56:1.0 63:1.0 116:1.0 158:1.0 176:1.0 218:1.0 236:1.0 266:1.0 300:1.0 319:1.0 360:1.0 
0.009921893936806672 17:1.0 56:1.0 63:1.0 116:1.0 158:1.0 176:1.0 218:1.0 236:1.0 267:1.0 300:1.0 331:1.0 360:1.0 
1.0 32:1.0 60:1.0 110:1.0 118:1.0 158:1.0 176:1.0 218:1.0 236:1.0 266:1.0 300:1.0 322:1.0 356:1.0 
0.5348529306061078 19:1.0 60:1.0 63:1.0 116:1.0 158:1.0 176:1.0 218:1.0 236:1.0 266:1.0 300:1.0 326:1.0 360:1.0 
1.0 17:1.0 56:1.0 63:1.0 116:1.0 153:1.0 176:1.0 210:1.0 236:1.0 257:1.0 296:1.0 303:1.0 356:1.0 
1.0 27:1.0 60:1.0 77:1.0 116:1.0 153:1.0 176:1.0 218:1.0 236:1.0 267:1.0 300:1.0 338:1.0 356:1.0 
1.0 12:1.0 56:1.0 71:1.0 116:1.0 153:1.0 176:1.0 218:1.0 236:1.0 255:1.0 296:1.0 303:1.0 356:1.0 
1.0 12:1.0 56:1.0 71:1.0 116:1.0 153:1.0 176:1.0 218:1.0 236:1.0 255:1.0 296:1.0 333:1.0 356:1.0 
1.0 38:1.0 56:1.0 109:1.0 116:1.0 153:1.0 176:1.0 218:1.0 236:1.0 266:1.0 300:1.0 312:1.0 356:1.0 
1.0 10:1.0 56:1.0 94:1.0 116:1.0 153:1.0 176:1.0 218:1.0 236:1.0 267:1.0 300:1.0 331:1.0 356:1.0 
1.0 17:1.0 56:1.0 88:1.0 116:1.0 153:1.0 176:1.0 218:1.0 236:1.0 266:1.0 300:1.0 312:1.0 356:1.0 
1.0 17:1.0 56:1.0 63:1.0 116:1.0 153:1.0 176:1.0 218:1.0 236:1.0 266:1.0 300:1.0 338:1.0 359:1.0 
1.0 12:1.0 56:1.0 71:1.0 116:1.0 153:1.0 176:1.0 218:1.0 236:1.0 255:1.0 296:1.0 328:1.0 356:1.0 
1.0 38:1.0 56:1.0 77:1.0 116:1.0 153:1.0 176:1.0 210:1.0 236:1.0 257:1.0 296:1.0 331:1.0 356:1.0 
1.0 38:1.0 56:1.0 109:1.0 116:1.0 153:1.0 176:1.0 218:1.0 236:1.0 257:1.0 296:1.0 328:1.0 356:1.0 
1.0 30:1.0 56:1.0 84:1.0 116:1.0 153:1.0 176:1.0 218:1.0 236:1.0 257:1.0 296:1.0 303:1.0 356:1.0 
1.0 27:1.0 60:1.0 63:1.0 116:1.0 153:1.0 176:1.0 218:1.0 236:1.0 257:1.0 296:1.0 303:1.0 356:1.0 
1.0 17:1.0 56:1.0 63:1.0 116:1.0 153:1.0 176:1.0 218:1.0 236:1.0 267:1.0 300:1.0 322:1.0 356:1.0 
0.20657496225490296 17:1.0 56:1.0 63:1.0 116:1.0 158:1.0 176:1.0 218:1.0 236:1.0 252:1.0 296:1.0 324:1.0 356:1.0 
0.5265221345235205 3:1.0 56:1.0 91:1.0 116:1.0 158:1.0 176:1.0 218:1.0 236:1.0 266:1.0 300:1.0 317:1.0 356:1.0 
1.0 2:1.0 56:1.0 63:1.0 116:1.0 153:1.0 176:1.0 218:1.0 236:1.0 257:1.0 296:1.0 303:1.0 356:1.0 
0.008949899623907161 31:1.0 56:1.0 81:1.0 120:1.0 158:1.0 176:1.0 218:1.0 236:1.0 271:1.0 296:1.0 327:1.0 360:1.0 
0.645186668603573 17:1.0 56:1.0 88:1.0 116:1.0 158:1.0 176:1.0 210:1.0 236:1.0 255:1.0 296:1.0 317:1.0 356:1.0 
1.0 15:1.0 56:1.0 63:1.0 116:1.0 153:1.0 176:1.0 210:1.0 236:1.0 278:1.0 296:1.0 349:1.0 356:1.0 398:1.0 416:1.0 
1.0 38:1.0 56:1.0 109:1.0 116:1.0 153:1.0 176:1.0 210:1.0 236:1.0 278:1.0 296:1.0 326:1.0 360:1.0 391:1.0 416:1.0 
1.0 17:1.0 56:1.0 63:1.0 116:1.0 153:1.0 176:1.0 218:1.0 236:1.0 267:1.0 300:1.0 349:1.0 356:1.0 
1.0 10:1.0 56:1.0 77:1.0 116:1.0 153:1.0 176:1.0 210:1.0 236:1.0 289:1.0 296:1.0 333:1.0 356:1.0 
1.0 31:1.0 56:1.0 77:1.0 116:1.0 158:1.0 176:1.0 218:1.0 236:1.0 270:1.0 296:1.0 345:1.0 356:1.0 384:1.0 416:1.0 
1.0 24:1.0 56:1.0 63:1.0 116:1.0 153:1.0 176:1.0 218:1.0 236:1.0 257:1.0 296:1.0 303:1.0 356:1.0 
0.247260983679849 31:1.0 60:1.0 81:1.0 116:1.0 158:1.0 176:1.0 218:1.0 236:1.0 264:1.0 296:1.0 334:1.0 356:1.0 
1.0 27:1.0 60:1.0 63:1.0 116:1.0 153:1.0 176:1.0 218:1.0 236:1.0 257:1.0 296:1.0 331:1.0 356:1.0 
1.0 3:1.0 56:1.0 110:1.0 118:1.0 153:1.0 176:1.0 218:1.0 236:1.0 267:1.0 300:1.0 324:1.0 356:1.0 
1.0 9:1.0 56:1.0 63:1.0 116:1.0 153:1.0 176:1.0 218:1.0 236:1.0 278:1.0 296:1.0 317:1.0 356:1.0 398:1.0 416:1.0 
1.0 9:1.0 56:1.0 77:1.0 116:1.0 153:1.0 176:1.0 210:1.0 236:1.0 267:1.0 300:1.0 333:1.0 356:1.0 
0.5187390729249073 12:1.0 56:1.0 77:1.0 116:1.0 158:1.0 176:1.0 210:1.0 236:1.0 266:1.0 300:1.0 351:1.0 356:1.0 
1.0 24:1.0 56:1.0 77:1.0 116:1.0 153:1.0 176:1.0 210:1.0 236:1.0 289:1.0 296:1.0 309:1.0 356:1.0 
1.0 17:1.0 56:1.0 88:1.0 116:1.0 153:1.0 176:1.0 218:1.0 236:1.0 262:1.0 296:1.0 317:1.0 356:1.0 
1.0 17:1.0 56:1.0 82:1.0 116:1.0 153:1.0 176:1.0 218:1.0 236:1.0 267:1.0 300:1.0 322:1.0 356:1.0 
1.0 17:1.0 56:1.0 63:1.0 116:1.0 153:1.0 176:1.0 218:1.0 236:1.0 266:1.0 300:1.0 331:1.0 356:1.0 
0.7350780332677251 31:1.0 60:1.0 81:1.0 116:1.0 158:1.0 176:1.0 218:1.0 236:1.0 267:1.0 300:1.0 302:1.0 356:1.0 
1.0 17:1.0 56:1.0 63:1.0 116:1.0 153:1.0 176:1.0 218:1.0 236:1.0 266:1.0 300:1.0 317:1.0 359:1.0 
1.0 17:1.0 56:1.0 63:1.0 116:1.0 153:1.0 176:1.0 218:1.0 236:1.0 267:1.0 300:1.0 310:1.0 356:1.0 
1.0 17:1.0 56:1.0 63:1.0 116:1.0 153:1.0 176:1.0 218:1.0 236:1.0 266:1.0 300:1.0 351:1.0 356:1.0 
1.0 15:1.0 56:1.0 63:1.0 116:1.0 158:1.0 176:1.0 218:1.0 236:1.0 257:1.0 296:1.0 338:1.0 356:1.0 
1.0 38:1.0 56:1.0 77:1.0 116:1.0 153:1.0 176:1.0 210:1.0 236:1.0 270:1.0 296:1.0 326:1.0 360:1.0 377:1.0 416:1.0 
1.0 9:1.0 56:1.0 88:1.0 116:1.0 153:1.0 176:1.0 218:1.0 236:1.0 257:1.0 296:1.0 319:1.0 360:1.0 
0.9954963848163305 17:1.0 56:1.0 88:1.0 116:1.0 158:1.0 176:1.0 210:1.0 236:1.0 266:1.0 300:1.0 312:1.0 356:1.0 
1.0 45:1.0 56:1.0 75:1.0 116:1.0 153:1.0 176:1.0 218:1.0 236:1.0 274:1.0 296:1.0 303:1.0 356:1.0 
0.22275097045855508 15:1.0 56:1.0 63:1.0 116:1.0 158:1.0 176:1.0 218:1.0 236:1.0 289:1.0 296:1.0 331:1.0 356:1.0 
0.04631730192380905 17:1.0 56:1.0 88:1.0 116:1.0 158:1.0 176:1.0 218:1.0 236:1.0 266:1.0 300:1.0 331:1.0 356:1.0 
1.0 31:1.0 56:1.0 75:1.0 116:1.0 153:1.0 176:1.0 218:1.0 236:1.0 274:1.0 296:1.0 331:1.0 356:1.0 
1.0 30:1.0 56:1.0 77:1.0 116:1.0 153:1.0 176:1.0 210:1.0 236:1.0 257:1.0 296:1.0 331:1.0 356:1.0 
1.0 26:1.0 60:1.0 77:1.0 119:1.0 153:1.0 176:1.0 210:1.0 236:1.0 267:1.0 300:1.0 331:1.0 356:1.0 
1.0 31:1.0 56:1.0 89:1.0 116:1.0 153:1.0 176:1.0 218:1.0 236:1.0 267:1.0 300:1.0 331:1.0 356:1.0 
1.0 3:1.0 56:1.0 91:1.0 116:1.0 158:1.0 176:1.0 218:1.0 236:1.0 289:1.0 296:1.0 309:1.0 356:1.0 
1.0 38:1.0 56:1.0 109:1.0 116:1.0 153:1.0 176:1.0 210:1.0 236:1.0 267:1.0 300:1.0 331:1.0 356:1.0 
0.7631036179886316 30:1.0 56:1.0 87:1.0 120:1.0 158:1.0 176:1.0 210:1.0 236:1.0 267:1.0 300:1.0 330:1.0 356:1.0 
1.0 31:1.0 56:1.0 75:1.0 116:1.0 158:1.0 176:1.0 218:1.0 236:1.0 273:1.0 296:1.0 332:1.0 360:1.0 
1.0 49:1.0 56:1.0 88:1.0 116:1.0 153:1.0 176:1.0 218:1.0 236:1.0 255:1.0 296:1.0 334:1.0 356:1.0 
1.0 31:1.0 56:1.0 77:1.0 116:1.0 153:1.0 176:1.0 210:1.0 236:1.0 262:1.0 296:1.0 317:1.0 356:1.0 
1.0 27:1.0 60:1.0 88:1.0 116:1.0 153:1.0 176:1.0 213:1.0 236:1.0 278:1.0 296:1.0 323:1.0 360:1.0 391:1.0 414:1.0 
1.0 3:1.0 56:1.0 95:1.0 116:1.0 153:1.0 176:1.0 218:1.0 236:1.0 257:1.0 296:1.0 331:1.0 356:1.0 
1.0 3:1.0 56:1.0 95:1.0 116:1.0 153:1.0 176:1.0 210:1.0 236:1.0 257:1.0 296:1.0 303:1.0 356:1.0 
1.0 17:1.0 56:1.0 63:1.0 116:1.0 153:1.0 176:1.0 218:1.0 236:1.0 267:1.0 300:1.0 322:1.0 356:1.0 
1.0 30:1.0 56:1.0 77:1.0 116:1.0 153:1.0 176:1.0 218:1.0 236:1.0 289:1.0 296:1.0 333:1.0 356:1.0 
1.0 6:1.0 56:1.0 93:1.0 116:1.0 153:1.0 176:1.0 218:1.0 236:1.0 257:1.0 296:1.0 303:1.0 356:1.0 398:1.0 416:1.0 
0.9795441013251984 15:1.0 56:1.0 63:1.0 116:1.0 158:1.0 176:1.0 218:1.0 236:1.0 257:1.0 296:1.0 303:1.0 356:1.0 
1.0 50:1.0 58:1.0 110:1.0 116:1.0 153:1.0 176:1.0 210:1.0 236:1.0 257:1.0 296:1.0 338:1.0 356:1.0 
1.0 50:1.0 58:1.0 110:1.0 116:1.0 153:1.0 176:1.0 210:1.0 236:1.0 267:1.0 300:1.0 333:1.0 356:1.0 
0.6448925980742799 3:1.0 56:1.0 95:1.0 116:1.0 158:1.0 176:1.0 210:1.0 236:1.0 257:1.0 296:1.0 303:1.0 356:1.0 
1.0 33:1.0 56:1.0 109:1.0 116:1.0 158:1.0 176:1.0 210:1.0 236:1.0 267:1.0 300:1.0 330:1.0 356:1.0 
1.0 27:1.0 60:1.0 110:1.0 118:1.0 153:1.0 176:1.0 210:1.0 236:1.0 257:1.0 296:1.0 303:1.0 356:1.0 
0.005081445905957804 17:1.0 56:1.0 63:1.0 116:1.0 158:1.0 176:1.0 210:1.0 236:1.0 243:1.0 296:1.0 322:1.0 356:1.0 
0.02693665483825746 30:1.0 56:1.0 87:1.0 120:1.0 158:1.0 176:1.0 210:1.0 236:1.0 289:1.0 296:1.0 333:1.0 356:1.0 
1.0 30:1.0 56:1.0 109:1.0 116:1.0 153:1.0 176:1.0 210:1.0 236:1.0 267:1.0 300:1.0 331:1.0 360:1.0 
0.08270820856687328 49:1.0 56:1.0 63:1.0 116:1.0 158:1.0 176:1.0 218:1.0 236:1.0 264:1.0 296:1.0 338:1.0 360:1.0 
0.3664444101334256 27:1.0 60:1.0 110:1.0 118:1.0 158:1.0 176:1.0 210:1.0 236:1.0 266:1.0 300:1.0 320:1.0 356:1.0 
0.05676902951689656 11:1.0 56:1.0 110:1.0 118:1.0 158:1.0 176:1.0 210:1.0 236:1.0 266:1.0 300:1.0 317:1.0 356:1.0 
1.0 11:1.0 56:1.0 88:1.0 116:1.0 158:1.0 176:1.0 210:1.0 236:1.0 257:1.0 296:1.0 331:1.0 360:1.0 
1.0 3:1.0 56:1.0 95:1.0 116:1.0 153:1.0 176:1.0 210:1.0 236:1.0 284:1.0 296:1.0 324:1.0 356:1.0 
1.0 33:1.0 56:1.0 110:1.0 118:1.0 153:1.0 176:1.0 210:1.0 236:1.0 257:1.0 296:1.0 303:1.0 356:1.0 
1.0 30:1.0 56:1.0 109:1.0 116:1.0 153:1.0 176:1.0 210:1.0 236:1.0 262:1.0 296:1.0 317:1.0 356:1.0 
1.0 31:1.0 60:1.0 87:1.0 120:1.0 158:1.0 176:1.0 210:1.0 236:1.0 289:1.0 296:1.0 338:1.0 356:1.0 
0.0052732451628911825 30:1.0 56:1.0 82:1.0 116:1.0 158:1.0 176:1.0 210:1.0 236:1.0 267:1.0 300:1.0 338:1.0 356:1.0 
1.0 38:1.0 56:1.0 77:1.0 116:1.0 153:1.0 176:1.0 210:1.0 236:1.0 251:1.0 296:1.0 317:1.0 356:1.0 
0.8536883966835856 33:1.0 56:1.0 110:1.0 116:1.0 158:1.0 176:1.0 210:1.0 236:1.0 257:1.0 296:1.0 331:1.0 360:1.0 
1.0 27:1.0 60:1.0 63:1.0 116:1.0 153:1.0 176:1.0 218:1.0 236:1.0 278:1.0 296:1.0 317:1.0 356:1.0 391:1.0 416:1.0 
1.0 49:1.0 56:1.0 93:1.0 116:1.0 153:1.0 176:1.0 210:1.0 236:1.0 273:1.0 296:1.0 303:1.0 356:1.0 377:1.0 416:1.0 
1.0 49:1.0 56:1.0 93:1.0 116:1.0 158:1.0 176:1.0 210:1.0 236:1.0 250:1.0 296:1.0 317:1.0 356:1.0 363:1.0 416:1.0 
1.0 30:1.0 56:1.0 109:1.0 116:1.0 153:1.0 176:1.0 218:1.0 236:1.0 266:1.0 300:1.0 326:1.0 360:1.0 
1.0 30:1.0 56:1.0 77:1.0 116:1.0 153:1.0 176:1.0 210:1.0 236:1.0 274:1.0 296:1.0 303:1.0 356:1.0 
1.0 50:1.0 58:1.0 63:1.0 116:1.0 153:1.0 176:1.0 218:1.0 236:1.0 257:1.0 296:1.0 331:1.0 356:1.0 
1.0 31:1.0 56:1.0 77:1.0 116:1.0 153:1.0 176:1.0 210:1.0 236:1.0 266:1.0 300:1.0 303:1.0 356:1.0 
1.0 33:1.0 56:1.0 86:1.0 120:1.0 158:1.0 176:1.0 210:1.0 236:1.0 253:1.0 296:1.0 302:1.0 356:1.0 
0.5804054387631385 24:1.0 56:1.0 77:1.0 116:1.0 158:1.0 176:1.0 210:1.0 236:1.0 253:1.0 296:1.0 309:1.0 356:1.0 
1.0 30:1.0 56:1.0 77:1.0 116:1.0 153:1.0 176:1.0 218:1.0 236:1.0 253:1.0 296:1.0 309:1.0 356:1.0 
1.0 38:1.0 56:1.0 77:1.0 116:1.0 153:1.0 176:1.0 218:1.0 236:1.0 257:1.0 296:1.0 338:1.0 356:1.0 
1.0 22:1.0 56:1.0 63:1.0 116:1.0 153:1.0 176:1.0 218:1.0 236:1.0 267:1.0 300:1.0 329:1.0 360:1.0 
1.0 49:1.0 56:1.0 63:1.0 116:1.0 153:1.0 176:1.0 218:1.0 236:1.0 284:1.0 296:1.0 315:1.0 356:1.0 
1.0 17:1.0 56:1.0 88:1.0 116:1.0 153:1.0 176:1.0 210:1.0 236:1.0 266:1.0 300:1.0 317:1.0 359:1.0 
1.0 10:1.0 56:1.0 77:1.0 116:1.0 153:1.0 176:1.0 210:1.0 236:1.0 269:1.0 300:1.0 329:1.0 360:1.0 
1.0 34:1.0 56:1.0 69:1.0 116:1.0 153:1.0 176:1.0 218:1.0 236:1.0 257:1.0 296:1.0 330:1.0 356:1.0 
1.0 38:1.0 56:1.0 87:1.0 120:1.0 153:1.0 176:1.0 218:1.0 236:1.0 267:1.0 300:1.0 349:1.0 356:1.0 
1.0 2:1.0 56:1.0 71:1.0 116:1.0 153:1.0 176:1.0 210:1.0 236:1.0 251:1.0 296:1.0 303:1.0 356:1.0 
1.0 11:1.0 56:1.0 63:1.0 116:1.0 153:1.0 176:1.0 218:1.0 236:1.0 274:1.0 296:1.0 309:1.0 356:1.0 
0.3967732736313055 17:1.0 56:1.0 77:1.0 116:1.0 158:1.0 176:1.0 210:1.0 236:1.0 251:1.0 300:1.0 331:1.0 360:1.0 
1.0 38:1.0 56:1.0 77:1.0 116:1.0 153:1.0 176:1.0 218:1.0 236:1.0 242:1.0 296:1.0 317:1.0 356:1.0 
1.0 17:1.0 56:1.0 63:1.0 116:1.0 153:1.0 176:1.0 210:1.0 236:1.0 266:1.0 300:1.0 333:1.0 359:1.0 
1.0 17:1.0 56:1.0 63:1.0 116:1.0 153:1.0 176:1.0 218:1.0 236:1.0 267:1.0 300:1.0 317:1.0 356:1.0 
1.0 24:1.0 56:1.0 70:1.0 116:1.0 158:1.0 176:1.0 210:1.0 236:1.0 257:1.0 296:1.0 330:1.0 356:1.0 
1.0 17:1.0 56:1.0 63:1.0 116:1.0 158:1.0 176:1.0 210:1.0 236:1.0 257:1.0 296:1.0 333:1.0 356:1.0 
1.0 30:1.0 56:1.0 77:1.0 116:1.0 153:1.0 176:1.0 210:1.0 236:1.0 267:1.0 300:1.0 322:1.0 356:1.0 
1.0 17:1.0 56:1.0 63:1.0 116:1.0 153:1.0 176:1.0 218:1.0 236:1.0 269:1.0 300:1.0 329:1.0 360:1.0 
1.0 9:1.0 56:1.0 63:1.0 116:1.0 153:1.0 176:1.0 218:1.0 236:1.0 257:1.0 296:1.0 338:1.0 356:1.0 
0.003609307043193466 17:1.0 56:1.0 63:1.0 116:1.0 158:1.0 176:1.0 210:1.0 236:1.0 289:1.0 296:1.0 324:1.0 356:1.0 
1.0 2:1.0 56:1.0 63:1.0 116:1.0 153:1.0 176:1.0 218:1.0 236:1.0 266:1.0 300:1.0 338:1.0 356:1.0 
0.9988903705765186 26:1.0 60:1.0 86:1.0 120:1.0 158:1.0 176:1.0 218:1.0 236:1.0 270:1.0 296:1.0 317:1.0 356:1.0 363:1.0 416:1.0 
1.0 30:1.0 56:1.0 77:1.0 116:1.0 153:1.0 176:1.0 210:1.0 236:1.0 251:1.0 296:1.0 310:1.0 356:1.0 
1.0 15:1.0 56:1.0 63:1.0 116:1.0 153:1.0 176:1.0 213:1.0 236:1.0 278:1.0 296:1.0 310:1.0 356:1.0 377:1.0 416:1.0 
1.0 17:1.0 56:1.0 63:1.0 116:1.0 153:1.0 176:1.0 210:1.0 236:1.0 257:1.0 296:1.0 303:1.0 356:1.0 
0.011752019457382192 17:1.0 56:1.0 79:1.0 120:1.0 153:1.0 176:1.0 218:1.0 236:1.0 278:1.0 296:1.0 319:1.0 360:1.0 382:1.0 416:1.0 
1.0 2:1.0 56:1.0 77:1.0 116:1.0 153:1.0 176:1.0 210:1.0 236:1.0 257:1.0 296:1.0 338:1.0 356:1.0 
1.0 17:1.0 56:1.0 63:1.0 116:1.0 153:1.0 176:1.0 210:1.0 236:1.0 284:1.0 296:1.0 324:1.0 356:1.0 
1.0 17:1.0 56:1.0 63:1.0 116:1.0 153:1.0 176:1.0 210:1.0 236:1.0 257:1.0 296:1.0 338:1.0 356:1.0 
1.0 50:1.0 56:1.0 63:1.0 116:1.0 153:1.0 176:1.0 218:1.0 236:1.0 267:1.0 300:1.0 324:1.0 356:1.0 
1.0 38:1.0 56:1.0 84:1.0 116:1.0 153:1.0 176:1.0 218:1.0 236:1.0 289:1.0 296:1.0 338:1.0 356:1.0 
1.0 2:1.0 56:1.0 70:1.0 116:1.0 153:1.0 176:1.0 210:1.0 236:1.0 289:1.0 296:1.0 302:1.0 356:1.0 
1.0 26:1.0 60:1.0 63:1.0 119:1.0 153:1.0 176:1.0 218:1.0 236:1.0 284:1.0 296:1.0 324:1.0 356:1.0 
1.0 38:1.0 56:1.0 77:1.0 116:1.0 153:1.0 176:1.0 210:1.0 236:1.0 250:1.0 296:1.0 317:1.0 356:1.0 
1.0 31:1.0 56:1.0 84:1.0 116:1.0 158:1.0 176:1.0 210:1.0 236:1.0 257:1.0 296:1.0 322:1.0 356:1.0 
0.07561534767763563 27:1.0 60:1.0 109:1.0 116:1.0 158:1.0 176:1.0 210:1.0 236:1.0 264:1.0 296:1.0 350:1.0 356:1.0 
0.0758005443605563 17:1.0 56:1.0 63:1.0 116:1.0 158:1.0 176:1.0 210:1.0 236:1.0 264:1.0 296:1.0 302:1.0 356:1.0 
1.0 10:1.0 56:1.0 63:1.0 116:1.0 158:1.0 176:1.0 210:1.0 236:1.0 257:1.0 296:1.0 350:1.0 358:1.0 
1.0 17:1.0 56:1.0 110:1.0 118:1.0 158:1.0 176:1.0 210:1.0 236:1.0 289:1.0 296:1.0 330:1.0 356:1.0 
1.0 38:1.0 56:1.0 87:1.0 120:1.0 153:1.0 176:1.0 218:1.0 236:1.0 270:1.0 296:1.0 317:1.0 356:1.0 391:1.0 416:1.0 
0.25970627006963104 17:1.0 56:1.0 63:1.0 116:1.0 158:1.0 176:1.0 218:1.0 236:1.0 264:1.0 296:1.0 333:1.0 356:1.0 
1.0 17:1.0 56:1.0 88:1.0 116:1.0 153:1.0 176:1.0 210:1.0 236:1.0 251:1.0 296:1.0 302:1.0 356:1.0 
0.44011189446433985 30:1.0 56:1.0 86:1.0 120:1.0 158:1.0 176:1.0 218:1.0 236:1.0 257:1.0 296:1.0 330:1.0 356:1.0 
1.0 31:1.0 56:1.0 91:1.0 116:1.0 158:1.0 176:1.0 210:1.0 236:1.0 267:1.0 300:1.0 331:1.0 356:1.0 
1.0 17:1.0 56:1.0 88:1.0 116:1.0 158:1.0 176:1.0 210:1.0 236:1.0 264:1.0 296:1.0 333:1.0 356:1.0 
1.0 22:1.0 56:1.0 94:1.0 116:1.0 153:1.0 176:1.0 218:1.0 236:1.0 267:1.0 300:1.0 338:1.0 356:1.0 
1.0 10:1.0 56:1.0 77:1.0 116:1.0 153:1.0 176:1.0 218:1.0 236:1.0 266:1.0 300:1.0 303:1.0 356:1.0 
1.0 38:1.0 56:1.0 77:1.0 116:1.0 153:1.0 176:1.0 218:1.0 236:1.0 266:1.0 300:1.0 303:1.0 356:1.0 
0.021220308955809744 17:1.0 56:1.0 63:1.0 116:1.0 158:1.0 176:1.0 210:1.0 236:1.0 264:1.0 296:1.0 303:1.0 356:1.0 
1.0 10:1.0 56:1.0 77:1.0 116:1.0 153:1.0 176:1.0 210:1.0 236:1.0 266:1.0 300:1.0 319:1.0 360:1.0 
1.0 2:1.0 56:1.0 93:1.0 116:1.0 153:1.0 176:1.0 210:1.0 236:1.0 257:1.0 296:1.0 333:1.0 356:1.0 390:1.0 416:1.0 
1.0 24:1.0 56:1.0 88:1.0 116:1.0 153:1.0 176:1.0 218:1.0 236:1.0 289:1.0 296:1.0 317:1.0 356:1.0 
1.0 33:1.0 56:1.0 77:1.0 116:1.0 153:1.0 176:1.0 218:1.0 236:1.0 257:1.0 296:1.0 303:1.0 356:1.0 
0.9336872879885116 26:1.0 60:1.0 93:1.0 116:1.0 158:1.0 176:1.0 218:1.0 236:1.0 289:1.0 296:1.0 338:1.0 356:1.0 398:1.0 416:1.0 
1.0 31:1.0 54:1.0 84:1.0 116:1.0 158:1.0 176:1.0 210:1.0 236:1.0 257:1.0 296:1.0 333:1.0 356:1.0 
1.0 30:1.0 56:1.0 77:1.0 116:1.0 153:1.0 176:1.0 218:1.0 236:1.0 266:1.0 300:1.0 349:1.0 356:1.0 
1.0 24:1.0 56:1.0 63:1.0 116:1.0 153:1.0 176:1.0 218:1.0 236:1.0 278:1.0 296:1.0 326:1.0 360:1.0 411:1.0 416:1.0 
1.0 24:1.0 56:1.0 63:1.0 116:1.0 158:1.0 176:1.0 210:1.0 236:1.0 274:1.0 296:1.0 303:1.0 356:1.0 
1.0 17:1.0 56:1.0 63:1.0 116:1.0 153:1.0 176:1.0 218:1.0 236:1.0 250:1.0 296:1.0 349:1.0 356:1.0 
1.0 30:1.0 56:1.0 109:1.0 116:1.0 153:1.0 176:1.0 218:1.0 236:1.0 289:1.0 296:1.0 324:1.0 356:1.0 
1.0 9:1.0 56:1.0 70:1.0 116:1.0 153:1.0 176:1.0 218:1.0 236:1.0 266:1.0 300:1.0 303:1.0 356:1.0 
0.5647780781025256 31:1.0 56:1.0 91:1.0 116:1.0 158:1.0 176:1.0 218:1.0 236:1.0 257:1.0 296:1.0 303:1.0 356:1.0 
1.0 10:1.0 56:1.0 77:1.0 116:1.0 153:1.0 176:1.0 218:1.0 236:1.0 267:1.0 300:1.0 349:1.0 356:1.0 
0.26129562175911003 26:1.0 60:1.0 93:1.0 116:1.0 158:1.0 176:1.0 218:1.0 236:1.0 257:1.0 296:1.0 331:1.0 356:1.0 410:1.0 418:1.0 
1.0 15:1.0 56:1.0 63:1.0 116:1.0 153:1.0 176:1.0 218:1.0 236:1.0 257:1.0 296:1.0 303:1.0 356:1.0 
1.0 26:1.0 60:1.0 93:1.0 116:1.0 158:1.0 176:1.0 210:1.0 236:1.0 257:1.0 296:1.0 331:1.0 356:1.0 410:1.0 418:1.0 
1.0 10:1.0 56:1.0 77:1.0 116:1.0 153:1.0 176:1.0 210:1.0 236:1.0 274:1.0 296:1.0 309:1.0 356:1.0 
1.0 9:1.0 56:1.0 88:1.0 116:1.0 153:1.0 176:1.0 218:1.0 236:1.0 266:1.0 300:1.0 331:1.0 356:1.0 
1.0 38:1.0 56:1.0 87:1.0 120:1.0 153:1.0 176:1.0 218:1.0 236:1.0 278:1.0 296:1.0 327:1.0 360:1.0 377:1.0 416:1.0 
1.0 17:1.0 56:1.0 63:1.0 116:1.0 153:1.0 176:1.0 210:1.0 236:1.0 278:1.0 296:1.0 317:1.0 356:1.0 363:1.0 416:1.0 
1.0 17:1.0 56:1.0 63:1.0 116:1.0 153:1.0 176:1.0 210:1.0 236:1.0 278:1.0 296:1.0 327:1.0 360:1.0 409:1.0 416:1.0 
1.0 32:1.0 60:1.0 93:1.0 116:1.0 158:1.0 176:1.0 210:1.0 236:1.0 267:1.0 300:1.0 333:1.0 356:1.0 377:1.0 416:1.0 
1.0 30:1.0 56:1.0 77:1.0 116:1.0 153:1.0 176:1.0 218:1.0 236:1.0 270:1.0 296:1.0 349:1.0 356:1.0 390:1.0 416:1.0 
1.0 17:1.0 56:1.0 63:1.0 116:1.0 153:1.0 176:1.0 218:1.0 236:1.0 267:1.0 300:1.0 310:1.0 356:1.0 
0.28162907921047536 33:1.0 56:1.0 91:1.0 120:1.0 158:1.0 176:1.0 210:1.0 236:1.0 257:1.0 296:1.0 330:1.0 356:1.0 
1.0 24:1.0 56:1.0 63:1.0 116:1.0 153:1.0 176:1.0 218:1.0 236:1.0 278:1.0 296:1.0 317:1.0 356:1.0 363:1.0 416:1.0 
1.0 24:1.0 56:1.0 62:1.0 116:1.0 158:1.0 176:1.0 210:1.0 236:1.0 257:1.0 296:1.0 333:1.0 356:1.0 
0.8376938806520975 17:1.0 56:1.0 63:1.0 116:1.0 158:1.0 176:1.0 218:1.0 236:1.0 289:1.0 296:1.0 303:1.0 356:1.0 
1.0 49:1.0 56:1.0 63:1.0 116:1.0 158:1.0 180:1.0 218:1.0 236:1.0 257:1.0 296:1.0 331:1.0 356:1.0 
1.0 33:1.0 56:1.0 79:1.0 120:1.0 158:1.0 176:1.0 218:1.0 236:1.0 259:1.0 300:1.0 323:1.0 360:1.0 
0.40937524838063116 3:1.0 56:1.0 79:1.0 120:1.0 158:1.0 176:1.0 218:1.0 236:1.0 259:1.0 300:1.0 325:1.0 360:1.0 
1.0 12:1.0 56:1.0 84:1.0 116:1.0 153:1.0 176:1.0 210:1.0 236:1.0 257:1.0 296:1.0 331:1.0 356:1.0 
1.0 24:1.0 56:1.0 63:1.0 116:1.0 153:1.0 176:1.0 218:1.0 236:1.0 266:1.0 300:1.0 312:1.0 356:1.0 
0.24369515190806224 17:1.0 56:1.0 63:1.0 116:1.0 158:1.0 176:1.0 218:1.0 236:1.0 274:1.0 296:1.0 303:1.0 356:1.0 
1.0 2:1.0 56:1.0 84:1.0 116:1.0 153:1.0 176:1.0 218:1.0 236:1.0 257:1.0 296:1.0 303:1.0 356:1.0 
1.0 30:1.0 56:1.0 85:1.0 120:1.0 153:1.0 176:1.0 218:1.0 236:1.0 270:1.0 296:1.0 349:1.0 356:1.0 393:1.0 416:1.0 
0.8616612173041022 17:1.0 56:1.0 91:1.0 116:1.0 158:1.0 176:1.0 218:1.0 236:1.0 257:1.0 296:1.0 331:1.0 356:1.0 
1.0 2:1.0 56:1.0 69:1.0 116:1.0 153:1.0 176:1.0 210:1.0 236:1.0 274:1.0 296:1.0 309:1.0 356:1.0 
1.0 17:1.0 56:1.0 63:1.0 116:1.0 153:1.0 176:1.0 218:1.0 236:1.0 289:1.0 296:1.0 303:1.0 356:1.0 
1.0 30:1.0 56:1.0 77:1.0 116:1.0 153:1.0 176:1.0 218:1.0 236:1.0 289:1.0 296:1.0 303:1.0 356:1.0 
1.0 49:1.0 56:1.0 63:1.0 116:1.0 153:1.0 176:1.0 218:1.0 236:1.0 266:1.0 300:1.0 303:1.0 356:1.0 
1.0 2:1.0 56:1.0 75:1.0 116:1.0 153:1.0 176:1.0 218:1.0 236:1.0 257:1.0 296:1.0 303:1.0 356:1.0 
1.0 17:1.0 56:1.0 63:1.0 116:1.0 153:1.0 176:1.0 218:1.0 236:1.0 266:1.0 300:1.0 303:1.0 356:1.0 
1.0 17:1.0 56:1.0 63:1.0 116:1.0 153:1.0 176:1.0 218:1.0 236:1.0 257:1.0 296:1.0 331:1.0 356:1.0 
1.0 25:1.0 60:1.0 75:1.0 116:1.0 153:1.0 176:1.0 218:1.0 236:1.0 273:1.0 296:1.0 326:1.0 360:1.0 
0.6585313988760335 17:1.0 56:1.0 91:1.0 116:1.0 158:1.0 176:1.0 218:1.0 236:1.0 263:1.0 300:1.0 350:1.0 358:1.0 
1.0 10:1.0 56:1.0 77:1.0 116:1.0 153:1.0 176:1.0 218:1.0 236:1.0 270:1.0 296:1.0 333:1.0 356:1.0 377:1.0 416:1.0 
0.8595601626001814 30:1.0 56:1.0 83:1.0 120:1.0 153:1.0 176:1.0 210:1.0 236:1.0 265:1.0 300:1.0 313:1.0 356:1.0 
1.0 17:1.0 56:1.0 63:1.0 116:1.0 153:1.0 176:1.0 218:1.0 236:1.0 270:1.0 296:1.0 334:1.0 356:1.0 369:1.0 416:1.0 
1.0 17:1.0 56:1.0 63:1.0 116:1.0 158:1.0 176:1.0 210:1.0 236:1.0 266:1.0 300:1.0 331:1.0 356:1.0 
1.0 38:1.0 56:1.0 109:1.0 116:1.0 153:1.0 176:1.0 218:1.0 236:1.0 266:1.0 300:1.0 329:1.0 356:1.0 
1.0 12:1.0 56:1.0 71:1.0 116:1.0 153:1.0 176:1.0 210:1.0 236:1.0 257:1.0 296:1.0 328:1.0 356:1.0 
1.0 27:1.0 60:1.0 63:1.0 116:1.0 150:1.0 176:1.0 218:1.0 236:1.0 257:1.0 296:1.0 330:1.0 356:1.0 
1.0 24:1.0 56:1.0 63:1.0 116:1.0 150:1.0 176:1.0 210:1.0 236:1.0 257:1.0 296:1.0 333:1.0 356:1.0 
1.0 30:1.0 56:1.0 77:1.0 116:1.0 153:1.0 176:1.0 218:1.0 236:1.0 267:1.0 300:1.0 351:1.0 356:1.0 
1.0 31:1.0 56:1.0 89:1.0 116:1.0 153:1.0 176:1.0 218:1.0 236:1.0 266:1.0 300:1.0 317:1.0 356:1.0 
1.0 24:1.0 56:1.0 63:1.0 116:1.0 150:1.0 176:1.0 218:1.0 236:1.0 257:1.0 296:1.0 303:1.0 356:1.0 
1.0 17:1.0 56:1.0 88:1.0 116:1.0 153:1.0 176:1.0 218:1.0 236:1.0 266:1.0 300:1.0 319:1.0 360:1.0 
1.0 3:1.0 56:1.0 91:1.0 116:1.0 150:1.0 176:1.0 218:1.0 236:1.0 266:1.0 300:1.0 319:1.0 360:1.0 
0.8221487067153903 24:1.0 56:1.0 77:1.0 116:1.0 150:1.0 176:1.0 218:1.0 236:1.0 257:1.0 296:1.0 303:1.0 356:1.0 
1.0 30:1.0 56:1.0 77:1.0 116:1.0 153:1.0 176:1.0 218:1.0 236:1.0 266:1.0 300:1.0 331:1.0 356:1.0 
1.0 38:1.0 56:1.0 77:1.0 116:1.0 153:1.0 176:1.0 210:1.0 236:1.0 267:1.0 300:1.0 322:1.0 356:1.0 
0.6869957955394618 29:1.0 56:1.0 110:1.0 118:1.0 158:1.0 176:1.0 218:1.0 236:1.0 243:1.0 296:1.0 331:1.0 356:1.0 
1.0 3:1.0 56:1.0 110:1.0 118:1.0 153:1.0 176:1.0 218:1.0 236:1.0 278:1.0 296:1.0 349:1.0 356:1.0 369:1.0 416:1.0 
1.0 9:1.0 56:1.0 63:1.0 116:1.0 153:1.0 176:1.0 218:1.0 236:1.0 250:1.0 296:1.0 331:1.0 356:1.0 
1.0 17:1.0 56:1.0 63:1.0 116:1.0 158:1.0 176:1.0 210:1.0 236:1.0 257:1.0 296:1.0 331:1.0 356:1.0 
1.0 17:1.0 56:1.0 63:1.0 116:1.0 153:1.0 176:1.0 218:1.0 236:1.0 257:1.0 296:1.0 303:1.0 356:1.0 
0.0015810519618311702 31:1.0 56:1.0 110:1.0 118:1.0 158:1.0 176:1.0 218:1.0 236:1.0 264:1.0 296:1.0 302:1.0 356:1.0 
0.644205297489676 9:1.0 56:1.0 63:1.0 116:1.0 150:1.0 176:1.0 210:1.0 236:1.0 261:1.0 300:1.0 338:1.0 356:1.0 
1.0 22:1.0 56:1.0 63:1.0 116:1.0 158:1.0 176:1.0 210:1.0 236:1.0 257:1.0 296:1.0 331:1.0 356:1.0 
0.7506526449603638 3:1.0 56:1.0 79:1.0 120:1.0 158:1.0 176:1.0 218:1.0 236:1.0 259:1.0 300:1.0 327:1.0 360:1.0 
1.0 3:1.0 56:1.0 110:1.0 118:1.0 153:1.0 176:1.0 218:1.0 236:1.0 284:1.0 296:1.0 313:1.0 356:1.0 
1.0 22:1.0 56:1.0 63:1.0 116:1.0 158:1.0 176:1.0 218:1.0 236:1.0 257:1.0 296:1.0 350:1.0 358:1.0 
1.0 12:1.0 56:1.0 77:1.0 116:1.0 153:1.0 176:1.0 218:1.0 236:1.0 267:1.0 300:1.0 322:1.0 356:1.0 
1.0 17:1.0 56:1.0 63:1.0 116:1.0 153:1.0 176:1.0 218:1.0 236:1.0 266:1.0 300:1.0 312:1.0 356:1.0 
0.23436279350030825 26:1.0 60:1.0 63:1.0 116:1.0 158:1.0 176:1.0 218:1.0 236:1.0 269:1.0 300:1.0 329:1.0 360:1.0 
1.0 17:1.0 56:1.0 63:1.0 116:1.0 158:1.0 176:1.0 218:1.0 236:1.0 285:1.0 296:1.0 329:1.0 356:1.0 
9.834573573179277E-4 30:1.0 56:1.0 77:1.0 116:1.0 158:1.0 176:1.0 218:1.0 236:1.0 272:1.0 300:1.0 336:1.0 356:1.0 
1.0 3:1.0 56:1.0 110:1.0 118:1.0 153:1.0 176:1.0 218:1.0 236:1.0 278:1.0 296:1.0 327:1.0 360:1.0 375:1.0 416:1.0 
1.0 17:1.0 56:1.0 88:1.0 116:1.0 153:1.0 176:1.0 218:1.0 236:1.0 284:1.0 296:1.0 313:1.0 356:1.0 
0.41783159602565884 31:1.0 56:1.0 110:1.0 118:1.0 158:1.0 176:1.0 218:1.0 236:1.0 291:1.0 296:1.0 312:1.0 356:1.0 
1.0 38:1.0 56:1.0 79:1.0 120:1.0 153:1.0 176:1.0 218:1.0 236:1.0 266:1.0 300:1.0 302:1.0 356:1.0 
1.0 17:1.0 56:1.0 63:1.0 116:1.0 153:1.0 176:1.0 218:1.0 236:1.0 257:1.0 296:1.0 331:1.0 356:1.0 
1.0 49:1.0 56:1.0 93:1.0 116:1.0 153:1.0 176:1.0 210:1.0 236:1.0 266:1.0 300:1.0 331:1.0 356:1.0 389:1.0 416:1.0 
0.4501469704466221 17:1.0 56:1.0 63:1.0 116:1.0 158:1.0 176:1.0 218:1.0 236:1.0 264:1.0 296:1.0 310:1.0 356:1.0 
0.25608019421703676 26:1.0 60:1.0 63:1.0 116:1.0 158:1.0 176:1.0 218:1.0 236:1.0 257:1.0 296:1.0 331:1.0 356:1.0 
1.0 2:1.0 56:1.0 93:1.0 116:1.0 153:1.0 176:1.0 218:1.0 236:1.0 266:1.0 300:1.0 317:1.0 356:1.0 388:1.0 416:1.0 
1.0 49:1.0 56:1.0 96:1.0 116:1.0 153:1.0 176:1.0 210:1.0 236:1.0 252:1.0 296:1.0 324:1.0 356:1.0 387:1.0 420:1.0 
1.0 30:1.0 56:1.0 77:1.0 116:1.0 153:1.0 176:1.0 218:1.0 236:1.0 289:1.0 296:1.0 338:1.0 356:1.0 
1.0 17:1.0 56:1.0 82:1.0 116:1.0 153:1.0 176:1.0 218:1.0 236:1.0 274:1.0 296:1.0 330:1.0 356:1.0 
1.0 3:1.0 56:1.0 88:1.0 116:1.0 158:1.0 176:1.0 218:1.0 236:1.0 289:1.0 296:1.0 338:1.0 356:1.0 
1.0 27:1.0 60:1.0 79:1.0 120:1.0 153:1.0 176:1.0 218:1.0 236:1.0 270:1.0 296:1.0 319:1.0 360:1.0 386:1.0 420:1.0 
0.23760817536215242 50:1.0 58:1.0 77:1.0 116:1.0 158:1.0 176:1.0 218:1.0 236:1.0 270:1.0 296:1.0 317:1.0 356:1.0 363:1.0 416:1.0 
1.0 27:1.0 60:1.0 70:1.0 116:1.0 153:1.0 176:1.0 218:1.0 236:1.0 267:1.0 300:1.0 349:1.0 356:1.0 
1.0 49:1.0 56:1.0 77:1.0 116:1.0 153:1.0 176:1.0 218:1.0 236:1.0 265:1.0 300:1.0 349:1.0 356:1.0 
1.0 30:1.0 56:1.0 77:1.0 116:1.0 153:1.0 176:1.0 218:1.0 236:1.0 278:1.0 296:1.0 349:1.0 356:1.0 393:1.0 416:1.0 
1.0 17:1.0 56:1.0 88:1.0 116:1.0 153:1.0 176:1.0 210:1.0 236:1.0 266:1.0 300:1.0 328:1.0 356:1.0 
1.0 30:1.0 56:1.0 87:1.0 120:1.0 153:1.0 176:1.0 210:1.0 236:1.0 289:1.0 296:1.0 330:1.0 356:1.0 
1.0 31:1.0 56:1.0 91:1.0 116:1.0 158:1.0 176:1.0 213:1.0 236:1.0 270:1.0 296:1.0 317:1.0 356:1.0 363:1.0 416:1.0 
1.0 3:1.0 56:1.0 110:1.0 118:1.0 158:1.0 176:1.0 218:1.0 236:1.0 257:1.0 296:1.0 338:1.0 356:1.0 
1.0 38:1.0 56:1.0 77:1.0 116:1.0 153:1.0 176:1.0 218:1.0 236:1.0 267:1.0 300:1.0 349:1.0 356:1.0 
0.09545857655498766 15:1.0 56:1.0 63:1.0 116:1.0 158:1.0 176:1.0 218:1.0 236:1.0 257:1.0 296:1.0 322:1.0 356:1.0 
1.0 31:1.0 56:1.0 89:1.0 116:1.0 153:1.0 176:1.0 218:1.0 236:1.0 257:1.0 296:1.0 338:1.0 356:1.0 
1.0 27:1.0 60:1.0 63:1.0 116:1.0 153:1.0 176:1.0 218:1.0 236:1.0 273:1.0 296:1.0 338:1.0 356:1.0 377:1.0 416:1.0 451:1.0 476:1.0 
1.0 38:1.0 56:1.0 77:1.0 116:1.0 153:1.0 176:1.0 210:1.0 236:1.0 257:1.0 296:1.0 328:1.0 356:1.0 
0.5059769826415352 49:1.0 56:1.0 79:1.0 120:1.0 158:1.0 176:1.0 218:1.0 236:1.0 259:1.0 300:1.0 325:1.0 360:1.0 
0.3839405281871142 3:1.0 59:1.0 63:1.0 116:1.0 158:1.0 176:1.0 210:1.0 236:1.0 251:1.0 296:1.0 310:1.0 356:1.0 
1.0 31:1.0 59:1.0 70:1.0 116:1.0 153:1.0 176:1.0 218:1.0 236:1.0 278:1.0 296:1.0 333:1.0 356:1.0 398:1.0 416:1.0 
1.0 30:1.0 56:1.0 77:1.0 116:1.0 153:1.0 176:1.0 218:1.0 236:1.0 266:1.0 300:1.0 338:1.0 356:1.0 
0.5394867621406205 22:1.0 56:1.0 88:1.0 116:1.0 158:1.0 176:1.0 210:1.0 236:1.0 267:1.0 300:1.0 302:1.0 356:1.0 
1.0 27:1.0 60:1.0 77:1.0 116:1.0 153:1.0 176:1.0 218:1.0 236:1.0 257:1.0 296:1.0 338:1.0 356:1.0 
1.0 30:1.0 56:1.0 77:1.0 116:1.0 153:1.0 176:1.0 213:1.0 236:1.0 278:1.0 296:1.0 324:1.0 356:1.0 370:1.0 416:1.0 
1.0 30:1.0 56:1.0 77:1.0 116:1.0 153:1.0 176:1.0 218:1.0 236:1.0 257:1.0 296:1.0 331:1.0 356:1.0 
1.0 38:1.0 56:1.0 87:1.0 120:1.0 153:1.0 176:1.0 218:1.0 236:1.0 270:1.0 296:1.0 349:1.0 356:1.0 363:1.0 416:1.0 
1.0 45:1.0 56:1.0 84:1.0 116:1.0 153:1.0 176:1.0 213:1.0 236:1.0 278:1.0 296:1.0 317:1.0 356:1.0 363:1.0 416:1.0 
1.0 38:1.0 56:1.0 77:1.0 116:1.0 153:1.0 176:1.0 210:1.0 236:1.0 264:1.0 296:1.0 310:1.0 356:1.0 
1.0 38:1.0 56:1.0 77:1.0 116:1.0 153:1.0 176:1.0 218:1.0 236:1.0 289:1.0 296:1.0 303:1.0 356:1.0 
1.0 38:1.0 56:1.0 77:1.0 116:1.0 153:1.0 176:1.0 213:1.0 236:1.0 273:1.0 296:1.0 338:1.0 356:1.0 384:1.0 416:1.0 446:1.0 480:1.0 
1.0 44:1.0 56:1.0 84:1.0 116:1.0 153:1.0 176:1.0 210:1.0 236:1.0 257:1.0 296:1.0 333:1.0 356:1.0 
1.0 10:1.0 56:1.0 77:1.0 116:1.0 153:1.0 176:1.0 218:1.0 236:1.0 242:1.0 296:1.0 324:1.0 356:1.0 
1.0 38:1.0 56:1.0 77:1.0 116:1.0 153:1.0 176:1.0 218:1.0 236:1.0 257:1.0 296:1.0 345:1.0 356:1.0 
1.0 17:1.0 56:1.0 63:1.0 116:1.0 153:1.0 176:1.0 218:1.0 236:1.0 278:1.0 296:1.0 310:1.0 356:1.0 377:1.0 416:1.0 
1.0 10:1.0 56:1.0 77:1.0 116:1.0 153:1.0 176:1.0 218:1.0 236:1.0 257:1.0 296:1.0 303:1.0 356:1.0 
1.0 38:1.0 56:1.0 77:1.0 116:1.0 153:1.0 176:1.0 218:1.0 236:1.0 266:1.0 300:1.0 331:1.0 356:1.0 
1.0 9:1.0 56:1.0 77:1.0 116:1.0 153:1.0 176:1.0 218:1.0 236:1.0 257:1.0 296:1.0 303:1.0 356:1.0 
1.0 33:1.0 56:1.0 77:1.0 116:1.0 153:1.0 176:1.0 210:1.0 236:1.0 264:1.0 296:1.0 302:1.0 356:1.0 
1.0 33:1.0 56:1.0 77:1.0 116:1.0 153:1.0 176:1.0 218:1.0 236:1.0 278:1.0 296:1.0 326:1.0 360:1.0 363:1.0 416:1.0 
1.0 38:1.0 56:1.0 77:1.0 116:1.0 153:1.0 176:1.0 218:1.0 236:1.0 278:1.0 296:1.0 327:1.0 360:1.0 363:1.0 416:1.0 
1.0 38:1.0 56:1.0 77:1.0 116:1.0 153:1.0 176:1.0 218:1.0 236:1.0 278:1.0 296:1.0 324:1.0 356:1.0 362:1.0 416:1.0 
1.0 17:1.0 56:1.0 63:1.0 116:1.0 153:1.0 176:1.0 218:1.0 236:1.0 278:1.0 296:1.0 327:1.0 360:1.0 382:1.0 416:1.0 
1.0 38:1.0 56:1.0 77:1.0 116:1.0 153:1.0 176:1.0 218:1.0 236:1.0 257:1.0 296:1.0 338:1.0 356:1.0 
1.0 38:1.0 56:1.0 77:1.0 116:1.0 153:1.0 176:1.0 218:1.0 236:1.0 272:1.0 300:1.0 312:1.0 356:1.0 
0.01605734584917838 10:1.0 56:1.0 63:1.0 116:1.0 158:1.0 176:1.0 218:1.0 236:1.0 257:1.0 296:1.0 333:1.0 356:1.0 
1.0 38:1.0 56:1.0 77:1.0 116:1.0 153:1.0 176:1.0 210:1.0 236:1.0 257:1.0 296:1.0 350:1.0 358:1.0 
1.0 34:1.0 56:1.0 69:1.0 116:1.0 153:1.0 176:1.0 218:1.0 236:1.0 278:1.0 296:1.0 317:1.0 356:1.0 393:1.0 416:1.0 
1.0 38:1.0 56:1.0 82:1.0 116:1.0 153:1.0 176:1.0 218:1.0 236:1.0 274:1.0 296:1.0 309:1.0 356:1.0 
1.0 22:1.0 56:1.0 77:1.0 116:1.0 153:1.0 176:1.0 218:1.0 236:1.0 267:1.0 300:1.0 324:1.0 356:1.0 
1.0 17:1.0 56:1.0 70:1.0 116:1.0 153:1.0 176:1.0 218:1.0 236:1.0 266:1.0 300:1.0 320:1.0 356:1.0 
1.0 13:1.0 56:1.0 69:1.0 116:1.0 153:1.0 176:1.0 218:1.0 236:1.0 267:1.0 300:1.0 349:1.0 356:1.0 
0.8433597221829114 2:1.0 56:1.0 93:1.0 116:1.0 158:1.0 176:1.0 218:1.0 236:1.0 278:1.0 296:1.0 344:1.0 356:1.0 384:1.0 416:1.0 450:1.0 476:1.0 
0.1528156786086734 17:1.0 56:1.0 88:1.0 116:1.0 158:1.0 176:1.0 218:1.0 236:1.0 257:1.0 296:1.0 338:1.0 356:1.0 
1.0 24:1.0 56:1.0 77:1.0 116:1.0 153:1.0 176:1.0 218:1.0 236:1.0 278:1.0 296:1.0 338:1.0 356:1.0 404:1.0 416:1.0 444:1.0 476:1.0 
1.0 3:1.0 56:1.0 94:1.0 116:1.0 153:1.0 176:1.0 218:1.0 236:1.0 266:1.0 300:1.0 335:1.0 356:1.0 
1.0 26:1.0 60:1.0 95:1.0 116:1.0 153:1.0 176:1.0 210:1.0 236:1.0 249:1.0 296:1.0 338:1.0 356:1.0 370:1.0 416:1.0 
1.0 38:1.0 56:1.0 77:1.0 116:1.0 153:1.0 176:1.0 218:1.0 236:1.0 266:1.0 300:1.0 331:1.0 356:1.0 
1.0 38:1.0 56:1.0 77:1.0 116:1.0 153:1.0 176:1.0 218:1.0 236:1.0 257:1.0 296:1.0 338:1.0 356:1.0 
1.0 2:1.0 56:1.0 77:1.0 116:1.0 153:1.0 176:1.0 218:1.0 236:1.0 242:1.0 296:1.0 324:1.0 356:1.0 
1.0 2:1.0 56:1.0 84:1.0 116:1.0 153:1.0 176:1.0 218:1.0 236:1.0 278:1.0 296:1.0 317:1.0 356:1.0 363:1.0 416:1.0 
1.0 24:1.0 56:1.0 63:1.0 116:1.0 153:1.0 176:1.0 218:1.0 236:1.0 266:1.0 300:1.0 331:1.0 356:1.0 
1.0 2:1.0 56:1.0 93:1.0 116:1.0 153:1.0 176:1.0 218:1.0 236:1.0 284:1.0 296:1.0 313:1.0 356:1.0 362:1.0 416:1.0 
0.39603199841419345 10:1.0 56:1.0 63:1.0 116:1.0 158:1.0 176:1.0 218:1.0 236:1.0 274:1.0 296:1.0 309:1.0 356:1.0 
1.0 17:1.0 56:1.0 63:1.0 116:1.0 153:1.0 176:1.0 218:1.0 236:1.0 289:1.0 296:1.0 333:1.0 356:1.0 
1.0 38:1.0 56:1.0 77:1.0 116:1.0 153:1.0 176:1.0 218:1.0 236:1.0 267:1.0 300:1.0 349:1.0 356:1.0 
1.0 24:1.0 56:1.0 77:1.0 116:1.0 153:1.0 176:1.0 218:1.0 236:1.0 257:1.0 296:1.0 333:1.0 356:1.0 
1.0 17:1.0 56:1.0 63:1.0 116:1.0 150:1.0 176:1.0 210:1.0 236:1.0 264:1.0 296:1.0 317:1.0 356:1.0 
0.29215057603273903 24:1.0 56:1.0 63:1.0 116:1.0 158:1.0 176:1.0 218:1.0 236:1.0 253:1.0 296:1.0 309:1.0 356:1.0 
1.0 38:1.0 56:1.0 77:1.0 116:1.0 153:1.0 176:1.0 213:1.0 236:1.0 278:1.0 296:1.0 338:1.0 356:1.0 377:1.0 416:1.0 453:1.0 476:1.0 
1.0 38:1.0 56:1.0 77:1.0 116:1.0 153:1.0 176:1.0 210:1.0 236:1.0 266:1.0 300:1.0 331:1.0 356:1.0 
1.0 13:1.0 56:1.0 69:1.0 116:1.0 153:1.0 176:1.0 210:1.0 236:1.0 289:1.0 296:1.0 303:1.0 356:1.0 
1.0 49:1.0 56:1.0 63:1.0 116:1.0 153:1.0 176:1.0 218:1.0 236:1.0 284:1.0 296:1.0 324:1.0 356:1.0 
0.445924045652038 17:1.0 56:1.0 88:1.0 116:1.0 158:1.0 176:1.0 210:1.0 236:1.0 267:1.0 300:1.0 302:1.0 356:1.0 
1.0 38:1.0 56:1.0 77:1.0 116:1.0 153:1.0 176:1.0 218:1.0 236:1.0 278:1.0 296:1.0 327:1.0 360:1.0 377:1.0 416:1.0 
1.0 17:1.0 56:1.0 63:1.0 116:1.0 150:1.0 176:1.0 218:1.0 236:1.0 257:1.0 296:1.0 331:1.0 356:1.0 
1.0 38:1.0 56:1.0 77:1.0 116:1.0 153:1.0 176:1.0 218:1.0 236:1.0 266:1.0 300:1.0 302:1.0 356:1.0 
1.0 26:1.0 60:1.0 63:1.0 116:1.0 158:1.0 176:1.0 210:1.0 236:1.0 264:1.0 296:1.0 322:1.0 356:1.0 
1.0 30:1.0 56:1.0 77:1.0 116:1.0 153:1.0 176:1.0 213:1.0 236:1.0 278:1.0 296:1.0 327:1.0 360:1.0 382:1.0 416:1.0 
1.0 31:1.0 56:1.0 77:1.0 116:1.0 153:1.0 176:1.0 218:1.0 236:1.0 266:1.0 300:1.0 302:1.0 356:1.0 
9.780718140160673E-4 2:1.0 56:1.0 87:1.0 120:1.0 158:1.0 176:1.0 210:1.0 236:1.0 257:1.0 296:1.0 338:1.0 356:1.0 
1.0 3:1.0 56:1.0 91:1.0 116:1.0 158:1.0 176:1.0 218:1.0 236:1.0 257:1.0 296:1.0 333:1.0 356:1.0 
1.0 38:1.0 56:1.0 77:1.0 116:1.0 153:1.0 176:1.0 218:1.0 236:1.0 278:1.0 296:1.0 327:1.0 360:1.0 409:1.0 416:1.0 
1.0 32:1.0 60:1.0 63:1.0 116:1.0 158:1.0 176:1.0 218:1.0 236:1.0 257:1.0 296:1.0 338:1.0 356:1.0 
1.0 49:1.0 56:1.0 75:1.0 116:1.0 153:1.0 176:1.0 218:1.0 236:1.0 257:1.0 296:1.0 338:1.0 356:1.0 
1.0 17:1.0 56:1.0 82:1.0 116:1.0 153:1.0 176:1.0 213:1.0 236:1.0 278:1.0 296:1.0 317:1.0 356:1.0 393:1.0 416:1.0 
1.0 30:1.0 56:1.0 77:1.0 116:1.0 153:1.0 176:1.0 218:1.0 236:1.0 255:1.0 296:1.0 310:1.0 356:1.0 
1.0 38:1.0 56:1.0 87:1.0 120:1.0 153:1.0 176:1.0 218:1.0 236:1.0 278:1.0 296:1.0 349:1.0 356:1.0 398:1.0 416:1.0 
1.0 20:1.0 56:1.0 75:1.0 116:1.0 153:1.0 176:1.0 218:1.0 236:1.0 278:1.0 296:1.0 326:1.0 360:1.0 377:1.0 419:1.0 
1.0 38:1.0 56:1.0 77:1.0 116:1.0 153:1.0 176:1.0 218:1.0 236:1.0 278:1.0 296:1.0 315:1.0 356:1.0 382:1.0 416:1.0 
1.0 38:1.0 56:1.0 77:1.0 116:1.0 153:1.0 176:1.0 213:1.0 236:1.0 278:1.0 296:1.0 330:1.0 356:1.0 370:1.0 416:1.0 437:1.0 476:1.0 
1.0 15:1.0 56:1.0 63:1.0 116:1.0 153:1.0 176:1.0 218:1.0 236:1.0 266:1.0 300:1.0 317:1.0 356:1.0 
1.0 38:1.0 56:1.0 77:1.0 116:1.0 153:1.0 176:1.0 218:1.0 236:1.0 251:1.0 296:1.0 310:1.0 356:1.0 
1.0 38:1.0 56:1.0 77:1.0 116:1.0 153:1.0 176:1.0 213:1.0 236:1.0 270:1.0 296:1.0 344:1.0 356:1.0 371:1.0 416:1.0 
1.0 38:1.0 56:1.0 77:1.0 116:1.0 153:1.0 176:1.0 210:1.0 236:1.0 267:1.0 300:1.0 338:1.0 356:1.0 
1.0 30:1.0 56:1.0 87:1.0 120:1.0 153:1.0 176:1.0 218:1.0 236:1.0 278:1.0 296:1.0 349:1.0 356:1.0 393:1.0 416:1.0 
1.0 38:1.0 56:1.0 109:1.0 116:1.0 153:1.0 176:1.0 218:1.0 236:1.0 266:1.0 300:1.0 317:1.0 356:1.0 
1.0 26:1.0 60:1.0 77:1.0 116:1.0 153:1.0 176:1.0 218:1.0 236:1.0 278:1.0 296:1.0 315:1.0 356:1.0 393:1.0 416:1.0 
1.0 38:1.0 56:1.0 109:1.0 116:1.0 153:1.0 176:1.0 218:1.0 236:1.0 251:1.0 296:1.0 302:1.0 356:1.0 
1.0 30:1.0 56:1.0 94:1.0 116:1.0 153:1.0 176:1.0 218:1.0 236:1.0 243:1.0 296:1.0 317:1.0 356:1.0 
1.0 49:1.0 56:1.0 82:1.0 116:1.0 153:1.0 176:1.0 210:1.0 236:1.0 266:1.0 300:1.0 331:1.0 356:1.0 
1.0 38:1.0 56:1.0 77:1.0 116:1.0 153:1.0 176:1.0 218:1.0 236:1.0 270:1.0 296:1.0 317:1.0 356:1.0 398:1.0 416:1.0 
1.0 49:1.0 56:1.0 77:1.0 116:1.0 153:1.0 176:1.0 213:1.0 236:1.0 278:1.0 296:1.0 338:1.0 356:1.0 387:1.0 420:1.0 469:1.0 476:1.0 
1.0 15:1.0 56:1.0 70:1.0 116:1.0 153:1.0 176:1.0 218:1.0 236:1.0 278:1.0 296:1.0 303:1.0 356:1.0 393:1.0 416:1.0 
1.0 38:1.0 56:1.0 77:1.0 116:1.0 153:1.0 176:1.0 213:1.0 236:1.0 278:1.0 296:1.0 344:1.0 356:1.0 375:1.0 416:1.0 
1.0 44:1.0 56:1.0 75:1.0 116:1.0 153:1.0 176:1.0 218:1.0 236:1.0 278:1.0 296:1.0 315:1.0 356:1.0 362:1.0 416:1.0 
1.0 38:1.0 56:1.0 82:1.0 116:1.0 153:1.0 176:1.0 218:1.0 236:1.0 266:1.0 300:1.0 331:1.0 356:1.0 
1.0 38:1.0 56:1.0 77:1.0 116:1.0 153:1.0 176:1.0 210:1.0 236:1.0 255:1.0 296:1.0 310:1.0 356:1.0 
1.0 27:1.0 60:1.0 82:1.0 116:1.0 153:1.0 176:1.0 218:1.0 236:1.0 278:1.0 296:1.0 326:1.0 360:1.0 393:1.0 416:1.0 
1.0 30:1.0 56:1.0 109:1.0 116:1.0 153:1.0 176:1.0 210:1.0 236:1.0 257:1.0 296:1.0 333:1.0 356:1.0 
1.0 30:1.0 56:1.0 77:1.0 116:1.0 153:1.0 176:1.0 218:1.0 236:1.0 257:1.0 296:1.0 338:1.0 356:1.0 
1.0 15:1.0 56:1.0 70:1.0 116:1.0 153:1.0 176:1.0 218:1.0 236:1.0 255:1.0 296:1.0 333:1.0 356:1.0 
0.7505787610415507 2:1.0 56:1.0 63:1.0 116:1.0 150:1.0 176:1.0 218:1.0 236:1.0 257:1.0 296:1.0 333:1.0 356:1.0 
1.0 38:1.0 56:1.0 77:1.0 116:1.0 153:1.0 176:1.0 213:1.0 236:1.0 270:1.0 296:1.0 317:1.0 356:1.0 363:1.0 416:1.0 
1.0 38:1.0 56:1.0 77:1.0 116:1.0 153:1.0 176:1.0 218:1.0 236:1.0 257:1.0 296:1.0 330:1.0 356:1.0 
1.0 2:1.0 56:1.0 71:1.0 116:1.0 153:1.0 176:1.0 213:1.0 236:1.0 278:1.0 296:1.0 338:1.0 356:1.0 377:1.0 416:1.0 423:1.0 476:1.0 
1.0 2:1.0 56:1.0 75:1.0 116:1.0 153:1.0 176:1.0 213:1.0 236:1.0 278:1.0 296:1.0 303:1.0 356:1.0 362:1.0 416:1.0 
1.0 9:1.0 56:1.0 70:1.0 116:1.0 153:1.0 176:1.0 218:1.0 236:1.0 267:1.0 300:1.0 315:1.0 356:1.0 
1.0 24:1.0 56:1.0 77:1.0 116:1.0 153:1.0 176:1.0 218:1.0 236:1.0 264:1.0 296:1.0 317:1.0 356:1.0 
0.1828357332491189 30:1.0 56:1.0 86:1.0 120:1.0 158:1.0 176:1.0 210:1.0 236:1.0 264:1.0 296:1.0 310:1.0 356:1.0 
1.0 10:1.0 56:1.0 77:1.0 116:1.0 153:1.0 176:1.0 210:1.0 236:1.0 266:1.0 300:1.0 303:1.0 356:1.0 
1.0 38:1.0 56:1.0 84:1.0 116:1.0 153:1.0 176:1.0 210:1.0 236:1.0 267:1.0 300:1.0 349:1.0 356:1.0 
1.0 38:1.0 56:1.0 77:1.0 116:1.0 153:1.0 176:1.0 210:1.0 236:1.0 289:1.0 296:1.0 303:1.0 356:1.0 
1.0 3:1.0 56:1.0 79:1.0 120:1.0 153:1.0 176:1.0 218:1.0 236:1.0 278:1.0 296:1.0 319:1.0 360:1.0 377:1.0 416:1.0 
1.0 3:1.0 56:1.0 79:1.0 120:1.0 153:1.0 176:1.0 218:1.0 236:1.0 259:1.0 300:1.0 317:1.0 356:1.0 
1.0 3:1.0 56:1.0 79:1.0 120:1.0 153:1.0 176:1.0 218:1.0 236:1.0 259:1.0 300:1.0 317:1.0 356:1.0 
1.0 3:1.0 56:1.0 79:1.0 120:1.0 153:1.0 176:1.0 218:1.0 236:1.0 259:1.0 300:1.0 325:1.0 360:1.0 
1.0 38:1.0 56:1.0 77:1.0 116:1.0 153:1.0 176:1.0 218:1.0 236:1.0 257:1.0 296:1.0 328:1.0 356:1.0 
1.0 31:1.0 56:1.0 87:1.0 120:1.0 153:1.0 176:1.0 218:1.0 236:1.0 265:1.0 300:1.0 326:1.0 360:1.0 
1.0 17:1.0 56:1.0 63:1.0 116:1.0 153:1.0 176:1.0 210:1.0 236:1.0 266:1.0 300:1.0 319:1.0 360:1.0 
1.0 17:1.0 56:1.0 84:1.0 116:1.0 153:1.0 176:1.0 218:1.0 236:1.0 267:1.0 300:1.0 322:1.0 356:1.0 
1.0 38:1.0 56:1.0 77:1.0 116:1.0 153:1.0 176:1.0 210:1.0 236:1.0 272:1.0 300:1.0 338:1.0 356:1.0 
1.0 38:1.0 56:1.0 77:1.0 116:1.0 153:1.0 176:1.0 218:1.0 236:1.0 267:1.0 300:1.0 331:1.0 356:1.0 
1.0 38:1.0 56:1.0 109:1.0 116:1.0 153:1.0 176:1.0 218:1.0 236:1.0 257:1.0 296:1.0 333:1.0 356:1.0 
1.0 38:1.0 56:1.0 77:1.0 116:1.0 153:1.0 176:1.0 218:1.0 236:1.0 272:1.0 300:1.0 349:1.0 356:1.0 
1.0 38:1.0 56:1.0 77:1.0 116:1.0 153:1.0 176:1.0 218:1.0 236:1.0 266:1.0 300:1.0 312:1.0 356:1.0 
1.0 2:1.0 56:1.0 69:1.0 116:1.0 153:1.0 176:1.0 218:1.0 236:1.0 266:1.0 300:1.0 333:1.0 356:1.0 
1.0 27:1.0 60:1.0 82:1.0 116:1.0 153:1.0 176:1.0 210:1.0 236:1.0 289:1.0 296:1.0 333:1.0 356:1.0 
1.0 30:1.0 56:1.0 109:1.0 116:1.0 153:1.0 176:1.0 210:1.0 236:1.0 257:1.0 296:1.0 338:1.0 356:1.0 
1.0 6:1.0 56:1.0 93:1.0 116:1.0 153:1.0 176:1.0 210:1.0 236:1.0 257:1.0 296:1.0 328:1.0 356:1.0 398:1.0 416:1.0 
1.0 30:1.0 56:1.0 77:1.0 116:1.0 153:1.0 176:1.0 218:1.0 236:1.0 267:1.0 300:1.0 349:1.0 356:1.0 
0.010569942604480779 17:1.0 56:1.0 79:1.0 120:1.0 158:1.0 176:1.0 218:1.0 236:1.0 259:1.0 300:1.0 327:1.0 360:1.0 
1.0 32:1.0 60:1.0 77:1.0 116:1.0 153:1.0 176:1.0 218:1.0 236:1.0 289:1.0 296:1.0 338:1.0 356:1.0 
1.0 31:1.0 56:1.0 89:1.0 116:1.0 153:1.0 176:1.0 218:1.0 236:1.0 266:1.0 300:1.0 331:1.0 356:1.0 
1.0 30:1.0 56:1.0 77:1.0 116:1.0 153:1.0 176:1.0 218:1.0 236:1.0 242:1.0 296:1.0 324:1.0 356:1.0 
1.0 11:1.0 56:1.0 94:1.0 116:1.0 153:1.0 176:1.0 210:1.0 236:1.0 267:1.0 300:1.0 334:1.0 356:1.0 
1.0 38:1.0 56:1.0 77:1.0 116:1.0 153:1.0 176:1.0 218:1.0 236:1.0 267:1.0 300:1.0 349:1.0 356:1.0 
1.0 38:1.0 56:1.0 77:1.0 116:1.0 153:1.0 176:1.0 218:1.0 236:1.0 266:1.0 300:1.0 317:1.0 356:1.0 
1.0 38:1.0 56:1.0 77:1.0 116:1.0 153:1.0 176:1.0 210:1.0 236:1.0 262:1.0 296:1.0 317:1.0 356:1.0 
1.0 22:1.0 56:1.0 63:1.0 116:1.0 153:1.0 176:1.0 218:1.0 236:1.0 267:1.0 300:1.0 302:1.0 356:1.0 
1.0 38:1.0 56:1.0 77:1.0 116:1.0 153:1.0 176:1.0 210:1.0 236:1.0 257:1.0 296:1.0 330:1.0 356:1.0 
1.0 31:1.0 56:1.0 77:1.0 116:1.0 153:1.0 176:1.0 218:1.0 236:1.0 253:1.0 296:1.0 309:1.0 356:1.0 
1.0 27:1.0 60:1.0 88:1.0 116:1.0 153:1.0 176:1.0 218:1.0 236:1.0 264:1.0 296:1.0 317:1.0 356:1.0 
1.0 17:1.0 56:1.0 63:1.0 116:1.0 153:1.0 176:1.0 218:1.0 236:1.0 257:1.0 296:1.0 330:1.0 356:1.0 
1.0 27:1.0 60:1.0 84:1.0 116:1.0 153:1.0 176:1.0 210:1.0 236:1.0 266:1.0 300:1.0 331:1.0 356:1.0 
1.0 49:1.0 56:1.0 88:1.0 116:1.0 153:1.0 176:1.0 218:1.0 236:1.0 278:1.0 296:1.0 326:1.0 360:1.0 372:1.0 416:1.0 
1.0 27:1.0 60:1.0 63:1.0 116:1.0 153:1.0 176:1.0 210:1.0 236:1.0 251:1.0 296:1.0 310:1.0 356:1.0 
1.0 30:1.0 56:1.0 77:1.0 116:1.0 153:1.0 176:1.0 218:1.0 236:1.0 267:1.0 300:1.0 349:1.0 356:1.0 
1.0 38:1.0 56:1.0 77:1.0 116:1.0 153:1.0 176:1.0 218:1.0 236:1.0 257:1.0 296:1.0 303:1.0 356:1.0 
1.0 31:1.0 60:1.0 77:1.0 116:1.0 153:1.0 176:1.0 218:1.0 236:1.0 255:1.0 296:1.0 302:1.0 356:1.0 
1.0 24:1.0 56:1.0 63:1.0 116:1.0 153:1.0 176:1.0 218:1.0 236:1.0 289:1.0 296:1.0 333:1.0 356:1.0 
1.0 17:1.0 56:1.0 63:1.0 116:1.0 153:1.0 176:1.0 218:1.0 236:1.0 278:1.0 296:1.0 317:1.0 356:1.0 391:1.0 416:1.0 
1.0 17:1.0 56:1.0 63:1.0 116:1.0 153:1.0 176:1.0 218:1.0 236:1.0 257:1.0 296:1.0 303:1.0 356:1.0 
1.0 17:1.0 56:1.0 63:1.0 116:1.0 153:1.0 176:1.0 218:1.0 236:1.0 267:1.0 300:1.0 312:1.0 356:1.0 
1.0 17:1.0 56:1.0 88:1.0 116:1.0 153:1.0 176:1.0 218:1.0 236:1.0 266:1.0 300:1.0 303:1.0 359:1.0 
1.0 17:1.0 56:1.0 82:1.0 116:1.0 153:1.0 176:1.0 218:1.0 236:1.0 274:1.0 296:1.0 322:1.0 356:1.0 
1.0 17:1.0 56:1.0 63:1.0 116:1.0 153:1.0 176:1.0 218:1.0 236:1.0 274:1.0 296:1.0 309:1.0 356:1.0 
1.0 12:1.0 56:1.0 84:1.0 116:1.0 153:1.0 176:1.0 218:1.0 236:1.0 257:1.0 296:1.0 350:1.0 358:1.0 
1.0 3:1.0 56:1.0 110:1.0 118:1.0 153:1.0 176:1.0 218:1.0 236:1.0 266:1.0 300:1.0 317:1.0 356:1.0 
1.0 23:1.0 60:1.0 63:1.0 116:1.0 153:1.0 176:1.0 218:1.0 236:1.0 265:1.0 300:1.0 327:1.0 360:1.0 
1.0 24:1.0 56:1.0 77:1.0 116:1.0 153:1.0 176:1.0 210:1.0 236:1.0 274:1.0 296:1.0 333:1.0 356:1.0 
0.7484539199569086 17:1.0 56:1.0 63:1.0 116:1.0 158:1.0 176:1.0 218:1.0 236:1.0 272:1.0 300:1.0 331:1.0 356:1.0 
1.0 26:1.0 60:1.0 88:1.0 116:1.0 153:1.0 176:1.0 218:1.0 236:1.0 264:1.0 296:1.0 333:1.0 356:1.0 
1.0 31:1.0 56:1.0 89:1.0 116:1.0 153:1.0 176:1.0 218:1.0 236:1.0 266:1.0 300:1.0 312:1.0 356:1.0 
1.0 9:1.0 56:1.0 63:1.0 116:1.0 153:1.0 176:1.0 218:1.0 236:1.0 266:1.0 300:1.0 331:1.0 356:1.0 
0.018277000611163746 31:1.0 54:1.0 89:1.0 116:1.0 158:1.0 176:1.0 218:1.0 236:1.0 267:1.0 300:1.0 349:1.0 356:1.0 
1.0 17:1.0 56:1.0 63:1.0 116:1.0 153:1.0 176:1.0 218:1.0 236:1.0 266:1.0 300:1.0 303:1.0 356:1.0 
1.0 22:1.0 56:1.0 63:1.0 116:1.0 153:1.0 176:1.0 218:1.0 236:1.0 257:1.0 296:1.0 312:1.0 356:1.0 
1.0 12:1.0 56:1.0 84:1.0 116:1.0 153:1.0 176:1.0 218:1.0 236:1.0 264:1.0 296:1.0 322:1.0 356:1.0 
1.0 17:1.0 56:1.0 63:1.0 116:1.0 153:1.0 176:1.0 218:1.0 236:1.0 253:1.0 296:1.0 309:1.0 356:1.0 
1.0 17:1.0 56:1.0 63:1.0 116:1.0 153:1.0 176:1.0 218:1.0 236:1.0 274:1.0 296:1.0 309:1.0 356:1.0 
1.0 17:1.0 56:1.0 63:1.0 116:1.0 153:1.0 176:1.0 218:1.0 236:1.0 267:1.0 300:1.0 344:1.0 356:1.0 
1.0 17:1.0 56:1.0 63:1.0 116:1.0 153:1.0 176:1.0 218:1.0 236:1.0 266:1.0 300:1.0 303:1.0 356:1.0 
1.0 9:1.0 56:1.0 88:1.0 116:1.0 153:1.0 176:1.0 218:1.0 236:1.0 257:1.0 296:1.0 303:1.0 356:1.0 
0.08011127820829517 17:1.0 56:1.0 88:1.0 116:1.0 158:1.0 176:1.0 210:1.0 236:1.0 243:1.0 296:1.0 338:1.0 356:1.0 
1.0 29:1.0 56:1.0 93:1.0 116:1.0 153:1.0 176:1.0 218:1.0 236:1.0 264:1.0 296:1.0 333:1.0 356:1.0 377:1.0 416:1.0 
1.0 17:1.0 56:1.0 110:1.0 116:1.0 153:1.0 176:1.0 210:1.0 236:1.0 267:1.0 300:1.0 344:1.0 356:1.0 
1.0 17:1.0 56:1.0 63:1.0 116:1.0 150:1.0 176:1.0 218:1.0 236:1.0 264:1.0 296:1.0 334:1.0 356:1.0 
1.0 33:1.0 56:1.0 77:1.0 116:1.0 153:1.0 176:1.0 218:1.0 236:1.0 270:1.0 296:1.0 326:1.0 360:1.0 391:1.0 419:1.0 
1.0 17:1.0 56:1.0 88:1.0 116:1.0 153:1.0 176:1.0 210:1.0 236:1.0 257:1.0 296:1.0 303:1.0 356:1.0 
1.0 17:1.0 56:1.0 63:1.0 116:1.0 153:1.0 176:1.0 218:1.0 236:1.0 264:1.0 296:1.0 309:1.0 356:1.0 
1.0 24:1.0 56:1.0 63:1.0 116:1.0 153:1.0 176:1.0 218:1.0 236:1.0 257:1.0 296:1.0 338:1.0 356:1.0 
1.0 9:1.0 56:1.0 63:1.0 116:1.0 153:1.0 176:1.0 218:1.0 236:1.0 267:1.0 300:1.0 324:1.0 356:1.0 
1.0 17:1.0 56:1.0 63:1.0 116:1.0 153:1.0 176:1.0 218:1.0 236:1.0 274:1.0 296:1.0 333:1.0 356:1.0 
1.0 38:1.0 56:1.0 94:1.0 116:1.0 153:1.0 176:1.0 210:1.0 236:1.0 267:1.0 300:1.0 322:1.0 356:1.0 
0.002361789602532057 30:1.0 56:1.0 87:1.0 120:1.0 158:1.0 176:1.0 210:1.0 236:1.0 257:1.0 296:1.0 333:1.0 356:1.0 
1.0 10:1.0 56:1.0 94:1.0 116:1.0 153:1.0 176:1.0 210:1.0 236:1.0 266:1.0 300:1.0 324:1.0 356:1.0 
1.0 12:1.0 56:1.0 63:1.0 116:1.0 153:1.0 176:1.0 210:1.0 236:1.0 257:1.0 296:1.0 302:1.0 356:1.0 
1.0 49:1.0 56:1.0 63:1.0 116:1.0 153:1.0 176:1.0 218:1.0 236:1.0 267:1.0 300:1.0 303:1.0 356:1.0 
1.0 17:1.0 56:1.0 63:1.0 116:1.0 153:1.0 176:1.0 218:1.0 236:1.0 264:1.0 296:1.0 317:1.0 356:1.0 
1.0 30:1.0 56:1.0 109:1.0 116:1.0 153:1.0 176:1.0 210:1.0 236:1.0 264:1.0 296:1.0 322:1.0 356:1.0 
1.0 34:1.0 56:1.0 63:1.0 116:1.0 153:1.0 176:1.0 218:1.0 236:1.0 267:1.0 300:1.0 331:1.0 356:1.0 
1.0 34:1.0 56:1.0 63:1.0 116:1.0 153:1.0 176:1.0 218:1.0 236:1.0 257:1.0 296:1.0 333:1.0 356:1.0 
1.0 24:1.0 56:1.0 63:1.0 116:1.0 153:1.0 176:1.0 218:1.0 236:1.0 274:1.0 296:1.0 309:1.0 356:1.0 
1.0 51:1.0 56:1.0 63:1.0 116:1.0 153:1.0 176:1.0 218:1.0 236:1.0 250:1.0 296:1.0 327:1.0 360:1.0 
1.0 12:1.0 56:1.0 84:1.0 116:1.0 153:1.0 176:1.0 218:1.0 236:1.0 257:1.0 296:1.0 303:1.0 356:1.0 
1.0 17:1.0 56:1.0 63:1.0 116:1.0 153:1.0 176:1.0 218:1.0 236:1.0 274:1.0 296:1.0 309:1.0 356:1.0 
1.0 27:1.0 60:1.0 63:1.0 116:1.0 153:1.0 176:1.0 218:1.0 236:1.0 269:1.0 296:1.0 333:1.0 356:1.0 
1.0 17:1.0 56:1.0 63:1.0 116:1.0 153:1.0 176:1.0 218:1.0 236:1.0 278:1.0 296:1.0 317:1.0 356:1.0 388:1.0 416:1.0 
1.0 17:1.0 56:1.0 63:1.0 116:1.0 153:1.0 176:1.0 218:1.0 236:1.0 278:1.0 296:1.0 310:1.0 356:1.0 377:1.0 416:1.0 
0.2405452795226494 24:1.0 56:1.0 86:1.0 120:1.0 158:1.0 176:1.0 218:1.0 236:1.0 257:1.0 296:1.0 303:1.0 356:1.0 
1.0 17:1.0 56:1.0 63:1.0 116:1.0 153:1.0 176:1.0 218:1.0 236:1.0 269:1.0 296:1.0 338:1.0 356:1.0 
1.0 17:1.0 56:1.0 82:1.0 116:1.0 153:1.0 176:1.0 218:1.0 236:1.0 267:1.0 300:1.0 317:1.0 356:1.0 
0.7898299446618656 26:1.0 60:1.0 63:1.0 116:1.0 158:1.0 176:1.0 218:1.0 236:1.0 264:1.0 296:1.0 334:1.0 356:1.0 
1.0 26:1.0 60:1.0 63:1.0 116:1.0 153:1.0 176:1.0 218:1.0 236:1.0 269:1.0 300:1.0 329:1.0 360:1.0 
0.9998551998779471 3:1.0 56:1.0 70:1.0 116:1.0 158:1.0 176:1.0 210:1.0 236:1.0 266:1.0 300:1.0 303:1.0 356:1.0 
0.07288663075288915 9:1.0 56:1.0 63:1.0 116:1.0 158:1.0 176:1.0 210:1.0 236:1.0 285:1.0 296:1.0 324:1.0 356:1.0 
1.0 17:1.0 56:1.0 88:1.0 116:1.0 158:1.0 176:1.0 210:1.0 236:1.0 289:1.0 296:1.0 303:1.0 356:1.0 
1.0 31:1.0 60:1.0 89:1.0 116:1.0 153:1.0 176:1.0 218:1.0 236:1.0 266:1.0 300:1.0 331:1.0 356:1.0 
0.12863979417803426 17:1.0 56:1.0 63:1.0 116:1.0 158:1.0 176:1.0 218:1.0 236:1.0 289:1.0 296:1.0 350:1.0 356:1.0 
1.0 38:1.0 56:1.0 109:1.0 116:1.0 153:1.0 176:1.0 218:1.0 236:1.0 243:1.0 296:1.0 333:1.0 356:1.0 
1.0 50:1.0 58:1.0 87:1.0 120:1.0 153:1.0 176:1.0 218:1.0 236:1.0 264:1.0 296:1.0 322:1.0 356:1.0 
1.0 38:1.0 56:1.0 77:1.0 116:1.0 153:1.0 176:1.0 210:1.0 236:1.0 273:1.0 296:1.0 317:1.0 356:1.0 
0.9324764567373985 49:1.0 56:1.0 69:1.0 116:1.0 158:1.0 176:1.0 210:1.0 236:1.0 266:1.0 300:1.0 331:1.0 356:1.0 
0.12709083503205096 34:1.0 56:1.0 88:1.0 116:1.0 158:1.0 176:1.0 210:1.0 236:1.0 252:1.0 296:1.0 324:1.0 356:1.0 
1.0 3:1.0 56:1.0 110:1.0 118:1.0 153:1.0 176:1.0 218:1.0 236:1.0 267:1.0 300:1.0 350:1.0 358:1.0 
1.0 34:1.0 56:1.0 69:1.0 116:1.0 153:1.0 176:1.0 210:1.0 236:1.0 266:1.0 300:1.0 331:1.0 356:1.0 
1.0 38:1.0 56:1.0 77:1.0 116:1.0 153:1.0 176:1.0 210:1.0 236:1.0 242:1.0 296:1.0 317:1.0 356:1.0 
1.0 27:1.0 60:1.0 110:1.0 118:1.0 153:1.0 176:1.0 218:1.0 236:1.0 270:1.0 296:1.0 317:1.0 356:1.0 363:1.0 416:1.0 
1.0 39:1.0 56:1.0 71:1.0 116:1.0 153:1.0 176:1.0 218:1.0 236:1.0 259:1.0 300:1.0 349:1.0 356:1.0 
1.0 6:1.0 56:1.0 93:1.0 116:1.0 153:1.0 176:1.0 218:1.0 236:1.0 257:1.0 296:1.0 303:1.0 356:1.0 391:1.0 416:1.0 
1.0 30:1.0 56:1.0 77:1.0 116:1.0 153:1.0 176:1.0 218:1.0 236:1.0 257:1.0 296:1.0 302:1.0 356:1.0 
1.0 9:1.0 56:1.0 94:1.0 116:1.0 153:1.0 176:1.0 218:1.0 236:1.0 273:1.0 296:1.0 338:1.0 356:1.0 
1.0 38:1.0 56:1.0 77:1.0 116:1.0 153:1.0 176:1.0 218:1.0 236:1.0 257:1.0 296:1.0 322:1.0 356:1.0 
1.0 24:1.0 56:1.0 63:1.0 116:1.0 158:1.0 176:1.0 218:1.0 236:1.0 289:1.0 296:1.0 338:1.0 356:1.0 
1.0 10:1.0 56:1.0 77:1.0 116:1.0 153:1.0 176:1.0 218:1.0 236:1.0 257:1.0 296:1.0 303:1.0 356:1.0 
1.0 29:1.0 60:1.0 77:1.0 116:1.0 153:1.0 176:1.0 210:1.0 236:1.0 251:1.0 300:1.0 331:1.0 360:1.0 
0.467791515070644 17:1.0 56:1.0 62:1.0 116:1.0 158:1.0 176:1.0 218:1.0 236:1.0 271:1.0 296:1.0 331:1.0 356:1.0 
1.0 38:1.0 56:1.0 77:1.0 116:1.0 153:1.0 176:1.0 218:1.0 236:1.0 266:1.0 300:1.0 303:1.0 356:1.0 
0.9602270862542834 31:1.0 60:1.0 91:1.0 120:1.0 158:1.0 176:1.0 218:1.0 236:1.0 266:1.0 300:1.0 329:1.0 360:1.0 
1.0 38:1.0 56:1.0 77:1.0 116:1.0 153:1.0 176:1.0 218:1.0 236:1.0 278:1.0 296:1.0 327:1.0 360:1.0 398:1.0 416:1.0 
1.0 31:1.0 56:1.0 91:1.0 116:1.0 158:1.0 176:1.0 218:1.0 236:1.0 270:1.0 296:1.0 311:1.0 360:1.0 389:1.0 420:1.0 
0.5409734319866427 17:1.0 56:1.0 70:1.0 116:1.0 158:1.0 176:1.0 210:1.0 236:1.0 257:1.0 296:1.0 303:1.0 356:1.0 
0.9988467541686561 3:1.0 56:1.0 91:1.0 116:1.0 158:1.0 176:1.0 218:1.0 236:1.0 257:1.0 296:1.0 331:1.0 360:1.0 
1.0 31:1.0 60:1.0 81:1.0 116:1.0 150:1.0 176:1.0 218:1.0 236:1.0 267:1.0 300:1.0 331:1.0 356:1.0 
1.0 27:1.0 60:1.0 63:1.0 116:1.0 158:1.0 176:1.0 210:1.0 236:1.0 285:1.0 296:1.0 324:1.0 356:1.0 
0.8638875174633285 17:1.0 56:1.0 63:1.0 116:1.0 158:1.0 176:1.0 218:1.0 240:1.0 264:1.0 296:1.0 332:1.0 360:1.0 
0.37714155193088134 17:1.0 56:1.0 63:1.0 116:1.0 158:1.0 176:1.0 218:1.0 236:1.0 267:1.0 300:1.0 320:1.0 356:1.0 
0.0033345219008838467 17:1.0 56:1.0 63:1.0 116:1.0 158:1.0 176:1.0 210:1.0 236:1.0 257:1.0 296:1.0 303:1.0 356:1.0 
1.0 27:1.0 60:1.0 63:1.0 116:1.0 153:1.0 176:1.0 218:1.0 236:1.0 257:1.0 296:1.0 338:1.0 356:1.0 
1.0 49:1.0 56:1.0 63:1.0 116:1.0 153:1.0 176:1.0 218:1.0 236:1.0 278:1.0 296:1.0 334:1.0 356:1.0 391:1.0 416:1.0 
0.0012048946632804394 10:1.0 56:1.0 63:1.0 116:1.0 158:1.0 176:1.0 218:1.0 236:1.0 274:1.0 296:1.0 328:1.0 356:1.0 
0.9728713324818217 5:1.0 56:1.0 88:1.0 116:1.0 153:1.0 176:1.0 218:1.0 236:1.0 266:1.0 300:1.0 317:1.0 359:1.0 
1.0 15:1.0 56:1.0 63:1.0 116:1.0 153:1.0 176:1.0 218:1.0 236:1.0 257:1.0 296:1.0 303:1.0 356:1.0 
1.0 17:1.0 56:1.0 63:1.0 116:1.0 153:1.0 176:1.0 218:1.0 236:1.0 250:1.0 296:1.0 317:1.0 356:1.0 
1.0 26:1.0 60:1.0 63:1.0 116:1.0 153:1.0 176:1.0 218:1.0 236:1.0 278:1.0 296:1.0 324:1.0 356:1.0 363:1.0 416:1.0 
1.0 17:1.0 56:1.0 63:1.0 116:1.0 153:1.0 176:1.0 210:1.0 236:1.0 266:1.0 300:1.0 317:1.0 359:1.0 
0.014142591520126358 31:1.0 56:1.0 89:1.0 116:1.0 158:1.0 176:1.0 210:1.0 236:1.0 267:1.0 300:1.0 351:1.0 356:1.0 
0.33325690448330325 51:1.0 56:1.0 63:1.0 116:1.0 158:1.0 176:1.0 218:1.0 236:1.0 267:1.0 300:1.0 310:1.0 356:1.0 
0.0489790781280954 31:1.0 56:1.0 89:1.0 116:1.0 158:1.0 176:1.0 210:1.0 236:1.0 267:1.0 300:1.0 322:1.0 356:1.0 
1.0 17:1.0 56:1.0 63:1.0 116:1.0 153:1.0 176:1.0 218:1.0 236:1.0 289:1.0 296:1.0 317:1.0 356:1.0 
1.0 4:1.0 56:1.0 63:1.0 116:1.0 153:1.0 176:1.0 218:1.0 236:1.0 267:1.0 300:1.0 331:1.0 356:1.0 
1.0 17:1.0 59:1.0 63:1.0 116:1.0 153:1.0 176:1.0 218:1.0 236:1.0 278:1.0 296:1.0 351:1.0 356:1.0 372:1.0 416:1.0 
0.5285029231872685 17:1.0 56:1.0 63:1.0 116:1.0 158:1.0 176:1.0 218:1.0 236:1.0 267:1.0 300:1.0 312:1.0 356:1.0 
1.0 17:1.0 56:1.0 63:1.0 116:1.0 153:1.0 176:1.0 218:1.0 236:1.0 266:1.0 300:1.0 317:1.0 356:1.0 
1.0 31:1.0 56:1.0 89:1.0 116:1.0 153:1.0 176:1.0 218:1.0 236:1.0 255:1.0 296:1.0 324:1.0 356:1.0 
1.0 17:1.0 56:1.0 63:1.0 116:1.0 153:1.0 176:1.0 218:1.0 236:1.0 266:1.0 300:1.0 333:1.0 356:1.0 
1.0 12:1.0 56:1.0 77:1.0 116:1.0 153:1.0 176:1.0 218:1.0 236:1.0 266:1.0 300:1.0 303:1.0 356:1.0 
1.0 34:1.0 56:1.0 63:1.0 116:1.0 153:1.0 176:1.0 210:1.0 236:1.0 250:1.0 296:1.0 326:1.0 360:1.0 
1.0 17:1.0 56:1.0 82:1.0 116:1.0 153:1.0 176:1.0 218:1.0 236:1.0 257:1.0 296:1.0 312:1.0 356:1.0 
0.3740323710742126 31:1.0 56:1.0 91:1.0 119:1.0 158:1.0 176:1.0 218:1.0 236:1.0 267:1.0 300:1.0 302:1.0 356:1.0 
1.0 31:1.0 56:1.0 89:1.0 116:1.0 153:1.0 176:1.0 218:1.0 236:1.0 257:1.0 296:1.0 333:1.0 356:1.0 
1.0 31:1.0 56:1.0 89:1.0 116:1.0 153:1.0 176:1.0 218:1.0 236:1.0 257:1.0 296:1.0 303:1.0 356:1.0 
0.024092747311745526 17:1.0 56:1.0 63:1.0 116:1.0 158:1.0 176:1.0 218:1.0 236:1.0 264:1.0 296:1.0 312:1.0 356:1.0 
0.15517869197446255 10:1.0 56:1.0 63:1.0 116:1.0 158:1.0 176:1.0 218:1.0 236:1.0 266:1.0 300:1.0 302:1.0 356:1.0 
0.7608377833472393 49:1.0 56:1.0 63:1.0 116:1.0 158:1.0 176:1.0 210:1.0 236:1.0 257:1.0 296:1.0 303:1.0 356:1.0 
1.0 17:1.0 56:1.0 63:1.0 116:1.0 153:1.0 176:1.0 218:1.0 236:1.0 278:1.0 296:1.0 349:1.0 356:1.0 390:1.0 416:1.0 
1.0 38:1.0 56:1.0 77:1.0 116:1.0 153:1.0 176:1.0 218:1.0 236:1.0 270:1.0 296:1.0 317:1.0 356:1.0 391:1.0 416:1.0 
0.5718835287750185 26:1.0 60:1.0 63:1.0 116:1.0 150:1.0 176:1.0 218:1.0 236:1.0 271:1.0 296:1.0 324:1.0 356:1.0 
0.001929720255491374 17:1.0 56:1.0 63:1.0 116:1.0 158:1.0 176:1.0 218:1.0 236:1.0 266:1.0 300:1.0 338:1.0 360:1.0 
0.9535829960325174 17:1.0 56:1.0 63:1.0 116:1.0 158:1.0 176:1.0 218:1.0 236:1.0 257:1.0 296:1.0 333:1.0 356:1.0 
1.0 17:1.0 56:1.0 79:1.0 120:1.0 153:1.0 176:1.0 218:1.0 236:1.0 259:1.0 300:1.0 334:1.0 356:1.0 
1.0 17:1.0 56:1.0 79:1.0 120:1.0 153:1.0 176:1.0 218:1.0 236:1.0 259:1.0 300:1.0 327:1.0 360:1.0 
1.0 17:1.0 56:1.0 63:1.0 116:1.0 158:1.0 180:1.0 218:1.0 236:1.0 289:1.0 296:1.0 324:1.0 356:1.0 
1.0 17:1.0 56:1.0 63:1.0 116:1.0 153:1.0 176:1.0 218:1.0 240:1.0 263:1.0 300:1.0 322:1.0 356:1.0 
1.0 11:1.0 56:1.0 110:1.0 118:1.0 153:1.0 176:1.0 210:1.0 236:1.0 257:1.0 296:1.0 333:1.0 356:1.0 
1.0 27:1.0 60:1.0 63:1.0 116:1.0 153:1.0 176:1.0 210:1.0 236:1.0 264:1.0 296:1.0 333:1.0 356:1.0 
1.0 2:1.0 56:1.0 63:1.0 116:1.0 153:1.0 176:1.0 218:1.0 236:1.0 267:1.0 300:1.0 349:1.0 356:1.0 
1.0 49:1.0 56:1.0 63:1.0 116:1.0 153:1.0 176:1.0 218:1.0 236:1.0 255:1.0 296:1.0 317:1.0 356:1.0 
1.0 34:1.0 56:1.0 88:1.0 116:1.0 153:1.0 176:1.0 210:1.0 236:1.0 272:1.0 300:1.0 312:1.0 356:1.0 
1.0 38:1.0 56:1.0 87:1.0 120:1.0 153:1.0 176:1.0 218:1.0 236:1.0 267:1.0 300:1.0 349:1.0 356:1.0 
1.0 26:1.0 60:1.0 63:1.0 116:1.0 158:1.0 176:1.0 210:1.0 236:1.0 264:1.0 296:1.0 338:1.0 356:1.0 
1.0 2:1.0 56:1.0 63:1.0 116:1.0 153:1.0 176:1.0 218:1.0 236:1.0 249:1.0 296:1.0 317:1.0 356:1.0 
0.28956416554751374 17:1.0 56:1.0 88:1.0 116:1.0 158:1.0 176:1.0 218:1.0 236:1.0 289:1.0 296:1.0 317:1.0 356:1.0 
0.5724538367348299 38:1.0 56:1.0 77:1.0 116:1.0 153:1.0 176:1.0 218:1.0 236:1.0 284:1.0 296:1.0 315:1.0 356:1.0 
1.0 17:1.0 56:1.0 88:1.0 116:1.0 158:1.0 176:1.0 218:1.0 236:1.0 270:1.0 296:1.0 327:1.0 360:1.0 398:1.0 420:1.0 
1.0 17:1.0 56:1.0 63:1.0 116:1.0 153:1.0 176:1.0 218:1.0 240:1.0 266:1.0 300:1.0 317:1.0 356:1.0 
1.0 49:1.0 56:1.0 63:1.0 116:1.0 153:1.0 176:1.0 218:1.0 236:1.0 252:1.0 296:1.0 324:1.0 356:1.0 
1.0 17:1.0 56:1.0 63:1.0 116:1.0 153:1.0 176:1.0 218:1.0 236:1.0 289:1.0 296:1.0 330:1.0 356:1.0 
1.0 17:1.0 56:1.0 63:1.0 116:1.0 153:1.0 176:1.0 218:1.0 236:1.0 289:1.0 296:1.0 333:1.0 356:1.0 
1.0 38:1.0 56:1.0 109:1.0 116:1.0 153:1.0 176:1.0 218:1.0 236:1.0 278:1.0 296:1.0 315:1.0 356:1.0 370:1.0 416:1.0 
1.0 38:1.0 56:1.0 94:1.0 116:1.0 153:1.0 176:1.0 218:1.0 236:1.0 289:1.0 296:1.0 333:1.0 356:1.0 
0.333402373482689 17:1.0 59:1.0 88:1.0 116:1.0 158:1.0 176:1.0 210:1.0 236:1.0 271:1.0 299:1.0 313:1.0 356:1.0 
1.0 38:1.0 56:1.0 84:1.0 116:1.0 153:1.0 176:1.0 218:1.0 236:1.0 267:1.0 300:1.0 303:1.0 356:1.0 
1.0 17:1.0 56:1.0 88:1.0 116:1.0 153:1.0 176:1.0 218:1.0 236:1.0 278:1.0 296:1.0 349:1.0 356:1.0 393:1.0 416:1.0 
0.5231444388329157 24:1.0 56:1.0 62:1.0 116:1.0 158:1.0 176:1.0 218:1.0 236:1.0 266:1.0 300:1.0 303:1.0 356:1.0 
0.2218533474746436 17:1.0 56:1.0 63:1.0 116:1.0 158:1.0 176:1.0 218:1.0 236:1.0 243:1.0 296:1.0 350:1.0 356:1.0 
1.0 38:1.0 56:1.0 109:1.0 116:1.0 153:1.0 176:1.0 218:1.0 236:1.0 257:1.0 296:1.0 338:1.0 356:1.0 
0.037262580128864874 10:1.0 56:1.0 77:1.0 116:1.0 158:1.0 176:1.0 218:1.0 236:1.0 257:1.0 296:1.0 350:1.0 358:1.0 
1.0 38:1.0 56:1.0 77:1.0 116:1.0 153:1.0 176:1.0 218:1.0 236:1.0 266:1.0 300:1.0 317:1.0 359:1.0 
1.0 38:1.0 56:1.0 77:1.0 116:1.0 153:1.0 176:1.0 218:1.0 236:1.0 267:1.0 300:1.0 302:1.0 356:1.0 
1.0 17:1.0 56:1.0 63:1.0 116:1.0 153:1.0 176:1.0 218:1.0 236:1.0 257:1.0 296:1.0 303:1.0 356:1.0 
1.0 27:1.0 60:1.0 63:1.0 116:1.0 153:1.0 176:1.0 218:1.0 236:1.0 267:1.0 300:1.0 331:1.0 359:1.0 
1.0 2:1.0 59:1.0 87:1.0 120:1.0 153:1.0 176:1.0 218:1.0 236:1.0 271:1.0 296:1.0 349:1.0 356:1.0 
1.0 38:1.0 56:1.0 94:1.0 116:1.0 153:1.0 176:1.0 218:1.0 236:1.0 257:1.0 296:1.0 331:1.0 359:1.0 
0.46667781705940614 31:1.0 59:1.0 63:1.0 116:1.0 158:1.0 176:1.0 218:1.0 236:1.0 255:1.0 296:1.0 310:1.0 356:1.0 
1.0 17:1.0 56:1.0 63:1.0 116:1.0 158:1.0 176:1.0 218:1.0 236:1.0 257:1.0 296:1.0 317:1.0 356:1.0 
0.010439410199840713 26:1.0 60:1.0 63:1.0 116:1.0 158:1.0 176:1.0 218:1.0 236:1.0 264:1.0 296:1.0 333:1.0 356:1.0 
1.0 17:1.0 56:1.0 63:1.0 116:1.0 153:1.0 176:1.0 218:1.0 236:1.0 250:1.0 296:1.0 334:1.0 356:1.0 
0.017929358171797635 27:1.0 60:1.0 82:1.0 116:1.0 158:1.0 176:1.0 210:1.0 236:1.0 264:1.0 296:1.0 338:1.0 356:1.0 
1.0 17:1.0 56:1.0 63:1.0 116:1.0 153:1.0 176:1.0 218:1.0 236:1.0 267:1.0 300:1.0 317:1.0 356:1.0 
1.0 10:1.0 56:1.0 77:1.0 116:1.0 153:1.0 176:1.0 210:1.0 236:1.0 266:1.0 300:1.0 333:1.0 356:1.0 
0.7231415262197931 26:1.0 60:1.0 93:1.0 116:1.0 158:1.0 176:1.0 210:1.0 236:1.0 264:1.0 296:1.0 303:1.0 356:1.0 362:1.0 416:1.0 
1.0 26:1.0 60:1.0 63:1.0 116:1.0 153:1.0 176:1.0 218:1.0 236:1.0 242:1.0 296:1.0 310:1.0 356:1.0 
1.0 38:1.0 56:1.0 77:1.0 116:1.0 153:1.0 176:1.0 218:1.0 236:1.0 264:1.0 296:1.0 310:1.0 356:1.0 
0.49912835688247437 33:1.0 56:1.0 77:1.0 116:1.0 158:1.0 176:1.0 210:1.0 236:1.0 267:1.0 300:1.0 330:1.0 356:1.0 
1.0 17:1.0 56:1.0 88:1.0 116:1.0 153:1.0 176:1.0 218:1.0 236:1.0 257:1.0 296:1.0 333:1.0 356:1.0 
1.0 38:1.0 56:1.0 77:1.0 116:1.0 153:1.0 176:1.0 218:1.0 236:1.0 267:1.0 300:1.0 331:1.0 356:1.0 
1.0 15:1.0 56:1.0 63:1.0 116:1.0 153:1.0 176:1.0 218:1.0 236:1.0 267:1.0 300:1.0 349:1.0 356:1.0 
1.0 15:1.0 56:1.0 63:1.0 116:1.0 153:1.0 176:1.0 218:1.0 236:1.0 257:1.0 296:1.0 331:1.0 356:1.0 
0.2586735359843741 49:1.0 56:1.0 88:1.0 116:1.0 158:1.0 176:1.0 210:1.0 236:1.0 266:1.0 300:1.0 303:1.0 356:1.0 
1.0 12:1.0 56:1.0 63:1.0 116:1.0 153:1.0 176:1.0 218:1.0 236:1.0 278:1.0 296:1.0 327:1.0 360:1.0 382:1.0 416:1.0 
0.7232925313955002 15:1.0 56:1.0 63:1.0 116:1.0 158:1.0 176:1.0 218:1.0 236:1.0 266:1.0 300:1.0 317:1.0 356:1.0 
1.0 34:1.0 56:1.0 63:1.0 116:1.0 153:1.0 176:1.0 218:1.0 236:1.0 266:1.0 300:1.0 303:1.0 356:1.0 
1.0 38:1.0 56:1.0 77:1.0 116:1.0 153:1.0 176:1.0 218:1.0 236:1.0 266:1.0 300:1.0 328:1.0 356:1.0 
1.0 17:1.0 56:1.0 63:1.0 116:1.0 153:1.0 176:1.0 218:1.0 236:1.0 257:1.0 296:1.0 303:1.0 356:1.0 
1.0 2:1.0 56:1.0 88:1.0 116:1.0 153:1.0 176:1.0 218:1.0 236:1.0 267:1.0 300:1.0 315:1.0 356:1.0 
1.0 17:1.0 56:1.0 63:1.0 116:1.0 153:1.0 176:1.0 218:1.0 236:1.0 257:1.0 296:1.0 333:1.0 356:1.0 
1.0 38:1.0 56:1.0 77:1.0 116:1.0 153:1.0 176:1.0 218:1.0 236:1.0 289:1.0 296:1.0 333:1.0 356:1.0 
1.0 10:1.0 56:1.0 63:1.0 116:1.0 153:1.0 176:1.0 218:1.0 236:1.0 257:1.0 296:1.0 303:1.0 356:1.0 
1.0 38:1.0 56:1.0 109:1.0 116:1.0 153:1.0 176:1.0 218:1.0 236:1.0 250:1.0 296:1.0 317:1.0 356:1.0 
1.0 17:1.0 56:1.0 63:1.0 116:1.0 153:1.0 176:1.0 218:1.0 236:1.0 263:1.0 300:1.0 331:1.0 356:1.0 
1.0 3:1.0 56:1.0 91:1.0 116:1.0 158:1.0 176:1.0 210:1.0 236:1.0 274:1.0 296:1.0 309:1.0 356:1.0 
1.0 34:1.0 56:1.0 63:1.0 116:1.0 153:1.0 176:1.0 218:1.0 236:1.0 257:1.0 296:1.0 331:1.0 356:1.0 
1.0 38:1.0 56:1.0 109:1.0 116:1.0 153:1.0 176:1.0 218:1.0 236:1.0 257:1.0 296:1.0 338:1.0 356:1.0 
1.0 17:1.0 56:1.0 63:1.0 116:1.0 153:1.0 176:1.0 218:1.0 236:1.0 257:1.0 296:1.0 331:1.0 356:1.0 
1.0 9:1.0 56:1.0 63:1.0 116:1.0 153:1.0 176:1.0 218:1.0 236:1.0 257:1.0 296:1.0 303:1.0 356:1.0 
1.0 17:1.0 56:1.0 63:1.0 116:1.0 153:1.0 176:1.0 218:1.0 236:1.0 264:1.0 296:1.0 310:1.0 356:1.0 
1.0 38:1.0 56:1.0 77:1.0 116:1.0 153:1.0 176:1.0 218:1.0 236:1.0 267:1.0 300:1.0 324:1.0 356:1.0 
1.0 17:1.0 56:1.0 63:1.0 116:1.0 153:1.0 176:1.0 218:1.0 236:1.0 264:1.0 296:1.0 303:1.0 356:1.0 
1.0 17:1.0 56:1.0 63:1.0 116:1.0 153:1.0 176:1.0 218:1.0 236:1.0 267:1.0 300:1.0 349:1.0 356:1.0 
1.0 34:1.0 56:1.0 63:1.0 116:1.0 153:1.0 176:1.0 218:1.0 236:1.0 257:1.0 296:1.0 331:1.0 356:1.0 
1.0 38:1.0 56:1.0 77:1.0 116:1.0 153:1.0 176:1.0 218:1.0 236:1.0 250:1.0 296:1.0 317:1.0 356:1.0 
1.0 34:1.0 56:1.0 63:1.0 116:1.0 153:1.0 176:1.0 218:1.0 236:1.0 267:1.0 300:1.0 317:1.0 356:1.0 
1.0 17:1.0 56:1.0 63:1.0 116:1.0 153:1.0 176:1.0 218:1.0 236:1.0 266:1.0 300:1.0 303:1.0 356:1.0 
0.2685729272746152 17:1.0 56:1.0 88:1.0 116:1.0 158:1.0 176:1.0 218:1.0 236:1.0 255:1.0 296:1.0 310:1.0 356:1.0 
1.0 17:1.0 56:1.0 63:1.0 116:1.0 153:1.0 176:1.0 218:1.0 236:1.0 264:1.0 296:1.0 302:1.0 356:1.0 
1.0 11:1.0 56:1.0 77:1.0 116:1.0 153:1.0 176:1.0 218:1.0 236:1.0 242:1.0 296:1.0 349:1.0 356:1.0 
0.008425321041425904 17:1.0 56:1.0 63:1.0 116:1.0 158:1.0 176:1.0 210:1.0 236:1.0 250:1.0 296:1.0 317:1.0 356:1.0 
1.0 17:1.0 56:1.0 63:1.0 116:1.0 153:1.0 176:1.0 218:1.0 236:1.0 274:1.0 296:1.0 328:1.0 356:1.0 
1.0 49:1.0 56:1.0 93:1.0 116:1.0 158:1.0 176:1.0 218:1.0 236:1.0 257:1.0 296:1.0 303:1.0 356:1.0 391:1.0 416:1.0 
1.0 30:1.0 56:1.0 77:1.0 116:1.0 153:1.0 176:1.0 218:1.0 236:1.0 249:1.0 296:1.0 334:1.0 356:1.0 
1.0 38:1.0 56:1.0 109:1.0 116:1.0 153:1.0 176:1.0 218:1.0 236:1.0 266:1.0 300:1.0 312:1.0 356:1.0 
1.0 17:1.0 56:1.0 63:1.0 116:1.0 153:1.0 176:1.0 218:1.0 236:1.0 263:1.0 300:1.0 312:1.0 356:1.0 
1.0 28:1.0 56:1.0 79:1.0 120:1.0 153:1.0 176:1.0 218:1.0 236:1.0 257:1.0 296:1.0 338:1.0 356:1.0 
1.0 10:1.0 56:1.0 77:1.0 116:1.0 153:1.0 176:1.0 218:1.0 236:1.0 267:1.0 300:1.0 303:1.0 356:1.0 
0.9970858219574583 22:1.0 56:1.0 63:1.0 116:1.0 158:1.0 176:1.0 218:1.0 236:1.0 270:1.0 296:1.0 317:1.0 356:1.0 363:1.0 416:1.0 
0.6629416388764658 17:1.0 56:1.0 63:1.0 116:1.0 158:1.0 176:1.0 210:1.0 236:1.0 266:1.0 300:1.0 312:1.0 356:1.0 
1.0 9:1.0 56:1.0 63:1.0 116:1.0 153:1.0 176:1.0 218:1.0 236:1.0 257:1.0 296:1.0 303:1.0 356:1.0 
1.0 24:1.0 56:1.0 77:1.0 116:1.0 153:1.0 176:1.0 218:1.0 236:1.0 289:1.0 296:1.0 302:1.0 356:1.0 
1.0 17:1.0 56:1.0 63:1.0 116:1.0 153:1.0 176:1.0 218:1.0 236:1.0 289:1.0 296:1.0 302:1.0 356:1.0 
1.0 38:1.0 56:1.0 94:1.0 116:1.0 153:1.0 176:1.0 218:1.0 236:1.0 278:1.0 296:1.0 317:1.0 356:1.0 391:1.0 416:1.0 
1.0 22:1.0 56:1.0 63:1.0 116:1.0 153:1.0 176:1.0 218:1.0 236:1.0 257:1.0 296:1.0 328:1.0 356:1.0 
0.9697268136339995 31:1.0 56:1.0 87:1.0 120:1.0 158:1.0 176:1.0 218:1.0 236:1.0 257:1.0 296:1.0 303:1.0 356:1.0 
0.17295020334603994 31:1.0 59:1.0 89:1.0 116:1.0 158:1.0 176:1.0 218:1.0 236:1.0 257:1.0 296:1.0 331:1.0 356:1.0 
1.0 38:1.0 56:1.0 77:1.0 116:1.0 153:1.0 176:1.0 218:1.0 236:1.0 266:1.0 300:1.0 331:1.0 356:1.0 
1.0 49:1.0 56:1.0 63:1.0 116:1.0 158:1.0 176:1.0 210:1.0 236:1.0 257:1.0 296:1.0 338:1.0 356:1.0 
0.6216667269216962 24:1.0 56:1.0 63:1.0 116:1.0 158:1.0 176:1.0 218:1.0 236:1.0 267:1.0 300:1.0 350:1.0 356:1.0 
1.0 38:1.0 56:1.0 77:1.0 116:1.0 153:1.0 176:1.0 218:1.0 236:1.0 267:1.0 300:1.0 344:1.0 356:1.0 
1.0 17:1.0 56:1.0 110:1.0 116:1.0 158:1.0 176:1.0 210:1.0 236:1.0 252:1.0 296:1.0 302:1.0 356:1.0 
1.0 17:1.0 56:1.0 63:1.0 116:1.0 153:1.0 176:1.0 218:1.0 236:1.0 267:1.0 300:1.0 349:1.0 356:1.0 
1.0 38:1.0 56:1.0 84:1.0 116:1.0 153:1.0 176:1.0 218:1.0 236:1.0 257:1.0 296:1.0 303:1.0 356:1.0 
1.0 24:1.0 56:1.0 70:1.0 116:1.0 153:1.0 176:1.0 210:1.0 236:1.0 266:1.0 300:1.0 303:1.0 356:1.0 
1.0 26:1.0 60:1.0 63:1.0 114:1.0 153:1.0 176:1.0 218:1.0 236:1.0 264:1.0 296:1.0 302:1.0 356:1.0 
1.0 5:1.0 56:1.0 93:1.0 116:1.0 153:1.0 176:1.0 218:1.0 236:1.0 266:1.0 300:1.0 317:1.0 356:1.0 410:1.0 418:1.0 
1.0 30:1.0 56:1.0 77:1.0 116:1.0 153:1.0 176:1.0 210:1.0 236:1.0 257:1.0 296:1.0 331:1.0 356:1.0 
1.0 10:1.0 56:1.0 77:1.0 116:1.0 158:1.0 180:1.0 218:1.0 236:1.0 270:1.0 296:1.0 327:1.0 360:1.0 363:1.0 416:1.0 
1.0 31:1.0 56:1.0 89:1.0 116:1.0 153:1.0 176:1.0 218:1.0 236:1.0 278:1.0 296:1.0 315:1.0 356:1.0 363:1.0 416:1.0 
1.0 17:1.0 56:1.0 63:1.0 116:1.0 158:1.0 176:1.0 218:1.0 236:1.0 290:1.0 296:1.0 338:1.0 356:1.0 
1.0 34:1.0 56:1.0 63:1.0 116:1.0 153:1.0 176:1.0 218:1.0 236:1.0 272:1.0 300:1.0 331:1.0 356:1.0 
1.0 3:1.0 56:1.0 95:1.0 116:1.0 153:1.0 176:1.0 218:1.0 236:1.0 252:1.0 296:1.0 302:1.0 356:1.0 
0.1506322611243564 27:1.0 60:1.0 63:1.0 116:1.0 158:1.0 176:1.0 218:1.0 236:1.0 271:1.0 296:1.0 331:1.0 356:1.0 
1.0 49:1.0 56:1.0 63:1.0 116:1.0 153:1.0 176:1.0 218:1.0 236:1.0 271:1.0 296:1.0 331:1.0 356:1.0 
1.0 17:1.0 56:1.0 63:1.0 116:1.0 158:1.0 176:1.0 218:1.0 236:1.0 264:1.0 296:1.0 327:1.0 360:1.0 
1.0 17:1.0 56:1.0 63:1.0 116:1.0 158:1.0 180:1.0 218:1.0 236:1.0 271:1.0 296:1.0 326:1.0 360:1.0 
6.680563989217939E-4 15:1.0 56:1.0 63:1.0 116:1.0 158:1.0 176:1.0 218:1.0 236:1.0 257:1.0 296:1.0 331:1.0 356:1.0 
0.12940142959212572 17:1.0 56:1.0 63:1.0 116:1.0 158:1.0 176:1.0 218:1.0 236:1.0 271:1.0 296:1.0 331:1.0 356:1.0 
1.0 24:1.0 56:1.0 63:1.0 116:1.0 153:1.0 176:1.0 218:1.0 236:1.0 250:1.0 296:1.0 317:1.0 356:1.0 
1.0 38:1.0 56:1.0 77:1.0 116:1.0 153:1.0 176:1.0 218:1.0 236:1.0 284:1.0 296:1.0 315:1.0 356:1.0 
1.0 30:1.0 56:1.0 77:1.0 116:1.0 153:1.0 176:1.0 218:1.0 236:1.0 278:1.0 296:1.0 327:1.0 360:1.0 362:1.0 416:1.0 
1.0 38:1.0 56:1.0 109:1.0 116:1.0 153:1.0 176:1.0 210:1.0 236:1.0 278:1.0 296:1.0 326:1.0 360:1.0 391:1.0 416:1.0 
0.0738867857741325 2:1.0 56:1.0 87:1.0 120:1.0 158:1.0 176:1.0 210:1.0 236:1.0 253:1.0 296:1.0 309:1.0 356:1.0 
1.0 23:1.0 60:1.0 62:1.0 116:1.0 158:1.0 176:1.0 210:1.0 236:1.0 265:1.0 300:1.0 338:1.0 356:1.0 
1.0 17:1.0 56:1.0 63:1.0 116:1.0 153:1.0 176:1.0 218:1.0 236:1.0 278:1.0 296:1.0 317:1.0 356:1.0 372:1.0 416:1.0 
0.8010018134582924 51:1.0 56:1.0 63:1.0 116:1.0 158:1.0 176:1.0 218:1.0 236:1.0 264:1.0 296:1.0 303:1.0 356:1.0 
0.024100126348524615 10:1.0 56:1.0 77:1.0 116:1.0 158:1.0 176:1.0 210:1.0 236:1.0 267:1.0 300:1.0 330:1.0 356:1.0 
1.0 10:1.0 56:1.0 77:1.0 116:1.0 158:1.0 176:1.0 210:1.0 236:1.0 257:1.0 296:1.0 350:1.0 358:1.0 
1.0 2:1.0 56:1.0 93:1.0 116:1.0 153:1.0 176:1.0 218:1.0 236:1.0 270:1.0 296:1.0 310:1.0 356:1.0 386:1.0 420:1.0 451:1.0 480:1.0 
1.0 30:1.0 56:1.0 70:1.0 116:1.0 158:1.0 176:1.0 210:1.0 236:1.0 262:1.0 296:1.0 338:1.0 356:1.0 
1.0 27:1.0 60:1.0 63:1.0 116:1.0 153:1.0 176:1.0 218:1.0 236:1.0 257:1.0 296:1.0 303:1.0 356:1.0 
1.0 17:1.0 56:1.0 63:1.0 116:1.0 153:1.0 176:1.0 218:1.0 236:1.0 278:1.0 296:1.0 344:1.0 356:1.0 384:1.0 416:1.0 
1.0 26:1.0 60:1.0 63:1.0 116:1.0 153:1.0 176:1.0 218:1.0 236:1.0 250:1.0 296:1.0 317:1.0 356:1.0 
1.0 30:1.0 56:1.0 87:1.0 120:1.0 153:1.0 176:1.0 210:1.0 236:1.0 284:1.0 296:1.0 311:1.0 356:1.0 
1.0 33:1.0 56:1.0 77:1.0 116:1.0 153:1.0 176:1.0 218:1.0 236:1.0 289:1.0 296:1.0 333:1.0 356:1.0 
1.0 38:1.0 56:1.0 109:1.0 116:1.0 153:1.0 176:1.0 210:1.0 236:1.0 278:1.0 296:1.0 326:1.0 360:1.0 377:1.0 416:1.0 
0.29016341771777077 44:1.0 56:1.0 84:1.0 116:1.0 158:1.0 176:1.0 218:1.0 236:1.0 274:1.0 296:1.0 350:1.0 358:1.0 
1.0 10:1.0 56:1.0 77:1.0 116:1.0 153:1.0 176:1.0 210:1.0 236:1.0 289:1.0 296:1.0 333:1.0 356:1.0 
0.3980758672414257 49:1.0 56:1.0 63:1.0 116:1.0 158:1.0 176:1.0 218:1.0 236:1.0 262:1.0 296:1.0 303:1.0 356:1.0 
1.0 30:1.0 56:1.0 77:1.0 116:1.0 153:1.0 176:1.0 218:1.0 236:1.0 278:1.0 296:1.0 326:1.0 360:1.0 362:1.0 416:1.0 
1.0 17:1.0 56:1.0 63:1.0 116:1.0 153:1.0 176:1.0 218:1.0 236:1.0 257:1.0 296:1.0 322:1.0 356:1.0 
0.11022844244019028 49:1.0 56:1.0 96:1.0 116:1.0 158:1.0 176:1.0 210:1.0 236:1.0 266:1.0 300:1.0 317:1.0 356:1.0 398:1.0 416:1.0 
1.0 38:1.0 56:1.0 77:1.0 116:1.0 153:1.0 176:1.0 218:1.0 236:1.0 257:1.0 296:1.0 350:1.0 358:1.0 
0.8521810423681454 17:1.0 56:1.0 63:1.0 116:1.0 158:1.0 176:1.0 218:1.0 236:1.0 257:1.0 296:1.0 317:1.0 356:1.0 
1.0 22:1.0 56:1.0 63:1.0 116:1.0 158:1.0 180:1.0 218:1.0 236:1.0 257:1.0 296:1.0 303:1.0 356:1.0 
1.0 3:1.0 56:1.0 79:1.0 120:1.0 153:1.0 176:1.0 218:1.0 236:1.0 259:1.0 300:1.0 338:1.0 356:1.0 
1.0 19:1.0 60:1.0 63:1.0 116:1.0 158:1.0 176:1.0 218:1.0 236:1.0 272:1.0 300:1.0 317:1.0 356:1.0 
1.0 9:1.0 56:1.0 63:1.0 116:1.0 153:1.0 176:1.0 218:1.0 236:1.0 278:1.0 296:1.0 317:1.0 356:1.0 391:1.0 416:1.0 
1.0 27:1.0 60:1.0 63:1.0 116:1.0 153:1.0 176:1.0 218:1.0 236:1.0 278:1.0 296:1.0 324:1.0 356:1.0 362:1.0 416:1.0 
1.0 22:1.0 56:1.0 63:1.0 116:1.0 153:1.0 176:1.0 218:1.0 236:1.0 278:1.0 296:1.0 327:1.0 360:1.0 382:1.0 416:1.0 
1.0 34:1.0 56:1.0 79:1.0 120:1.0 153:1.0 176:1.0 210:1.0 236:1.0 259:1.0 300:1.0 317:1.0 356:1.0 
1.0 17:1.0 56:1.0 63:1.0 116:1.0 153:1.0 176:1.0 218:1.0 236:1.0 266:1.0 300:1.0 350:1.0 356:1.0 
1.0 17:1.0 56:1.0 63:1.0 116:1.0 153:1.0 176:1.0 218:1.0 236:1.0 264:1.0 296:1.0 303:1.0 356:1.0 
1.0 3:1.0 56:1.0 110:1.0 116:1.0 153:1.0 176:1.0 210:1.0 236:1.0 259:1.0 300:1.0 302:1.0 356:1.0 
1.0 3:1.0 56:1.0 96:1.0 116:1.0 153:1.0 176:1.0 218:1.0 236:1.0 257:1.0 296:1.0 331:1.0 356:1.0 
0.9410542952337017 3:1.0 56:1.0 91:1.0 114:1.0 158:1.0 176:1.0 210:1.0 236:1.0 267:1.0 300:1.0 312:1.0 356:1.0 
1.0 38:1.0 56:1.0 77:1.0 116:1.0 153:1.0 176:1.0 210:1.0 236:1.0 284:1.0 296:1.0 324:1.0 356:1.0 
0.08825278847068829 24:1.0 56:1.0 63:1.0 116:1.0 158:1.0 176:1.0 218:1.0 236:1.0 257:1.0 296:1.0 338:1.0 356:1.0 
0.0015206204985294864 17:1.0 56:1.0 88:1.0 116:1.0 158:1.0 176:1.0 218:1.0 236:1.0 289:1.0 296:1.0 338:1.0 356:1.0 
1.5075168927929688E-4 10:1.0 56:1.0 91:1.0 116:1.0 158:1.0 176:1.0 218:1.0 236:1.0 266:1.0 300:1.0 303:1.0 356:1.0 
1.0 34:1.0 56:1.0 69:1.0 116:1.0 158:1.0 176:1.0 210:1.0 236:1.0 257:1.0 296:1.0 350:1.0 358:1.0 
1.0 10:1.0 56:1.0 77:1.0 116:1.0 153:1.0 176:1.0 218:1.0 236:1.0 278:1.0 296:1.0 327:1.0 360:1.0 409:1.0 416:1.0 
0.012060765310008085 17:1.0 56:1.0 63:1.0 116:1.0 158:1.0 176:1.0 218:1.0 236:1.0 264:1.0 296:1.0 317:1.0 356:1.0 
1.0 17:1.0 56:1.0 63:1.0 116:1.0 153:1.0 176:1.0 218:1.0 236:1.0 270:1.0 296:1.0 324:1.0 356:1.0 394:1.0 416:1.0 
1.0 15:1.0 56:1.0 77:1.0 116:1.0 153:1.0 176:1.0 218:1.0 236:1.0 253:1.0 296:1.0 302:1.0 356:1.0 
1.0 38:1.0 56:1.0 77:1.0 116:1.0 153:1.0 176:1.0 218:1.0 236:1.0 266:1.0 300:1.0 317:1.0 356:1.0 
1.0 17:1.0 56:1.0 79:1.0 120:1.0 153:1.0 176:1.0 218:1.0 236:1.0 278:1.0 296:1.0 319:1.0 360:1.0 387:1.0 420:1.0 
1.0 17:1.0 56:1.0 63:1.0 116:1.0 153:1.0 176:1.0 218:1.0 236:1.0 267:1.0 300:1.0 303:1.0 356:1.0 
1.0 17:1.0 56:1.0 63:1.0 116:1.0 153:1.0 176:1.0 218:1.0 236:1.0 278:1.0 296:1.0 315:1.0 356:1.0 387:1.0 420:1.0 
1.0 27:1.0 60:1.0 63:1.0 116:1.0 153:1.0 176:1.0 218:1.0 236:1.0 257:1.0 296:1.0 338:1.0 356:1.0 
0.9926764814612289 22:1.0 56:1.0 63:1.0 116:1.0 158:1.0 176:1.0 218:1.0 236:1.0 257:1.0 296:1.0 336:1.0 356:1.0 
0.9966048175718372 3:1.0 56:1.0 95:1.0 116:1.0 158:1.0 176:1.0 210:1.0 236:1.0 257:1.0 296:1.0 331:1.0 356:1.0 
1.0 24:1.0 56:1.0 63:1.0 116:1.0 153:1.0 176:1.0 218:1.0 236:1.0 257:1.0 296:1.0 331:1.0 356:1.0 
0.0754221580480786 26:1.0 60:1.0 63:1.0 116:1.0 158:1.0 176:1.0 218:1.0 236:1.0 264:1.0 296:1.0 331:1.0 356:1.0 
0.07789131893605102 49:1.0 56:1.0 63:1.0 116:1.0 158:1.0 176:1.0 210:1.0 236:1.0 266:1.0 300:1.0 303:1.0 356:1.0 
1.0 24:1.0 56:1.0 77:1.0 116:1.0 153:1.0 176:1.0 210:1.0 236:1.0 257:1.0 296:1.0 312:1.0 356:1.0 
9.182642953721472E-4 24:1.0 56:1.0 63:1.0 116:1.0 158:1.0 176:1.0 218:1.0 236:1.0 266:1.0 300:1.0 312:1.0 356:1.0 
0.3623745367105157 17:1.0 56:1.0 63:1.0 116:1.0 158:1.0 176:1.0 210:1.0 236:1.0 266:1.0 300:1.0 317:1.0 359:1.0 
1.0 3:1.0 56:1.0 63:1.0 116:1.0 158:1.0 176:1.0 210:1.0 236:1.0 257:1.0 296:1.0 331:1.0 356:1.0 
1.0 50:1.0 56:1.0 77:1.0 116:1.0 153:1.0 176:1.0 218:1.0 236:1.0 257:1.0 296:1.0 303:1.0 356:1.0 
1.0 22:1.0 56:1.0 77:1.0 116:1.0 153:1.0 176:1.0 218:1.0 236:1.0 289:1.0 296:1.0 317:1.0 356:1.0 
1.0 2:1.0 56:1.0 63:1.0 116:1.0 153:1.0 176:1.0 218:1.0 236:1.0 289:1.0 296:1.0 303:1.0 356:1.0 
1.0 26:1.0 60:1.0 63:1.0 116:1.0 153:1.0 176:1.0 218:1.0 236:1.0 264:1.0 296:1.0 317:1.0 356:1.0 
1.0 49:1.0 56:1.0 63:1.0 116:1.0 153:1.0 176:1.0 218:1.0 236:1.0 257:1.0 296:1.0 303:1.0 356:1.0 
1.0 38:1.0 56:1.0 87:1.0 120:1.0 153:1.0 176:1.0 218:1.0 236:1.0 289:1.0 296:1.0 303:1.0 356:1.0 
0.33242441013789403 24:1.0 56:1.0 63:1.0 116:1.0 158:1.0 176:1.0 218:1.0 236:1.0 266:1.0 300:1.0 338:1.0 356:1.0 
1.0 17:1.0 56:1.0 63:1.0 116:1.0 153:1.0 176:1.0 218:1.0 236:1.0 289:1.0 296:1.0 303:1.0 356:1.0 
1.0 3:1.0 56:1.0 110:1.0 116:1.0 153:1.0 176:1.0 210:1.0 236:1.0 266:1.0 300:1.0 303:1.0 356:1.0 
1.0 2:1.0 56:1.0 63:1.0 116:1.0 153:1.0 176:1.0 218:1.0 236:1.0 278:1.0 296:1.0 324:1.0 356:1.0 370:1.0 416:1.0 
1.0 27:1.0 60:1.0 63:1.0 116:1.0 153:1.0 176:1.0 218:1.0 236:1.0 289:1.0 296:1.0 338:1.0 356:1.0 
1.0 12:1.0 56:1.0 84:1.0 116:1.0 153:1.0 176:1.0 210:1.0 236:1.0 266:1.0 300:1.0 331:1.0 356:1.0 
0.00416343472556633 31:1.0 56:1.0 91:1.0 116:1.0 158:1.0 176:1.0 218:1.0 236:1.0 266:1.0 300:1.0 331:1.0 356:1.0 
0.8240511202404334 10:1.0 56:1.0 63:1.0 116:1.0 158:1.0 176:1.0 218:1.0 236:1.0 257:1.0 296:1.0 331:1.0 356:1.0 
1.0 27:1.0 60:1.0 82:1.0 116:1.0 150:1.0 176:1.0 210:1.0 236:1.0 289:1.0 296:1.0 333:1.0 356:1.0 
1.0 24:1.0 56:1.0 63:1.0 116:1.0 153:1.0 176:1.0 218:1.0 236:1.0 263:1.0 300:1.0 303:1.0 356:1.0 
1.0 17:1.0 56:1.0 63:1.0 116:1.0 153:1.0 176:1.0 218:1.0 236:1.0 264:1.0 296:1.0 317:1.0 356:1.0 
1.0 10:1.0 56:1.0 77:1.0 116:1.0 153:1.0 176:1.0 218:1.0 236:1.0 266:1.0 300:1.0 317:1.0 356:1.0 
1.0 50:1.0 58:1.0 87:1.0 120:1.0 153:1.0 176:1.0 218:1.0 236:1.0 264:1.0 296:1.0 303:1.0 356:1.0 
0.12814309950975125 50:1.0 58:1.0 86:1.0 120:1.0 158:1.0 176:1.0 210:1.0 236:1.0 264:1.0 296:1.0 328:1.0 356:1.0 
0.15452284119482337 12:1.0 56:1.0 89:1.0 116:1.0 158:1.0 176:1.0 218:1.0 236:1.0 257:1.0 296:1.0 331:1.0 356:1.0 
1.0 17:1.0 56:1.0 110:1.0 118:1.0 158:1.0 176:1.0 210:1.0 236:1.0 257:1.0 296:1.0 338:1.0 356:1.0 
1.0 17:1.0 56:1.0 63:1.0 116:1.0 158:1.0 176:1.0 218:1.0 236:1.0 257:1.0 296:1.0 350:1.0 358:1.0 
0.5126022463182272 17:1.0 56:1.0 63:1.0 116:1.0 158:1.0 176:1.0 218:1.0 236:1.0 262:1.0 296:1.0 331:1.0 356:1.0 
0.15359659088959138 49:1.0 56:1.0 63:1.0 116:1.0 158:1.0 176:1.0 218:1.0 236:1.0 267:1.0 300:1.0 312:1.0 356:1.0 
1.0 15:1.0 56:1.0 63:1.0 116:1.0 153:1.0 176:1.0 218:1.0 236:1.0 257:1.0 296:1.0 302:1.0 356:1.0 
0.15850180866411226 49:1.0 56:1.0 63:1.0 116:1.0 158:1.0 176:1.0 218:1.0 236:1.0 266:1.0 300:1.0 317:1.0 356:1.0 
1.0 3:1.0 56:1.0 79:1.0 120:1.0 153:1.0 176:1.0 218:1.0 236:1.0 259:1.0 300:1.0 331:1.0 356:1.0 
0.0077957619681893325 34:1.0 56:1.0 69:1.0 116:1.0 158:1.0 176:1.0 210:1.0 236:1.0 289:1.0 296:1.0 333:1.0 356:1.0 
0.1826800632427824 17:1.0 56:1.0 91:1.0 116:1.0 158:1.0 176:1.0 210:1.0 236:1.0 257:1.0 296:1.0 303:1.0 356:1.0 
1.0 27:1.0 60:1.0 63:1.0 116:1.0 153:1.0 179:1.0 218:1.0 236:1.0 278:1.0 296:1.0 317:1.0 356:1.0 410:1.0 418:1.0 
0.004781387996624895 29:1.0 56:1.0 93:1.0 116:1.0 158:1.0 176:1.0 218:1.0 236:1.0 267:1.0 300:1.0 303:1.0 356:1.0 410:1.0 418:1.0 
1.0 15:1.0 56:1.0 63:1.0 116:1.0 158:1.0 176:1.0 210:1.0 236:1.0 257:1.0 296:1.0 330:1.0 356:1.0 
1.0 34:1.0 56:1.0 63:1.0 116:1.0 153:1.0 176:1.0 218:1.0 236:1.0 278:1.0 296:1.0 338:1.0 356:1.0 387:1.0 420:1.0 469:1.0 476:1.0 
1.0 38:1.0 56:1.0 77:1.0 116:1.0 158:1.0 176:1.0 229:1.0 236:1.0 278:1.0 296:1.0 349:1.0 356:1.0 398:1.0 416:1.0 
1.0 27:1.0 60:1.0 63:1.0 116:1.0 153:1.0 176:1.0 218:1.0 236:1.0 289:1.0 296:1.0 331:1.0 356:1.0 
1.0 31:1.0 56:1.0 84:1.0 116:1.0 153:1.0 176:1.0 218:1.0 236:1.0 257:1.0 296:1.0 331:1.0 356:1.0 
1.0 24:1.0 56:1.0 88:1.0 116:1.0 153:1.0 176:1.0 218:1.0 236:1.0 257:1.0 296:1.0 331:1.0 359:1.0 
1.0 2:1.0 56:1.0 84:1.0 116:1.0 153:1.0 176:1.0 210:1.0 236:1.0 257:1.0 296:1.0 331:1.0 356:1.0 
1.0 17:1.0 56:1.0 63:1.0 116:1.0 153:1.0 176:1.0 218:1.0 236:1.0 271:1.0 296:1.0 331:1.0 359:1.0 
1.0 34:1.0 56:1.0 63:1.0 116:1.0 153:1.0 176:1.0 218:1.0 236:1.0 257:1.0 296:1.0 303:1.0 356:1.0 
0.25608069024798574 26:1.0 60:1.0 63:1.0 116:1.0 158:1.0 176:1.0 218:1.0 236:1.0 264:1.0 296:1.0 310:1.0 356:1.0 
1.0 17:1.0 56:1.0 88:1.0 116:1.0 153:1.0 176:1.0 218:1.0 236:1.0 257:1.0 296:1.0 331:1.0 356:1.0 
1.0 17:1.0 56:1.0 63:1.0 116:1.0 158:1.0 176:1.0 218:1.0 236:1.0 289:1.0 296:1.0 330:1.0 356:1.0 
1.0 24:1.0 56:1.0 63:1.0 116:1.0 153:1.0 176:1.0 218:1.0 236:1.0 250:1.0 296:1.0 331:1.0 356:1.0 
1.0 27:1.0 60:1.0 88:1.0 116:1.0 153:1.0 176:1.0 218:1.0 236:1.0 267:1.0 300:1.0 324:1.0 356:1.0 
1.0 22:1.0 56:1.0 63:1.0 116:1.0 153:1.0 176:1.0 218:1.0 236:1.0 266:1.0 300:1.0 312:1.0 356:1.0 
1.0 34:1.0 56:1.0 63:1.0 116:1.0 153:1.0 176:1.0 218:1.0 236:1.0 267:1.0 300:1.0 312:1.0 356:1.0 
0.3152405407526846 26:1.0 60:1.0 88:1.0 116:1.0 158:1.0 176:1.0 218:1.0 236:1.0 264:1.0 296:1.0 333:1.0 356:1.0 
1.0 24:1.0 56:1.0 63:1.0 116:1.0 153:1.0 176:1.0 218:1.0 236:1.0 289:1.0 296:1.0 328:1.0 356:1.0 
1.0 24:1.0 56:1.0 88:1.0 116:1.0 153:1.0 176:1.0 218:1.0 236:1.0 257:1.0 296:1.0 331:1.0 359:1.0 
1.0 17:1.0 56:1.0 94:1.0 116:1.0 153:1.0 176:1.0 218:1.0 236:1.0 257:1.0 296:1.0 350:1.0 358:1.0 
1.0 34:1.0 56:1.0 69:1.0 116:1.0 153:1.0 176:1.0 210:1.0 236:1.0 257:1.0 296:1.0 303:1.0 356:1.0 
1.0 49:1.0 56:1.0 63:1.0 116:1.0 158:1.0 176:1.0 210:1.0 236:1.0 264:1.0 296:1.0 310:1.0 356:1.0 
1.0 27:1.0 60:1.0 63:1.0 116:1.0 153:1.0 176:1.0 210:1.0 236:1.0 278:1.0 296:1.0 345:1.0 356:1.0 375:1.0 416:1.0 
1.0 15:1.0 56:1.0 63:1.0 116:1.0 153:1.0 176:1.0 218:1.0 236:1.0 271:1.0 299:1.0 331:1.0 356:1.0 
1.0 27:1.0 60:1.0 63:1.0 116:1.0 153:1.0 176:1.0 218:1.0 236:1.0 285:1.0 296:1.0 324:1.0 356:1.0 
1.0 38:1.0 56:1.0 109:1.0 116:1.0 153:1.0 176:1.0 218:1.0 236:1.0 270:1.0 296:1.0 327:1.0 360:1.0 362:1.0 416:1.0 
1.0 38:1.0 56:1.0 87:1.0 120:1.0 153:1.0 176:1.0 218:1.0 236:1.0 267:1.0 300:1.0 333:1.0 356:1.0 
1.0 38:1.0 56:1.0 87:1.0 120:1.0 153:1.0 176:1.0 218:1.0 236:1.0 267:1.0 300:1.0 333:1.0 356:1.0 
1.0 38:1.0 56:1.0 87:1.0 120:1.0 153:1.0 176:1.0 218:1.0 236:1.0 267:1.0 300:1.0 349:1.0 356:1.0 
1.0 38:1.0 56:1.0 109:1.0 116:1.0 153:1.0 176:1.0 218:1.0 236:1.0 266:1.0 300:1.0 317:1.0 356:1.0 
0.6290520381480857 3:1.0 56:1.0 77:1.0 116:1.0 158:1.0 176:1.0 218:1.0 236:1.0 289:1.0 296:1.0 338:1.0 356:1.0 
0.9974210628232671 17:1.0 56:1.0 88:1.0 116:1.0 158:1.0 176:1.0 218:1.0 236:1.0 257:1.0 296:1.0 350:1.0 358:1.0 
1.0 17:1.0 56:1.0 63:1.0 116:1.0 158:1.0 176:1.0 210:1.0 236:1.0 289:1.0 296:1.0 328:1.0 356:1.0 
0.8865366379583624 49:1.0 56:1.0 88:1.0 116:1.0 158:1.0 176:1.0 210:1.0 236:1.0 272:1.0 300:1.0 317:1.0 356:1.0 
1.0 21:1.0 56:1.0 93:1.0 116:1.0 153:1.0 176:1.0 218:1.0 236:1.0 270:1.0 296:1.0 326:1.0 360:1.0 372:1.0 416:1.0 444:1.0 476:1.0 
1.0 10:1.0 56:1.0 77:1.0 116:1.0 153:1.0 176:1.0 218:1.0 236:1.0 267:1.0 300:1.0 349:1.0 356:1.0 
0.0511567786408743 31:1.0 56:1.0 91:1.0 116:1.0 158:1.0 176:1.0 218:1.0 236:1.0 257:1.0 296:1.0 331:1.0 356:1.0 
1.0 45:1.0 56:1.0 84:1.0 116:1.0 153:1.0 176:1.0 210:1.0 236:1.0 289:1.0 296:1.0 330:1.0 356:1.0 
1.0 9:1.0 56:1.0 63:1.0 116:1.0 153:1.0 176:1.0 218:1.0 236:1.0 274:1.0 296:1.0 302:1.0 356:1.0 
1.0 49:1.0 56:1.0 94:1.0 116:1.0 153:1.0 176:1.0 218:1.0 236:1.0 266:1.0 300:1.0 312:1.0 356:1.0 
1.0 17:1.0 59:1.0 63:1.0 116:1.0 153:1.0 176:1.0 218:1.0 236:1.0 267:1.0 300:1.0 317:1.0 356:1.0 
1.0 38:1.0 56:1.0 77:1.0 116:1.0 153:1.0 176:1.0 210:1.0 236:1.0 267:1.0 300:1.0 317:1.0 356:1.0 
0.8276459734333069 34:1.0 56:1.0 69:1.0 116:1.0 158:1.0 176:1.0 210:1.0 236:1.0 289:1.0 296:1.0 338:1.0 356:1.0 
1.0 38:1.0 56:1.0 77:1.0 116:1.0 153:1.0 176:1.0 218:1.0 236:1.0 257:1.0 296:1.0 350:1.0 358:1.0 
1.0 15:1.0 56:1.0 63:1.0 116:1.0 153:1.0 176:1.0 218:1.0 236:1.0 262:1.0 296:1.0 333:1.0 356:1.0 
1.0 38:1.0 56:1.0 82:1.0 116:1.0 153:1.0 176:1.0 218:1.0 236:1.0 257:1.0 296:1.0 303:1.0 356:1.0 
1.0 10:1.0 56:1.0 63:1.0 116:1.0 158:1.0 176:1.0 218:1.0 236:1.0 289:1.0 296:1.0 338:1.0 356:1.0 
1.0 38:1.0 56:1.0 77:1.0 116:1.0 153:1.0 176:1.0 210:1.0 236:1.0 257:1.0 296:1.0 303:1.0 356:1.0 
0.0920487583041597 17:1.0 56:1.0 63:1.0 116:1.0 158:1.0 176:1.0 210:1.0 236:1.0 266:1.0 300:1.0 319:1.0 360:1.0 
0.9272862365373311 17:1.0 56:1.0 63:1.0 116:1.0 158:1.0 176:1.0 218:1.0 236:1.0 257:1.0 296:1.0 330:1.0 356:1.0 
1.0 31:1.0 60:1.0 93:1.0 116:1.0 158:1.0 176:1.0 218:1.0 236:1.0 269:1.0 300:1.0 329:1.0 360:1.0 389:1.0 420:1.0 
1.0 24:1.0 56:1.0 63:1.0 116:1.0 153:1.0 176:1.0 218:1.0 236:1.0 262:1.0 296:1.0 302:1.0 356:1.0 
1.0 17:1.0 56:1.0 88:1.0 116:1.0 153:1.0 176:1.0 218:1.0 236:1.0 266:1.0 300:1.0 317:1.0 356:1.0 
0.4590408254119279 17:1.0 56:1.0 63:1.0 116:1.0 158:1.0 176:1.0 218:1.0 236:1.0 272:1.0 300:1.0 333:1.0 356:1.0 
1.0 27:1.0 60:1.0 63:1.0 116:1.0 153:1.0 176:1.0 210:1.0 236:1.0 257:1.0 296:1.0 303:1.0 356:1.0 
0.0011488500185040662 9:1.0 56:1.0 63:1.0 116:1.0 158:1.0 176:1.0 210:1.0 236:1.0 274:1.0 296:1.0 309:1.0 356:1.0 
1.0 3:1.0 56:1.0 110:1.0 116:1.0 153:1.0 176:1.0 210:1.0 236:1.0 264:1.0 296:1.0 310:1.0 356:1.0 
0.655183568129849 9:1.0 56:1.0 63:1.0 116:1.0 158:1.0 176:1.0 210:1.0 236:1.0 266:1.0 300:1.0 350:1.0 356:1.0 
6.12197684448886E-4 34:1.0 56:1.0 69:1.0 116:1.0 158:1.0 176:1.0 210:1.0 236:1.0 274:1.0 296:1.0 309:1.0 356:1.0 
1.0 17:1.0 56:1.0 63:1.0 116:1.0 153:1.0 176:1.0 218:1.0 236:1.0 255:1.0 296:1.0 333:1.0 356:1.0 
1.0 26:1.0 60:1.0 63:1.0 116:1.0 158:1.0 176:1.0 210:1.0 236:1.0 250:1.0 296:1.0 302:1.0 356:1.0 
0.8615454682990205 49:1.0 56:1.0 63:1.0 116:1.0 158:1.0 176:1.0 210:1.0 236:1.0 251:1.0 296:1.0 333:1.0 356:1.0 
1.0 17:1.0 56:1.0 63:1.0 116:1.0 153:1.0 176:1.0 218:1.0 236:1.0 291:1.0 296:1.0 303:1.0 356:1.0 
0.5106669799347046 27:1.0 60:1.0 63:1.0 116:1.0 158:1.0 176:1.0 210:1.0 236:1.0 257:1.0 296:1.0 344:1.0 356:1.0 
0.3839153236294176 17:1.0 56:1.0 63:1.0 116:1.0 158:1.0 176:1.0 218:1.0 236:1.0 271:1.0 296:1.0 319:1.0 360:1.0 
1.0 30:1.0 56:1.0 77:1.0 116:1.0 153:1.0 176:1.0 218:1.0 236:1.0 267:1.0 300:1.0 349:1.0 356:1.0 
1.0 34:1.0 56:1.0 69:1.0 116:1.0 153:1.0 176:1.0 218:1.0 236:1.0 257:1.0 296:1.0 322:1.0 356:1.0 
1.0 26:1.0 60:1.0 63:1.0 114:1.0 153:1.0 176:1.0 218:1.0 236:1.0 284:1.0 296:1.0 315:1.0 356:1.0 
1.0 44:1.0 56:1.0 75:1.0 116:1.0 153:1.0 176:1.0 218:1.0 236:1.0 257:1.0 296:1.0 328:1.0 356:1.0 
1.0 31:1.0 59:1.0 84:1.0 116:1.0 153:1.0 176:1.0 218:1.0 236:1.0 257:1.0 296:1.0 303:1.0 356:1.0 
1.0 17:1.0 56:1.0 63:1.0 116:1.0 153:1.0 176:1.0 218:1.0 236:1.0 251:1.0 296:1.0 310:1.0 356:1.0 
1.0 30:1.0 56:1.0 71:1.0 116:1.0 153:1.0 176:1.0 218:1.0 236:1.0 278:1.0 296:1.0 334:1.0 356:1.0 369:1.0 416:1.0 
1.0 17:1.0 56:1.0 63:1.0 116:1.0 153:1.0 176:1.0 218:1.0 236:1.0 265:1.0 300:1.0 317:1.0 356:1.0 
1.0 17:1.0 56:1.0 63:1.0 116:1.0 153:1.0 176:1.0 218:1.0 236:1.0 265:1.0 300:1.0 334:1.0 356:1.0 
1.0 17:1.0 56:1.0 63:1.0 116:1.0 153:1.0 176:1.0 218:1.0 236:1.0 266:1.0 300:1.0 303:1.0 356:1.0 
1.0 17:1.0 56:1.0 63:1.0 116:1.0 153:1.0 176:1.0 218:1.0 236:1.0 255:1.0 296:1.0 310:1.0 356:1.0 
1.0 17:1.0 56:1.0 63:1.0 116:1.0 153:1.0 176:1.0 218:1.0 236:1.0 255:1.0 296:1.0 303:1.0 356:1.0 
1.0 17:1.0 56:1.0 63:1.0 116:1.0 153:1.0 176:1.0 218:1.0 236:1.0 257:1.0 296:1.0 338:1.0 356:1.0 
1.0 44:1.0 56:1.0 63:1.0 116:1.0 153:1.0 176:1.0 218:1.0 236:1.0 255:1.0 296:1.0 310:1.0 356:1.0 
1.0 26:1.0 60:1.0 63:1.0 116:1.0 153:1.0 176:1.0 218:1.0 236:1.0 255:1.0 296:1.0 317:1.0 356:1.0 
1.0 22:1.0 56:1.0 63:1.0 116:1.0 153:1.0 176:1.0 218:1.0 236:1.0 257:1.0 296:1.0 303:1.0 356:1.0 
1.0 17:1.0 56:1.0 63:1.0 116:1.0 153:1.0 176:1.0 218:1.0 236:1.0 266:1.0 300:1.0 303:1.0 356:1.0 
1.0 17:1.0 56:1.0 63:1.0 116:1.0 153:1.0 176:1.0 218:1.0 236:1.0 266:1.0 300:1.0 333:1.0 356:1.0 
1.0 38:1.0 56:1.0 77:1.0 116:1.0 153:1.0 176:1.0 210:1.0 236:1.0 267:1.0 300:1.0 303:1.0 356:1.0 
1.0 26:1.0 60:1.0 95:1.0 116:1.0 153:1.0 176:1.0 210:1.0 236:1.0 251:1.0 296:1.0 310:1.0 356:1.0 377:1.0 416:1.0 
1.0 17:1.0 56:1.0 63:1.0 116:1.0 153:1.0 176:1.0 210:1.0 236:1.0 251:1.0 296:1.0 338:1.0 356:1.0 
1.0 25:1.0 60:1.0 87:1.0 120:1.0 153:1.0 176:1.0 218:1.0 236:1.0 289:1.0 296:1.0 333:1.0 356:1.0 
1.0 38:1.0 56:1.0 109:1.0 116:1.0 153:1.0 176:1.0 210:1.0 236:1.0 263:1.0 300:1.0 317:1.0 356:1.0 
1.0 23:1.0 60:1.0 77:1.0 116:1.0 158:1.0 176:1.0 218:1.0 236:1.0 265:1.0 300:1.0 327:1.0 360:1.0 
1.0 17:1.0 56:1.0 63:1.0 116:1.0 153:1.0 176:1.0 218:1.0 236:1.0 267:1.0 300:1.0 303:1.0 356:1.0 
1.0 26:1.0 60:1.0 63:1.0 114:1.0 153:1.0 176:1.0 218:1.0 236:1.0 257:1.0 296:1.0 333:1.0 356:1.0 
1.0 4:1.0 56:1.0 63:1.0 116:1.0 153:1.0 176:1.0 218:1.0 236:1.0 266:1.0 300:1.0 303:1.0 356:1.0 
1.0 26:1.0 60:1.0 63:1.0 116:1.0 153:1.0 176:1.0 218:1.0 236:1.0 253:1.0 296:1.0 309:1.0 356:1.0 
1.0 26:1.0 60:1.0 63:1.0 116:1.0 153:1.0 176:1.0 218:1.0 236:1.0 257:1.0 296:1.0 303:1.0 356:1.0 
1.0 34:1.0 56:1.0 63:1.0 116:1.0 153:1.0 176:1.0 218:1.0 236:1.0 266:1.0 300:1.0 303:1.0 356:1.0 
1.0 49:1.0 56:1.0 63:1.0 116:1.0 153:1.0 176:1.0 218:1.0 236:1.0 266:1.0 300:1.0 303:1.0 354:1.0 
1.0 26:1.0 60:1.0 63:1.0 114:1.0 153:1.0 176:1.0 218:1.0 236:1.0 257:1.0 296:1.0 338:1.0 356:1.0 
1.0 10:1.0 56:1.0 77:1.0 116:1.0 153:1.0 176:1.0 210:1.0 236:1.0 257:1.0 296:1.0 303:1.0 356:1.0 
1.0 17:1.0 56:1.0 63:1.0 116:1.0 153:1.0 176:1.0 218:1.0 236:1.0 266:1.0 300:1.0 317:1.0 356:1.0 
1.0 3:1.0 56:1.0 63:1.0 116:1.0 153:1.0 176:1.0 218:1.0 236:1.0 289:1.0 296:1.0 338:1.0 356:1.0 
0.7201255928720174 26:1.0 60:1.0 93:1.0 116:1.0 158:1.0 176:1.0 218:1.0 236:1.0 270:1.0 296:1.0 311:1.0 356:1.0 393:1.0 416:1.0 458:1.0 476:1.0 
1.0 30:1.0 56:1.0 71:1.0 116:1.0 153:1.0 176:1.0 218:1.0 236:1.0 270:1.0 296:1.0 344:1.0 356:1.0 371:1.0 416:1.0 
1.0 38:1.0 56:1.0 77:1.0 116:1.0 153:1.0 176:1.0 210:1.0 236:1.0 267:1.0 300:1.0 349:1.0 356:1.0 
0.30200323368733845 30:1.0 56:1.0 71:1.0 116:1.0 153:1.0 176:1.0 210:1.0 236:1.0 284:1.0 296:1.0 311:1.0 356:1.0 
1.0 27:1.0 60:1.0 63:1.0 116:1.0 153:1.0 176:1.0 218:1.0 236:1.0 255:1.0 296:1.0 310:1.0 356:1.0 
1.0 27:1.0 60:1.0 63:1.0 116:1.0 153:1.0 176:1.0 218:1.0 236:1.0 267:1.0 300:1.0 349:1.0 356:1.0 
1.0 27:1.0 60:1.0 63:1.0 116:1.0 153:1.0 176:1.0 218:1.0 236:1.0 257:1.0 296:1.0 303:1.0 356:1.0 
1.0 49:1.0 56:1.0 63:1.0 116:1.0 153:1.0 176:1.0 218:1.0 236:1.0 242:1.0 296:1.0 302:1.0 356:1.0 
1.0 10:1.0 56:1.0 77:1.0 116:1.0 153:1.0 176:1.0 210:1.0 236:1.0 257:1.0 296:1.0 309:1.0 356:1.0 
1.0 30:1.0 56:1.0 71:1.0 116:1.0 153:1.0 176:1.0 213:1.0 236:1.0 278:1.0 296:1.0 330:1.0 356:1.0 404:1.0 416:1.0 431:1.0 476:1.0 
1.0 10:1.0 56:1.0 77:1.0 116:1.0 153:1.0 176:1.0 218:1.0 236:1.0 267:1.0 300:1.0 349:1.0 356:1.0 
1.0 30:1.0 56:1.0 71:1.0 116:1.0 153:1.0 176:1.0 213:1.0 236:1.0 270:1.0 296:1.0 327:1.0 360:1.0 404:1.0 416:1.0 
1.0 27:1.0 60:1.0 63:1.0 116:1.0 153:1.0 176:1.0 218:1.0 236:1.0 255:1.0 296:1.0 310:1.0 356:1.0 
1.0 17:1.0 56:1.0 75:1.0 116:1.0 153:1.0 176:1.0 218:1.0 236:1.0 257:1.0 296:1.0 303:1.0 356:1.0 
1.0 49:1.0 56:1.0 63:1.0 116:1.0 153:1.0 176:1.0 218:1.0 236:1.0 266:1.0 300:1.0 326:1.0 360:1.0 
1.0 2:1.0 56:1.0 96:1.0 116:1.0 153:1.0 176:1.0 210:1.0 236:1.0 266:1.0 300:1.0 331:1.0 356:1.0 391:1.0 416:1.0 
1.0 17:1.0 56:1.0 63:1.0 116:1.0 153:1.0 176:1.0 218:1.0 236:1.0 257:1.0 296:1.0 303:1.0 356:1.0 
1.0 38:1.0 56:1.0 77:1.0 116:1.0 153:1.0 176:1.0 218:1.0 236:1.0 267:1.0 300:1.0 330:1.0 356:1.0 
1.0 34:1.0 56:1.0 63:1.0 116:1.0 153:1.0 176:1.0 218:1.0 236:1.0 289:1.0 296:1.0 303:1.0 356:1.0 
1.0 6:1.0 56:1.0 93:1.0 116:1.0 153:1.0 176:1.0 218:1.0 236:1.0 267:1.0 300:1.0 310:1.0 356:1.0 377:1.0 416:1.0 
0.2874165197233276 49:1.0 56:1.0 63:1.0 116:1.0 158:1.0 176:1.0 218:1.0 236:1.0 257:1.0 296:1.0 303:1.0 356:1.0 
1.0 31:1.0 56:1.0 89:1.0 116:1.0 153:1.0 176:1.0 218:1.0 236:1.0 278:1.0 296:1.0 317:1.0 356:1.0 363:1.0 416:1.0 
1.0 10:1.0 56:1.0 70:1.0 116:1.0 150:1.0 176:1.0 210:1.0 236:1.0 257:1.0 296:1.0 303:1.0 356:1.0 
1.0 33:1.0 56:1.0 91:1.0 116:1.0 150:1.0 176:1.0 218:1.0 236:1.0 266:1.0 300:1.0 303:1.0 356:1.0 
0.39398957611002156 26:1.0 60:1.0 63:1.0 116:1.0 150:1.0 176:1.0 218:1.0 236:1.0 264:1.0 296:1.0 324:1.0 356:1.0 
1.0 29:1.0 56:1.0 93:1.0 116:1.0 158:1.0 176:1.0 218:1.0 236:1.0 263:1.0 300:1.0 331:1.0 356:1.0 390:1.0 416:1.0 
1.0 17:1.0 56:1.0 63:1.0 116:1.0 153:1.0 176:1.0 218:1.0 236:1.0 257:1.0 296:1.0 303:1.0 356:1.0 
0.35570624854577093 33:1.0 56:1.0 91:1.0 116:1.0 158:1.0 176:1.0 218:1.0 236:1.0 264:1.0 296:1.0 310:1.0 356:1.0 
1.0 11:1.0 56:1.0 63:1.0 116:1.0 158:1.0 176:1.0 210:1.0 236:1.0 262:1.0 296:1.0 303:1.0 356:1.0 
1.0 49:1.0 56:1.0 63:1.0 116:1.0 153:1.0 176:1.0 218:1.0 236:1.0 274:1.0 296:1.0 303:1.0 356:1.0 
0.9669320738977341 33:1.0 56:1.0 70:1.0 116:1.0 158:1.0 176:1.0 218:1.0 236:1.0 266:1.0 300:1.0 331:1.0 356:1.0 
0.602178209239589 51:1.0 56:1.0 63:1.0 116:1.0 158:1.0 176:1.0 218:1.0 236:1.0 255:1.0 296:1.0 303:1.0 356:1.0 
1.0 10:1.0 56:1.0 77:1.0 116:1.0 153:1.0 176:1.0 210:1.0 236:1.0 265:1.0 300:1.0 327:1.0 360:1.0 
0.32591677802539826 25:1.0 60:1.0 63:1.0 116:1.0 158:1.0 176:1.0 218:1.0 236:1.0 266:1.0 300:1.0 322:1.0 356:1.0 
1.0 13:1.0 56:1.0 69:1.0 116:1.0 153:1.0 176:1.0 218:1.0 236:1.0 263:1.0 300:1.0 302:1.0 356:1.0 
1.0 17:1.0 56:1.0 63:1.0 116:1.0 131:1.0 176:1.0 213:1.0 236:1.0 257:1.0 296:1.0 322:1.0 356:1.0 
1.0 17:1.0 56:1.0 63:1.0 116:1.0 153:1.0 176:1.0 218:1.0 236:1.0 266:1.0 300:1.0 303:1.0 354:1.0 
1.0 26:1.0 60:1.0 63:1.0 116:1.0 153:1.0 176:1.0 218:1.0 236:1.0 257:1.0 296:1.0 303:1.0 356:1.0 
3.557658384160482E-4 49:1.0 56:1.0 63:1.0 116:1.0 158:1.0 176:1.0 218:1.0 236:1.0 255:1.0 296:1.0 333:1.0 356:1.0 
1.0 30:1.0 56:1.0 77:1.0 116:1.0 153:1.0 176:1.0 218:1.0 236:1.0 267:1.0 300:1.0 311:1.0 356:1.0 
1.0 38:1.0 56:1.0 83:1.0 120:1.0 153:1.0 176:1.0 210:1.0 236:1.0 265:1.0 300:1.0 327:1.0 360:1.0 
1.0 30:1.0 56:1.0 87:1.0 120:1.0 153:1.0 176:1.0 218:1.0 236:1.0 253:1.0 296:1.0 302:1.0 356:1.0 
1.0 11:1.0 56:1.0 77:1.0 116:1.0 153:1.0 176:1.0 210:1.0 236:1.0 266:1.0 300:1.0 303:1.0 356:1.0 
1.0 17:1.0 56:1.0 110:1.0 118:1.0 158:1.0 176:1.0 213:1.0 236:1.0 270:1.0 296:1.0 317:1.0 356:1.0 363:1.0 416:1.0 
0.9858773555335426 10:1.0 56:1.0 77:1.0 116:1.0 158:1.0 176:1.0 210:1.0 236:1.0 274:1.0 296:1.0 309:1.0 356:1.0 
0.07799342080903514 10:1.0 56:1.0 79:1.0 120:1.0 158:1.0 176:1.0 218:1.0 236:1.0 259:1.0 300:1.0 325:1.0 360:1.0 
1.0 17:1.0 56:1.0 79:1.0 120:1.0 153:1.0 176:1.0 218:1.0 236:1.0 259:1.0 300:1.0 326:1.0 360:1.0 
1.0 38:1.0 56:1.0 77:1.0 116:1.0 153:1.0 176:1.0 218:1.0 236:1.0 267:1.0 300:1.0 302:1.0 356:1.0 
1.0 17:1.0 56:1.0 63:1.0 116:1.0 153:1.0 176:1.0 218:1.0 236:1.0 278:1.0 296:1.0 326:1.0 360:1.0 398:1.0 416:1.0 
0.031089574306656338 17:1.0 56:1.0 63:1.0 116:1.0 158:1.0 176:1.0 218:1.0 236:1.0 255:1.0 296:1.0 302:1.0 356:1.0 
0.08593607980479136 34:1.0 56:1.0 69:1.0 116:1.0 158:1.0 176:1.0 210:1.0 236:1.0 257:1.0 296:1.0 330:1.0 356:1.0 
1.0 31:1.0 56:1.0 110:1.0 118:1.0 158:1.0 176:1.0 218:1.0 236:1.0 271:1.0 296:1.0 327:1.0 360:1.0 
