svm_type c_svc
kernel_type linear
nr_class 2
total_sv 319
rho 0.29504877446309
label 3 2
probA -0.5156973159134025
probB -0.02320757082217835
nr_sv 154 165
SV
0.009043541820355489 24:1.0 56:1.0 94:1.0 116:1.0 129:1.0 176:1.0 184:1.0 236:1.0 243:1.0 296:1.0 330:1.0 356:1.0 
1.0 12:1.0 56:1.0 94:1.0 116:1.0 129:1.0 176:1.0 197:1.0 236:1.0 257:1.0 296:1.0 303:1.0 356:1.0 
0.19828420887626452 26:1.0 60:1.0 72:1.0 116:1.0 144:1.0 176:1.0 184:1.0 236:1.0 257:1.0 296:1.0 350:1.0 358:1.0 
1.0 38:1.0 56:1.0 75:1.0 116:1.0 130:1.0 176:1.0 197:1.0 236:1.0 267:1.0 300:1.0 303:1.0 356:1.0 
1.0 2:1.0 56:1.0 62:1.0 116:1.0 129:1.0 176:1.0 184:1.0 236:1.0 257:1.0 296:1.0 302:1.0 356:1.0 
1.0 22:1.0 56:1.0 94:1.0 116:1.0 129:1.0 176:1.0 190:1.0 236:1.0 273:1.0 296:1.0 330:1.0 356:1.0 
0.6316480537606957 38:1.0 56:1.0 87:1.0 120:1.0 135:1.0 176:1.0 192:1.0 236:1.0 242:1.0 296:1.0 326:1.0 360:1.0 385:1.0 420:1.0 
1.0 19:1.0 60:1.0 109:1.0 116:1.0 144:1.0 176:1.0 197:1.0 236:1.0 268:1.0 296:1.0 338:1.0 356:1.0 
1.0 27:1.0 60:1.0 91:1.0 116:1.0 144:1.0 176:1.0 197:1.0 236:1.0 257:1.0 296:1.0 338:1.0 356:1.0 
1.0 27:1.0 60:1.0 91:1.0 116:1.0 144:1.0 176:1.0 197:1.0 236:1.0 268:1.0 296:1.0 338:1.0 356:1.0 
1.0 13:1.0 56:1.0 62:1.0 116:1.0 129:1.0 176:1.0 197:1.0 236:1.0 257:1.0 296:1.0 303:1.0 356:1.0 
1.0 33:1.0 56:1.0 90:1.0 116:1.0 142:1.0 176:1.0 214:1.0 236:1.0 268:1.0 296:1.0 338:1.0 356:1.0 
1.0 49:1.0 56:1.0 91:1.0 116:1.0 131:1.0 176:1.0 182:1.0 236:1.0 267:1.0 300:1.0 317:1.0 356:1.0 
1.0 24:1.0 56:1.0 94:1.0 116:1.0 129:1.0 176:1.0 182:1.0 236:1.0 274:1.0 296:1.0 328:1.0 356:1.0 
1.0 38:1.0 56:1.0 109:1.0 116:1.0 142:1.0 176:1.0 182:1.0 236:1.0 274:1.0 296:1.0 328:1.0 356:1.0 
0.8290777795232935 31:1.0 56:1.0 94:1.0 116:1.0 129:1.0 176:1.0 184:1.0 236:1.0 257:1.0 296:1.0 331:1.0 356:1.0 
1.0 38:1.0 56:1.0 91:1.0 116:1.0 135:1.0 176:1.0 197:1.0 236:1.0 268:1.0 296:1.0 338:1.0 356:1.0 
1.0 13:1.0 56:1.0 62:1.0 116:1.0 129:1.0 176:1.0 197:1.0 236:1.0 252:1.0 296:1.0 326:1.0 360:1.0 
1.0 30:1.0 56:1.0 94:1.0 116:1.0 129:1.0 176:1.0 197:1.0 236:1.0 267:1.0 300:1.0 331:1.0 356:1.0 
1.0 31:1.0 56:1.0 86:1.0 120:1.0 142:1.0 176:1.0 197:1.0 236:1.0 268:1.0 296:1.0 338:1.0 359:1.0 
1.0 34:1.0 56:1.0 69:1.0 116:1.0 130:1.0 176:1.0 184:1.0 236:1.0 257:1.0 296:1.0 303:1.0 356:1.0 
1.0 9:1.0 56:1.0 94:1.0 116:1.0 129:1.0 176:1.0 197:1.0 236:1.0 266:1.0 300:1.0 317:1.0 356:1.0 
1.0 12:1.0 56:1.0 69:1.0 116:1.0 130:1.0 176:1.0 182:1.0 236:1.0 289:1.0 296:1.0 302:1.0 356:1.0 
1.0 49:1.0 56:1.0 71:1.0 116:1.0 130:1.0 176:1.0 197:1.0 236:1.0 257:1.0 296:1.0 333:1.0 356:1.0 
1.0 9:1.0 56:1.0 98:1.0 116:1.0 142:1.0 176:1.0 214:1.0 236:1.0 268:1.0 296:1.0 333:1.0 356:1.0 
1.0 12:1.0 56:1.0 73:1.0 116:1.0 129:1.0 176:1.0 197:1.0 236:1.0 252:1.0 296:1.0 326:1.0 360:1.0 
1.0 31:1.0 56:1.0 62:1.0 116:1.0 144:1.0 176:1.0 184:1.0 236:1.0 257:1.0 296:1.0 338:1.0 356:1.0 377:1.0 416:1.0 
1.0 31:1.0 56:1.0 91:1.0 119:1.0 144:1.0 176:1.0 197:1.0 236:1.0 268:1.0 296:1.0 330:1.0 356:1.0 
0.5786884387785172 38:1.0 54:1.0 98:1.0 116:1.0 135:1.0 176:1.0 182:1.0 236:1.0 274:1.0 296:1.0 309:1.0 356:1.0 
0.5702104316182891 27:1.0 60:1.0 104:1.0 116:1.0 144:1.0 176:1.0 182:1.0 236:1.0 274:1.0 296:1.0 309:1.0 356:1.0 377:1.0 416:1.0 456:1.0 476:1.0 
0.13353567914558603 27:1.0 60:1.0 62:1.0 116:1.0 142:1.0 176:1.0 184:1.0 236:1.0 243:1.0 296:1.0 338:1.0 356:1.0 
1.0 26:1.0 60:1.0 91:1.0 116:1.0 144:1.0 176:1.0 197:1.0 236:1.0 257:1.0 296:1.0 331:1.0 356:1.0 
1.0 3:1.0 56:1.0 98:1.0 116:1.0 130:1.0 176:1.0 197:1.0 236:1.0 268:1.0 296:1.0 338:1.0 356:1.0 
1.0 3:1.0 56:1.0 98:1.0 116:1.0 130:1.0 176:1.0 197:1.0 236:1.0 268:1.0 296:1.0 338:1.0 356:1.0 
1.0 13:1.0 56:1.0 69:1.0 116:1.0 130:1.0 176:1.0 197:1.0 236:1.0 257:1.0 296:1.0 328:1.0 356:1.0 
1.0 28:1.0 56:1.0 98:1.0 116:1.0 144:1.0 176:1.0 182:1.0 236:1.0 274:1.0 296:1.0 331:1.0 356:1.0 
1.0 31:1.0 56:1.0 87:1.0 120:1.0 142:1.0 176:1.0 190:1.0 236:1.0 268:1.0 296:1.0 338:1.0 356:1.0 
0.6167823497395398 17:1.0 56:1.0 91:1.0 116:1.0 144:1.0 176:1.0 214:1.0 236:1.0 252:1.0 296:1.0 327:1.0 360:1.0 384:1.0 416:1.0 423:1.0 476:1.0 518:1.0 536:1.0 
1.0 26:1.0 60:1.0 91:1.0 116:1.0 144:1.0 176:1.0 197:1.0 236:1.0 274:1.0 296:1.0 309:1.0 356:1.0 
1.0 31:1.0 56:1.0 91:1.0 116:1.0 144:1.0 176:1.0 190:1.0 236:1.0 243:1.0 296:1.0 338:1.0 356:1.0 
1.0 27:1.0 60:1.0 72:1.0 116:1.0 144:1.0 176:1.0 197:1.0 236:1.0 268:1.0 296:1.0 330:1.0 356:1.0 
1.0 30:1.0 56:1.0 77:1.0 116:1.0 142:1.0 176:1.0 197:1.0 236:1.0 252:1.0 296:1.0 326:1.0 360:1.0 
1.0 12:1.0 56:1.0 73:1.0 116:1.0 129:1.0 176:1.0 184:1.0 236:1.0 252:1.0 296:1.0 303:1.0 356:1.0 
1.0 30:1.0 56:1.0 84:1.0 116:1.0 130:1.0 176:1.0 197:1.0 236:1.0 257:1.0 296:1.0 328:1.0 356:1.0 
1.0 24:1.0 56:1.0 62:1.0 116:1.0 130:1.0 176:1.0 184:1.0 236:1.0 267:1.0 300:1.0 312:1.0 356:1.0 
1.0 49:1.0 56:1.0 91:1.0 116:1.0 144:1.0 176:1.0 190:1.0 236:1.0 243:1.0 296:1.0 338:1.0 356:1.0 
1.0 33:1.0 56:1.0 77:1.0 116:1.0 142:1.0 176:1.0 197:1.0 236:1.0 268:1.0 296:1.0 338:1.0 356:1.0 
1.0 33:1.0 56:1.0 90:1.0 116:1.0 130:1.0 176:1.0 197:1.0 236:1.0 268:1.0 296:1.0 338:1.0 356:1.0 
1.0 38:1.0 56:1.0 72:1.0 116:1.0 144:1.0 176:1.0 197:1.0 236:1.0 267:1.0 300:1.0 349:1.0 356:1.0 
0.8627130784749114 31:1.0 56:1.0 98:1.0 116:1.0 144:1.0 176:1.0 184:1.0 236:1.0 267:1.0 300:1.0 303:1.0 356:1.0 
1.0 44:1.0 56:1.0 84:1.0 116:1.0 130:1.0 176:1.0 197:1.0 236:1.0 257:1.0 296:1.0 303:1.0 356:1.0 
0.19472690831186293 26:1.0 60:1.0 105:1.0 116:1.0 135:1.0 176:1.0 195:1.0 236:1.0 243:1.0 296:1.0 317:1.0 356:1.0 
0.9085493485652836 44:1.0 56:1.0 72:1.0 116:1.0 144:1.0 176:1.0 184:1.0 236:1.0 289:1.0 296:1.0 324:1.0 356:1.0 
1.0 26:1.0 60:1.0 91:1.0 116:1.0 144:1.0 176:1.0 197:1.0 236:1.0 289:1.0 296:1.0 324:1.0 356:1.0 
1.0 33:1.0 56:1.0 109:1.0 116:1.0 130:1.0 176:1.0 182:1.0 236:1.0 274:1.0 296:1.0 309:1.0 356:1.0 
1.0 24:1.0 56:1.0 62:1.0 116:1.0 129:1.0 176:1.0 197:1.0 236:1.0 267:1.0 300:1.0 317:1.0 356:1.0 
0.7150882582501076 38:1.0 56:1.0 109:1.0 116:1.0 129:1.0 176:1.0 192:1.0 236:1.0 244:1.0 296:1.0 333:1.0 356:1.0 386:1.0 420:1.0 
1.0 26:1.0 60:1.0 77:1.0 116:1.0 142:1.0 176:1.0 197:1.0 236:1.0 252:1.0 300:1.0 331:1.0 359:1.0 
1.0 49:1.0 56:1.0 91:1.0 116:1.0 144:1.0 176:1.0 202:1.0 236:1.0 278:1.0 296:1.0 349:1.0 356:1.0 
1.0 30:1.0 56:1.0 84:1.0 116:1.0 130:1.0 176:1.0 197:1.0 236:1.0 257:1.0 296:1.0 303:1.0 356:1.0 
0.8924164400602773 30:1.0 56:1.0 105:1.0 116:1.0 144:1.0 176:1.0 184:1.0 236:1.0 243:1.0 296:1.0 330:1.0 356:1.0 
1.0 3:1.0 56:1.0 90:1.0 116:1.0 144:1.0 176:1.0 182:1.0 236:1.0 267:1.0 300:1.0 303:1.0 356:1.0 
1.0 49:1.0 56:1.0 69:1.0 116:1.0 142:1.0 176:1.0 182:1.0 236:1.0 267:1.0 300:1.0 317:1.0 356:1.0 
0.4677015190791745 27:1.0 60:1.0 79:1.0 120:1.0 129:1.0 176:1.0 184:1.0 236:1.0 266:1.0 300:1.0 320:1.0 356:1.0 389:1.0 416:1.0 
1.0 31:1.0 56:1.0 62:1.0 116:1.0 135:1.0 176:1.0 184:1.0 236:1.0 289:1.0 296:1.0 315:1.0 356:1.0 
0.2417913692501522 12:1.0 56:1.0 84:1.0 116:1.0 144:1.0 176:1.0 184:1.0 236:1.0 266:1.0 300:1.0 312:1.0 356:1.0 
0.7234288092822275 50:1.0 58:1.0 87:1.0 120:1.0 144:1.0 176:1.0 184:1.0 236:1.0 257:1.0 296:1.0 303:1.0 356:1.0 
1.0 12:1.0 56:1.0 84:1.0 116:1.0 130:1.0 176:1.0 197:1.0 236:1.0 267:1.0 300:1.0 303:1.0 356:1.0 
1.0 30:1.0 56:1.0 94:1.0 116:1.0 129:1.0 176:1.0 184:1.0 236:1.0 268:1.0 296:1.0 338:1.0 356:1.0 
1.0 26:1.0 60:1.0 82:1.0 116:1.0 130:1.0 176:1.0 184:1.0 236:1.0 257:1.0 296:1.0 303:1.0 356:1.0 
1.0 38:1.0 56:1.0 75:1.0 116:1.0 130:1.0 176:1.0 182:1.0 236:1.0 267:1.0 300:1.0 349:1.0 356:1.0 
1.0 38:1.0 56:1.0 109:1.0 116:1.0 130:1.0 176:1.0 182:1.0 236:1.0 266:1.0 300:1.0 331:1.0 356:1.0 
1.0 49:1.0 56:1.0 72:1.0 116:1.0 135:1.0 176:1.0 197:1.0 236:1.0 274:1.0 296:1.0 331:1.0 356:1.0 
1.0 24:1.0 56:1.0 62:1.0 116:1.0 130:1.0 176:1.0 197:1.0 236:1.0 266:1.0 300:1.0 331:1.0 356:1.0 
0.16081352894113438 12:1.0 56:1.0 109:1.0 116:1.0 144:1.0 176:1.0 192:1.0 236:1.0 244:1.0 296:1.0 334:1.0 356:1.0 363:1.0 416:1.0 
1.0 15:1.0 56:1.0 62:1.0 116:1.0 130:1.0 176:1.0 197:1.0 236:1.0 243:1.0 296:1.0 327:1.0 360:1.0 382:1.0 416:1.0 
1.0 31:1.0 56:1.0 75:1.0 116:1.0 130:1.0 176:1.0 197:1.0 236:1.0 257:1.0 296:1.0 330:1.0 356:1.0 
1.0 33:1.0 56:1.0 98:1.0 116:1.0 130:1.0 176:1.0 197:1.0 236:1.0 257:1.0 296:1.0 330:1.0 356:1.0 
0.9651914353265915 50:1.0 56:1.0 90:1.0 116:1.0 142:1.0 176:1.0 197:1.0 236:1.0 266:1.0 300:1.0 303:1.0 356:1.0 
1.0 31:1.0 56:1.0 72:1.0 116:1.0 135:1.0 176:1.0 182:1.0 236:1.0 274:1.0 296:1.0 309:1.0 356:1.0 
1.0 24:1.0 56:1.0 94:1.0 116:1.0 129:1.0 176:1.0 197:1.0 236:1.0 257:1.0 296:1.0 328:1.0 356:1.0 
1.0 31:1.0 59:1.0 85:1.0 120:1.0 142:1.0 176:1.0 182:1.0 236:1.0 266:1.0 300:1.0 331:1.0 356:1.0 
1.0 2:1.0 56:1.0 75:1.0 116:1.0 142:1.0 176:1.0 182:1.0 236:1.0 266:1.0 300:1.0 331:1.0 356:1.0 
1.0 12:1.0 56:1.0 73:1.0 116:1.0 129:1.0 176:1.0 197:1.0 236:1.0 252:1.0 296:1.0 326:1.0 360:1.0 
1.0 17:1.0 56:1.0 109:1.0 116:1.0 135:1.0 176:1.0 197:1.0 236:1.0 252:1.0 296:1.0 326:1.0 360:1.0 
1.0 15:1.0 56:1.0 62:1.0 116:1.0 142:1.0 176:1.0 197:1.0 236:1.0 268:1.0 296:1.0 338:1.0 356:1.0 
0.10246895775303304 12:1.0 56:1.0 63:1.0 119:1.0 131:1.0 176:1.0 192:1.0 236:1.0 242:1.0 296:1.0 302:1.0 356:1.0 393:1.0 416:1.0 
1.0 2:1.0 56:1.0 75:1.0 116:1.0 142:1.0 176:1.0 197:1.0 236:1.0 268:1.0 296:1.0 338:1.0 356:1.0 
0.46229305687482114 45:1.0 56:1.0 72:1.0 116:1.0 135:1.0 176:1.0 197:1.0 236:1.0 274:1.0 296:1.0 309:1.0 356:1.0 
0.4671956713892651 31:1.0 56:1.0 87:1.0 120:1.0 135:1.0 176:1.0 190:1.0 236:1.0 278:1.0 296:1.0 317:1.0 356:1.0 
1.0 3:1.0 56:1.0 98:1.0 116:1.0 135:1.0 176:1.0 197:1.0 236:1.0 268:1.0 296:1.0 338:1.0 356:1.0 
1.0 3:1.0 56:1.0 98:1.0 116:1.0 135:1.0 176:1.0 197:1.0 236:1.0 268:1.0 296:1.0 338:1.0 356:1.0 
1.0 24:1.0 56:1.0 94:1.0 116:1.0 129:1.0 176:1.0 192:1.0 236:1.0 242:1.0 296:1.0 334:1.0 356:1.0 393:1.0 416:1.0 
1.0 15:1.0 56:1.0 70:1.0 116:1.0 130:1.0 176:1.0 197:1.0 236:1.0 257:1.0 296:1.0 334:1.0 356:1.0 
1.0 12:1.0 56:1.0 84:1.0 116:1.0 130:1.0 176:1.0 197:1.0 236:1.0 266:1.0 300:1.0 302:1.0 356:1.0 
1.0 33:1.0 56:1.0 98:1.0 116:1.0 144:1.0 176:1.0 182:1.0 236:1.0 267:1.0 300:1.0 331:1.0 356:1.0 
1.0 38:1.0 56:1.0 84:1.0 116:1.0 130:1.0 176:1.0 197:1.0 236:1.0 274:1.0 296:1.0 309:1.0 356:1.0 
0.24698154959867474 38:1.0 56:1.0 104:1.0 116:1.0 135:1.0 176:1.0 197:1.0 236:1.0 257:1.0 296:1.0 331:1.0 356:1.0 
1.0 38:1.0 56:1.0 84:1.0 116:1.0 130:1.0 176:1.0 184:1.0 236:1.0 257:1.0 296:1.0 322:1.0 356:1.0 
1.0 15:1.0 56:1.0 84:1.0 116:1.0 130:1.0 176:1.0 197:1.0 236:1.0 268:1.0 296:1.0 338:1.0 356:1.0 
1.0 27:1.0 60:1.0 104:1.0 116:1.0 144:1.0 176:1.0 182:1.0 236:1.0 274:1.0 296:1.0 309:1.0 356:1.0 
1.0 38:1.0 56:1.0 87:1.0 120:1.0 142:1.0 176:1.0 197:1.0 236:1.0 268:1.0 296:1.0 338:1.0 356:1.0 
1.0 13:1.0 56:1.0 62:1.0 116:1.0 129:1.0 176:1.0 182:1.0 236:1.0 267:1.0 300:1.0 317:1.0 356:1.0 
0.9828666225739435 51:1.0 56:1.0 72:1.0 116:1.0 144:1.0 176:1.0 184:1.0 236:1.0 243:1.0 296:1.0 338:1.0 356:1.0 
1.0 26:1.0 60:1.0 72:1.0 116:1.0 144:1.0 176:1.0 182:1.0 236:1.0 274:1.0 296:1.0 303:1.0 356:1.0 
1.0 38:1.0 56:1.0 62:1.0 116:1.0 144:1.0 176:1.0 214:1.0 236:1.0 268:1.0 296:1.0 322:1.0 356:1.0 
1.0 30:1.0 56:1.0 84:1.0 116:1.0 130:1.0 176:1.0 197:1.0 236:1.0 257:1.0 296:1.0 338:1.0 356:1.0 
1.0 27:1.0 60:1.0 62:1.0 116:1.0 144:1.0 176:1.0 197:1.0 236:1.0 274:1.0 296:1.0 333:1.0 356:1.0 
0.4626034852653224 12:1.0 56:1.0 84:1.0 116:1.0 130:1.0 176:1.0 197:1.0 236:1.0 274:1.0 296:1.0 309:1.0 356:1.0 
0.30642990130800385 12:1.0 56:1.0 62:1.0 116:1.0 144:1.0 176:1.0 184:1.0 236:1.0 257:1.0 296:1.0 345:1.0 356:1.0 
1.0 13:1.0 56:1.0 69:1.0 116:1.0 130:1.0 176:1.0 182:1.0 236:1.0 274:1.0 296:1.0 338:1.0 356:1.0 
1.0 25:1.0 60:1.0 75:1.0 116:1.0 130:1.0 176:1.0 182:1.0 236:1.0 267:1.0 300:1.0 349:1.0 356:1.0 
1.0 38:1.0 56:1.0 109:1.0 116:1.0 135:1.0 176:1.0 184:1.0 236:1.0 266:1.0 300:1.0 312:1.0 356:1.0 
1.0 38:1.0 56:1.0 94:1.0 116:1.0 129:1.0 176:1.0 192:1.0 236:1.0 242:1.0 296:1.0 317:1.0 356:1.0 393:1.0 416:1.0 
1.0 31:1.0 56:1.0 73:1.0 116:1.0 129:1.0 176:1.0 184:1.0 236:1.0 274:1.0 296:1.0 350:1.0 358:1.0 
0.8227026102920674 17:1.0 56:1.0 98:1.0 116:1.0 135:1.0 176:1.0 184:1.0 236:1.0 243:1.0 296:1.0 338:1.0 356:1.0 
1.0 38:1.0 56:1.0 84:1.0 116:1.0 130:1.0 176:1.0 184:1.0 236:1.0 257:1.0 296:1.0 303:1.0 356:1.0 
1.0 28:1.0 56:1.0 98:1.0 116:1.0 135:1.0 176:1.0 197:1.0 236:1.0 257:1.0 296:1.0 303:1.0 356:1.0 
1.0 17:1.0 56:1.0 98:1.0 116:1.0 142:1.0 176:1.0 197:1.0 236:1.0 257:1.0 296:1.0 303:1.0 356:1.0 
1.0 3:1.0 56:1.0 98:1.0 116:1.0 135:1.0 176:1.0 182:1.0 236:1.0 289:1.0 296:1.0 303:1.0 356:1.0 
1.0 30:1.0 56:1.0 109:1.0 116:1.0 135:1.0 176:1.0 197:1.0 236:1.0 274:1.0 296:1.0 309:1.0 356:1.0 
1.0 17:1.0 56:1.0 72:1.0 116:1.0 144:1.0 176:1.0 197:1.0 236:1.0 257:1.0 296:1.0 312:1.0 356:1.0 
1.0 38:1.0 56:1.0 84:1.0 116:1.0 130:1.0 176:1.0 197:1.0 236:1.0 257:1.0 296:1.0 319:1.0 360:1.0 
1.0 12:1.0 56:1.0 84:1.0 116:1.0 142:1.0 176:1.0 197:1.0 236:1.0 252:1.0 296:1.0 313:1.0 356:1.0 
1.0 38:1.0 56:1.0 87:1.0 120:1.0 142:1.0 176:1.0 197:1.0 236:1.0 252:1.0 296:1.0 315:1.0 356:1.0 
1.0 3:1.0 56:1.0 98:1.0 116:1.0 135:1.0 176:1.0 197:1.0 236:1.0 274:1.0 296:1.0 309:1.0 356:1.0 
1.0 39:1.0 56:1.0 84:1.0 116:1.0 130:1.0 176:1.0 182:1.0 236:1.0 266:1.0 300:1.0 317:1.0 356:1.0 
1.0 38:1.0 56:1.0 94:1.0 116:1.0 129:1.0 176:1.0 192:1.0 236:1.0 242:1.0 296:1.0 317:1.0 356:1.0 363:1.0 416:1.0 
1.0 38:1.0 56:1.0 109:1.0 116:1.0 144:1.0 176:1.0 197:1.0 236:1.0 257:1.0 296:1.0 333:1.0 356:1.0 
1.0 27:1.0 60:1.0 72:1.0 116:1.0 144:1.0 176:1.0 184:1.0 236:1.0 243:1.0 296:1.0 333:1.0 356:1.0 
1.0 27:1.0 60:1.0 72:1.0 116:1.0 144:1.0 176:1.0 184:1.0 236:1.0 257:1.0 296:1.0 338:1.0 356:1.0 
1.0 10:1.0 56:1.0 94:1.0 116:1.0 129:1.0 176:1.0 197:1.0 236:1.0 257:1.0 296:1.0 303:1.0 356:1.0 
1.0 4:1.0 56:1.0 109:1.0 116:1.0 135:1.0 176:1.0 184:1.0 236:1.0 268:1.0 296:1.0 338:1.0 356:1.0 
0.3113746235364793 3:1.0 56:1.0 98:1.0 116:1.0 144:1.0 176:1.0 197:1.0 236:1.0 274:1.0 296:1.0 333:1.0 356:1.0 390:1.0 416:1.0 
1.0 3:1.0 56:1.0 98:1.0 116:1.0 135:1.0 176:1.0 197:1.0 236:1.0 274:1.0 296:1.0 331:1.0 356:1.0 
1.0 12:1.0 56:1.0 73:1.0 116:1.0 129:1.0 176:1.0 182:1.0 236:1.0 274:1.0 296:1.0 303:1.0 356:1.0 
1.0 38:1.0 56:1.0 94:1.0 116:1.0 129:1.0 176:1.0 214:1.0 236:1.0 267:1.0 300:1.0 322:1.0 356:1.0 
1.0 28:1.0 56:1.0 98:1.0 116:1.0 135:1.0 176:1.0 182:1.0 236:1.0 289:1.0 296:1.0 331:1.0 356:1.0 
1.0 51:1.0 56:1.0 72:1.0 116:1.0 144:1.0 176:1.0 182:1.0 236:1.0 266:1.0 300:1.0 303:1.0 356:1.0 
0.31444860128757074 25:1.0 60:1.0 109:1.0 116:1.0 130:1.0 176:1.0 184:1.0 236:1.0 267:1.0 300:1.0 302:1.0 356:1.0 
0.4870972991699752 49:1.0 56:1.0 91:1.0 116:1.0 135:1.0 176:1.0 182:1.0 236:1.0 274:1.0 296:1.0 331:1.0 356:1.0 
0.4055952678086903 30:1.0 56:1.0 105:1.0 116:1.0 131:1.0 176:1.0 184:1.0 236:1.0 267:1.0 300:1.0 334:1.0 356:1.0 
1.0 15:1.0 56:1.0 63:1.0 116:1.0 144:1.0 176:1.0 182:1.0 236:1.0 274:1.0 296:1.0 309:1.0 356:1.0 
1.0 15:1.0 56:1.0 94:1.0 116:1.0 129:1.0 176:1.0 214:1.0 236:1.0 268:1.0 296:1.0 333:1.0 356:1.0 
0.39533646811972767 38:1.0 56:1.0 87:1.0 120:1.0 142:1.0 176:1.0 184:1.0 236:1.0 257:1.0 296:1.0 303:1.0 356:1.0 
1.0 3:1.0 56:1.0 90:1.0 116:1.0 131:1.0 176:1.0 197:1.0 236:1.0 267:1.0 300:1.0 331:1.0 356:1.0 
1.0 26:1.0 60:1.0 91:1.0 116:1.0 135:1.0 176:1.0 197:1.0 236:1.0 257:1.0 296:1.0 303:1.0 356:1.0 
1.0 38:1.0 56:1.0 84:1.0 116:1.0 130:1.0 176:1.0 182:1.0 236:1.0 289:1.0 296:1.0 317:1.0 356:1.0 
1.0 24:1.0 56:1.0 62:1.0 116:1.0 129:1.0 176:1.0 197:1.0 236:1.0 243:1.0 296:1.0 327:1.0 360:1.0 372:1.0 416:1.0 
1.0 3:1.0 56:1.0 90:1.0 116:1.0 131:1.0 176:1.0 197:1.0 236:1.0 267:1.0 300:1.0 331:1.0 356:1.0 
0.9914779331871797 11:1.0 56:1.0 98:1.0 116:1.0 142:1.0 176:1.0 184:1.0 236:1.0 257:1.0 296:1.0 330:1.0 356:1.0 
1.0 3:1.0 56:1.0 98:1.0 116:1.0 135:1.0 176:1.0 182:1.0 236:1.0 267:1.0 300:1.0 322:1.0 356:1.0 
0.9882604765436108 49:1.0 56:1.0 77:1.0 116:1.0 130:1.0 176:1.0 197:1.0 236:1.0 274:1.0 296:1.0 328:1.0 356:1.0 
1.0 30:1.0 56:1.0 105:1.0 116:1.0 144:1.0 176:1.0 197:1.0 236:1.0 274:1.0 296:1.0 336:1.0 356:1.0 
-1.0 3:1.0 56:1.0 98:1.0 116:1.0 130:1.0 176:1.0 197:1.0 236:1.0 268:1.0 296:1.0 338:1.0 356:1.0 
-0.9847020656482953 38:1.0 56:1.0 98:1.0 116:1.0 130:1.0 176:1.0 197:1.0 236:1.0 289:1.0 296:1.0 313:1.0 356:1.0 
-1.0 27:1.0 60:1.0 77:1.0 116:1.0 142:1.0 176:1.0 182:1.0 236:1.0 267:1.0 300:1.0 312:1.0 356:1.0 
-1.0 12:1.0 56:1.0 75:1.0 116:1.0 142:1.0 176:1.0 182:1.0 236:1.0 267:1.0 300:1.0 312:1.0 356:1.0 
-1.0 27:1.0 60:1.0 98:1.0 116:1.0 135:1.0 176:1.0 182:1.0 236:1.0 267:1.0 300:1.0 322:1.0 356:1.0 
-1.0 38:1.0 56:1.0 94:1.0 116:1.0 129:1.0 176:1.0 184:1.0 236:1.0 243:1.0 296:1.0 333:1.0 356:1.0 
-1.0 27:1.0 60:1.0 109:1.0 116:1.0 142:1.0 176:1.0 182:1.0 236:1.0 266:1.0 300:1.0 317:1.0 356:1.0 
-1.0 10:1.0 56:1.0 94:1.0 116:1.0 129:1.0 176:1.0 184:1.0 236:1.0 268:1.0 296:1.0 338:1.0 356:1.0 
-0.8115770157296476 9:1.0 56:1.0 72:1.0 116:1.0 135:1.0 176:1.0 182:1.0 236:1.0 266:1.0 300:1.0 303:1.0 356:1.0 
-0.1353275920794959 2:1.0 56:1.0 62:1.0 116:1.0 129:1.0 176:1.0 182:1.0 236:1.0 266:1.0 300:1.0 320:1.0 356:1.0 
-1.0 33:1.0 56:1.0 98:1.0 116:1.0 135:1.0 176:1.0 182:1.0 236:1.0 267:1.0 300:1.0 349:1.0 356:1.0 
-1.0 30:1.0 56:1.0 73:1.0 116:1.0 129:1.0 176:1.0 197:1.0 236:1.0 252:1.0 296:1.0 326:1.0 360:1.0 
-1.0 13:1.0 56:1.0 69:1.0 116:1.0 130:1.0 176:1.0 214:1.0 236:1.0 268:1.0 296:1.0 330:1.0 356:1.0 
-0.4326561449220273 26:1.0 60:1.0 95:1.0 116:1.0 130:1.0 176:1.0 197:1.0 236:1.0 268:1.0 296:1.0 330:1.0 356:1.0 384:1.0 416:1.0 
-1.0 49:1.0 56:1.0 98:1.0 116:1.0 130:1.0 176:1.0 197:1.0 236:1.0 268:1.0 296:1.0 338:1.0 356:1.0 
-1.0 3:1.0 56:1.0 91:1.0 116:1.0 144:1.0 176:1.0 182:1.0 236:1.0 274:1.0 296:1.0 333:1.0 356:1.0 
-1.0 26:1.0 60:1.0 91:1.0 116:1.0 144:1.0 176:1.0 197:1.0 236:1.0 257:1.0 296:1.0 350:1.0 358:1.0 
-1.0 30:1.0 56:1.0 87:1.0 120:1.0 130:1.0 176:1.0 197:1.0 236:1.0 268:1.0 296:1.0 338:1.0 356:1.0 
-1.0 31:1.0 56:1.0 84:1.0 116:1.0 142:1.0 176:1.0 197:1.0 236:1.0 257:1.0 296:1.0 334:1.0 356:1.0 
-0.1798572950104952 38:1.0 56:1.0 87:1.0 120:1.0 142:1.0 176:1.0 197:1.0 236:1.0 268:1.0 296:1.0 338:1.0 356:1.0 
-0.965063293396029 28:1.0 56:1.0 98:1.0 116:1.0 135:1.0 176:1.0 202:1.0 236:1.0 252:1.0 296:1.0 334:1.0 356:1.0 
-1.0 24:1.0 56:1.0 62:1.0 116:1.0 130:1.0 176:1.0 197:1.0 236:1.0 257:1.0 296:1.0 331:1.0 356:1.0 
-1.0 38:1.0 56:1.0 84:1.0 116:1.0 130:1.0 176:1.0 197:1.0 236:1.0 257:1.0 296:1.0 331:1.0 356:1.0 
-1.0 49:1.0 56:1.0 91:1.0 116:1.0 131:1.0 176:1.0 197:1.0 236:1.0 267:1.0 300:1.0 317:1.0 356:1.0 
-0.5860422928123565 27:1.0 60:1.0 105:1.0 116:1.0 135:1.0 176:1.0 197:1.0 236:1.0 268:1.0 296:1.0 338:1.0 356:1.0 
-0.4763217808154902 9:1.0 56:1.0 72:1.0 116:1.0 131:1.0 176:1.0 197:1.0 236:1.0 252:1.0 296:1.0 326:1.0 360:1.0 
-1.0 27:1.0 60:1.0 105:1.0 116:1.0 135:1.0 176:1.0 197:1.0 236:1.0 252:1.0 296:1.0 327:1.0 360:1.0 
-1.0 38:1.0 56:1.0 105:1.0 116:1.0 135:1.0 176:1.0 197:1.0 236:1.0 289:1.0 296:1.0 315:1.0 356:1.0 
-1.0 31:1.0 56:1.0 91:1.0 116:1.0 135:1.0 176:1.0 182:1.0 236:1.0 274:1.0 296:1.0 309:1.0 356:1.0 
-0.5600965271524273 17:1.0 56:1.0 72:1.0 116:1.0 131:1.0 176:1.0 190:1.0 236:1.0 278:1.0 296:1.0 327:1.0 360:1.0 
-1.0 12:1.0 56:1.0 73:1.0 116:1.0 129:1.0 176:1.0 182:1.0 236:1.0 274:1.0 296:1.0 303:1.0 356:1.0 
-1.0 3:1.0 56:1.0 98:1.0 116:1.0 144:1.0 176:1.0 182:1.0 236:1.0 274:1.0 296:1.0 309:1.0 356:1.0 
-1.0 31:1.0 56:1.0 62:1.0 116:1.0 144:1.0 176:1.0 184:1.0 236:1.0 243:1.0 296:1.0 338:1.0 356:1.0 
-1.0 51:1.0 56:1.0 72:1.0 116:1.0 135:1.0 176:1.0 182:1.0 236:1.0 267:1.0 300:1.0 331:1.0 356:1.0 
-0.45954136042358473 19:1.0 60:1.0 90:1.0 116:1.0 131:1.0 176:1.0 182:1.0 236:1.0 267:1.0 300:1.0 349:1.0 356:1.0 362:1.0 416:1.0 
-1.0 31:1.0 56:1.0 84:1.0 116:1.0 130:1.0 176:1.0 197:1.0 236:1.0 257:1.0 296:1.0 333:1.0 356:1.0 
-1.0 33:1.0 56:1.0 94:1.0 116:1.0 129:1.0 176:1.0 184:1.0 236:1.0 257:1.0 296:1.0 303:1.0 356:1.0 
-0.9382238667062347 24:1.0 56:1.0 62:1.0 116:1.0 129:1.0 176:1.0 197:1.0 236:1.0 257:1.0 296:1.0 303:1.0 356:1.0 
-0.2760922106058963 15:1.0 56:1.0 62:1.0 116:1.0 130:1.0 176:1.0 197:1.0 236:1.0 268:1.0 296:1.0 338:1.0 356:1.0 
-1.0 27:1.0 60:1.0 91:1.0 116:1.0 135:1.0 176:1.0 197:1.0 236:1.0 268:1.0 296:1.0 330:1.0 356:1.0 
-1.0 26:1.0 60:1.0 91:1.0 116:1.0 144:1.0 176:1.0 192:1.0 236:1.0 242:1.0 296:1.0 305:1.0 356:1.0 393:1.0 416:1.0 
-0.6132844506730342 31:1.0 56:1.0 94:1.0 116:1.0 129:1.0 176:1.0 189:1.0 236:1.0 243:1.0 296:1.0 333:1.0 356:1.0 
-1.0 21:1.0 56:1.0 98:1.0 116:1.0 144:1.0 176:1.0 184:1.0 236:1.0 274:1.0 296:1.0 309:1.0 356:1.0 
-1.0 38:1.0 56:1.0 77:1.0 116:1.0 142:1.0 176:1.0 197:1.0 236:1.0 257:1.0 296:1.0 303:1.0 356:1.0 
-1.0 50:1.0 58:1.0 84:1.0 116:1.0 130:1.0 176:1.0 197:1.0 236:1.0 257:1.0 296:1.0 303:1.0 356:1.0 
-0.0848903430653369 26:1.0 60:1.0 91:1.0 116:1.0 144:1.0 176:1.0 202:1.0 236:1.0 290:1.0 296:1.0 350:1.0 356:1.0 
-1.0 3:1.0 56:1.0 98:1.0 116:1.0 135:1.0 176:1.0 197:1.0 236:1.0 267:1.0 300:1.0 302:1.0 356:1.0 
-0.4665081938050142 33:1.0 56:1.0 98:1.0 116:1.0 142:1.0 176:1.0 197:1.0 236:1.0 268:1.0 296:1.0 338:1.0 356:1.0 
-0.9392925392807291 38:1.0 56:1.0 109:1.0 116:1.0 135:1.0 176:1.0 197:1.0 236:1.0 268:1.0 296:1.0 330:1.0 356:1.0 
-1.0 30:1.0 56:1.0 109:1.0 116:1.0 142:1.0 176:1.0 184:1.0 236:1.0 243:1.0 296:1.0 333:1.0 356:1.0 
-0.8334906134664669 3:1.0 56:1.0 98:1.0 116:1.0 135:1.0 176:1.0 197:1.0 236:1.0 289:1.0 296:1.0 312:1.0 356:1.0 
-1.0 31:1.0 56:1.0 94:1.0 116:1.0 129:1.0 176:1.0 182:1.0 236:1.0 274:1.0 296:1.0 331:1.0 356:1.0 
-1.0 15:1.0 56:1.0 82:1.0 116:1.0 130:1.0 176:1.0 197:1.0 236:1.0 267:1.0 300:1.0 331:1.0 356:1.0 
-1.0 31:1.0 56:1.0 91:1.0 116:1.0 135:1.0 176:1.0 197:1.0 236:1.0 274:1.0 296:1.0 331:1.0 356:1.0 
-0.34690948437274094 33:1.0 56:1.0 87:1.0 120:1.0 142:1.0 176:1.0 197:1.0 236:1.0 257:1.0 296:1.0 350:1.0 356:1.0 
-1.0 26:1.0 60:1.0 72:1.0 116:1.0 144:1.0 176:1.0 184:1.0 236:1.0 257:1.0 296:1.0 303:1.0 356:1.0 
-1.0 30:1.0 56:1.0 84:1.0 116:1.0 130:1.0 176:1.0 184:1.0 236:1.0 266:1.0 300:1.0 331:1.0 356:1.0 
-0.8207871171577289 29:1.0 60:1.0 72:1.0 116:1.0 144:1.0 176:1.0 184:1.0 236:1.0 257:1.0 296:1.0 303:1.0 356:1.0 
-1.0 9:1.0 56:1.0 109:1.0 116:1.0 129:1.0 176:1.0 184:1.0 236:1.0 257:1.0 296:1.0 303:1.0 356:1.0 
-1.0 13:1.0 56:1.0 69:1.0 116:1.0 130:1.0 176:1.0 182:1.0 236:1.0 266:1.0 300:1.0 319:1.0 360:1.0 
-0.1654144847921413 31:1.0 56:1.0 91:1.0 116:1.0 144:1.0 176:1.0 202:1.0 236:1.0 271:1.0 296:1.0 331:1.0 356:1.0 
-1.0 31:1.0 56:1.0 62:1.0 116:1.0 144:1.0 176:1.0 184:1.0 236:1.0 257:1.0 296:1.0 303:1.0 356:1.0 
-1.0 31:1.0 56:1.0 90:1.0 116:1.0 144:1.0 176:1.0 197:1.0 236:1.0 257:1.0 296:1.0 338:1.0 356:1.0 
-1.0 24:1.0 56:1.0 94:1.0 116:1.0 129:1.0 176:1.0 192:1.0 236:1.0 242:1.0 296:1.0 317:1.0 356:1.0 363:1.0 416:1.0 
-1.0 26:1.0 60:1.0 63:1.0 116:1.0 144:1.0 176:1.0 214:1.0 236:1.0 267:1.0 300:1.0 317:1.0 356:1.0 
-1.0 34:1.0 56:1.0 69:1.0 116:1.0 130:1.0 176:1.0 184:1.0 236:1.0 267:1.0 300:1.0 349:1.0 356:1.0 
-1.0 26:1.0 60:1.0 72:1.0 116:1.0 135:1.0 176:1.0 190:1.0 236:1.0 243:1.0 296:1.0 338:1.0 356:1.0 377:1.0 416:1.0 
-1.0 12:1.0 56:1.0 94:1.0 116:1.0 129:1.0 176:1.0 197:1.0 236:1.0 289:1.0 296:1.0 309:1.0 356:1.0 
-1.0 38:1.0 56:1.0 91:1.0 116:1.0 130:1.0 176:1.0 197:1.0 236:1.0 268:1.0 296:1.0 338:1.0 356:1.0 
-1.0 49:1.0 56:1.0 91:1.0 116:1.0 144:1.0 176:1.0 197:1.0 236:1.0 268:1.0 296:1.0 338:1.0 356:1.0 
-1.0 49:1.0 56:1.0 84:1.0 116:1.0 130:1.0 176:1.0 182:1.0 236:1.0 274:1.0 296:1.0 331:1.0 356:1.0 
-0.05177576304807459 20:1.0 56:1.0 72:1.0 116:1.0 144:1.0 176:1.0 182:1.0 236:1.0 274:1.0 296:1.0 331:1.0 356:1.0 
-0.37625517428959315 20:1.0 56:1.0 72:1.0 116:1.0 144:1.0 176:1.0 182:1.0 236:1.0 274:1.0 296:1.0 331:1.0 356:1.0 
-1.0 17:1.0 56:1.0 72:1.0 116:1.0 144:1.0 176:1.0 184:1.0 236:1.0 274:1.0 296:1.0 331:1.0 356:1.0 
-1.0 38:1.0 56:1.0 72:1.0 116:1.0 144:1.0 176:1.0 197:1.0 236:1.0 257:1.0 296:1.0 328:1.0 356:1.0 
-1.0 11:1.0 56:1.0 62:1.0 116:1.0 130:1.0 176:1.0 197:1.0 236:1.0 257:1.0 296:1.0 338:1.0 356:1.0 
-0.9369376525713209 38:1.0 56:1.0 75:1.0 116:1.0 130:1.0 176:1.0 197:1.0 236:1.0 289:1.0 296:1.0 310:1.0 356:1.0 
-1.0 24:1.0 56:1.0 62:1.0 116:1.0 130:1.0 176:1.0 197:1.0 236:1.0 268:1.0 296:1.0 338:1.0 356:1.0 
-1.0 34:1.0 56:1.0 69:1.0 116:1.0 130:1.0 176:1.0 184:1.0 236:1.0 257:1.0 296:1.0 328:1.0 356:1.0 
-1.0 15:1.0 56:1.0 94:1.0 116:1.0 129:1.0 176:1.0 184:1.0 236:1.0 257:1.0 296:1.0 333:1.0 356:1.0 
-0.27119751724554914 17:1.0 56:1.0 91:1.0 116:1.0 142:1.0 176:1.0 197:1.0 236:1.0 268:1.0 296:1.0 338:1.0 356:1.0 
-0.6301398213624689 17:1.0 56:1.0 91:1.0 116:1.0 142:1.0 176:1.0 197:1.0 236:1.0 268:1.0 296:1.0 338:1.0 356:1.0 
-1.0 24:1.0 56:1.0 63:1.0 116:1.0 142:1.0 176:1.0 184:1.0 236:1.0 257:1.0 296:1.0 303:1.0 356:1.0 
-1.0 38:1.0 56:1.0 91:1.0 116:1.0 144:1.0 176:1.0 184:1.0 236:1.0 257:1.0 296:1.0 303:1.0 356:1.0 
-1.0 25:1.0 60:1.0 87:1.0 120:1.0 142:1.0 176:1.0 184:1.0 236:1.0 243:1.0 296:1.0 330:1.0 356:1.0 
-0.5492595409168457 17:1.0 56:1.0 72:1.0 116:1.0 144:1.0 176:1.0 197:1.0 236:1.0 274:1.0 296:1.0 309:1.0 356:1.0 
-1.0 38:1.0 56:1.0 90:1.0 116:1.0 144:1.0 176:1.0 197:1.0 236:1.0 257:1.0 296:1.0 328:1.0 356:1.0 
-0.13111334095733593 31:1.0 56:1.0 86:1.0 120:1.0 131:1.0 176:1.0 192:1.0 236:1.0 242:1.0 296:1.0 332:1.0 360:1.0 393:1.0 416:1.0 
-0.32518417682944933 27:1.0 60:1.0 82:1.0 116:1.0 142:1.0 176:1.0 190:1.0 236:1.0 257:1.0 296:1.0 303:1.0 356:1.0 
-0.8767363172810598 31:1.0 56:1.0 73:1.0 116:1.0 129:1.0 176:1.0 197:1.0 236:1.0 274:1.0 296:1.0 309:1.0 356:1.0 
-1.0 31:1.0 56:1.0 84:1.0 116:1.0 130:1.0 176:1.0 197:1.0 236:1.0 257:1.0 296:1.0 322:1.0 356:1.0 
-1.0 24:1.0 56:1.0 94:1.0 116:1.0 129:1.0 176:1.0 182:1.0 236:1.0 274:1.0 296:1.0 331:1.0 356:1.0 
-1.0 28:1.0 56:1.0 98:1.0 116:1.0 144:1.0 176:1.0 197:1.0 236:1.0 257:1.0 296:1.0 303:1.0 356:1.0 
-1.0 28:1.0 56:1.0 98:1.0 116:1.0 144:1.0 176:1.0 197:1.0 236:1.0 257:1.0 296:1.0 338:1.0 356:1.0 
-0.8187864057147682 38:1.0 56:1.0 73:1.0 116:1.0 129:1.0 176:1.0 190:1.0 236:1.0 266:1.0 300:1.0 322:1.0 359:1.0 
-1.0 15:1.0 56:1.0 94:1.0 116:1.0 129:1.0 176:1.0 184:1.0 236:1.0 266:1.0 300:1.0 319:1.0 360:1.0 
-0.3207276700178948 10:1.0 56:1.0 84:1.0 116:1.0 130:1.0 176:1.0 182:1.0 236:1.0 274:1.0 296:1.0 303:1.0 356:1.0 
-1.0 3:1.0 56:1.0 98:1.0 116:1.0 144:1.0 176:1.0 197:1.0 236:1.0 274:1.0 296:1.0 309:1.0 356:1.0 
-1.0 38:1.0 56:1.0 94:1.0 116:1.0 129:1.0 176:1.0 197:1.0 236:1.0 274:1.0 296:1.0 303:1.0 356:1.0 
-0.11435887669461454 2:1.0 56:1.0 77:1.0 116:1.0 129:1.0 176:1.0 192:1.0 236:1.0 242:1.0 296:1.0 315:1.0 356:1.0 363:1.0 416:1.0 
-0.7334062868159179 12:1.0 60:1.0 71:1.0 116:1.0 130:1.0 176:1.0 214:1.0 236:1.0 267:1.0 300:1.0 311:1.0 356:1.0 
-0.7154711563544475 49:1.0 59:1.0 72:1.0 120:1.0 131:1.0 176:1.0 190:1.0 236:1.0 273:1.0 296:1.0 338:1.0 356:1.0 
-1.0 30:1.0 56:1.0 87:1.0 120:1.0 129:1.0 176:1.0 184:1.0 236:1.0 257:1.0 296:1.0 331:1.0 359:1.0 
-1.0 2:1.0 56:1.0 90:1.0 116:1.0 144:1.0 176:1.0 184:1.0 236:1.0 257:1.0 296:1.0 303:1.0 356:1.0 
-1.0 13:1.0 56:1.0 69:1.0 116:1.0 130:1.0 176:1.0 182:1.0 236:1.0 266:1.0 300:1.0 331:1.0 356:1.0 
-0.2064041520475418 13:1.0 56:1.0 98:1.0 116:1.0 129:1.0 176:1.0 214:1.0 236:1.0 268:1.0 296:1.0 338:1.0 356:1.0 
-0.08859273732879958 30:1.0 56:1.0 62:1.0 116:1.0 144:1.0 176:1.0 197:1.0 236:1.0 268:1.0 296:1.0 330:1.0 356:1.0 387:1.0 420:1.0 469:1.0 476:1.0 
-1.0 33:1.0 56:1.0 90:1.0 116:1.0 142:1.0 176:1.0 197:1.0 236:1.0 257:1.0 296:1.0 303:1.0 356:1.0 
-0.47173154750957486 11:1.0 56:1.0 62:1.0 116:1.0 130:1.0 176:1.0 182:1.0 236:1.0 267:1.0 300:1.0 302:1.0 356:1.0 
-1.0 27:1.0 60:1.0 104:1.0 116:1.0 144:1.0 176:1.0 197:1.0 236:1.0 274:1.0 296:1.0 309:1.0 356:1.0 
-0.6761945393121532 49:1.0 56:1.0 77:1.0 116:1.0 142:1.0 176:1.0 192:1.0 236:1.0 242:1.0 296:1.0 334:1.0 356:1.0 388:1.0 416:1.0 
-1.0 22:1.0 56:1.0 70:1.0 116:1.0 130:1.0 176:1.0 197:1.0 236:1.0 268:1.0 296:1.0 338:1.0 356:1.0 
-1.0 24:1.0 56:1.0 62:1.0 116:1.0 130:1.0 176:1.0 197:1.0 236:1.0 274:1.0 296:1.0 309:1.0 356:1.0 
-1.0 12:1.0 56:1.0 62:1.0 116:1.0 144:1.0 176:1.0 197:1.0 236:1.0 274:1.0 296:1.0 331:1.0 356:1.0 
-1.0 38:1.0 56:1.0 84:1.0 116:1.0 144:1.0 176:1.0 197:1.0 236:1.0 267:1.0 300:1.0 303:1.0 356:1.0 
-1.0 30:1.0 56:1.0 84:1.0 116:1.0 130:1.0 176:1.0 197:1.0 236:1.0 268:1.0 296:1.0 338:1.0 356:1.0 
-0.9580424220607768 31:1.0 56:1.0 109:1.0 116:1.0 129:1.0 176:1.0 197:1.0 236:1.0 252:1.0 296:1.0 324:1.0 356:1.0 
-1.0 33:1.0 56:1.0 94:1.0 116:1.0 129:1.0 176:1.0 182:1.0 236:1.0 267:1.0 300:1.0 317:1.0 356:1.0 
-0.09811070611707956 13:1.0 56:1.0 69:1.0 116:1.0 130:1.0 176:1.0 214:1.0 236:1.0 289:1.0 296:1.0 303:1.0 356:1.0 
-1.0 2:1.0 56:1.0 62:1.0 116:1.0 130:1.0 176:1.0 214:1.0 236:1.0 252:1.0 296:1.0 326:1.0 360:1.0 
-1.0 33:1.0 56:1.0 90:1.0 116:1.0 144:1.0 176:1.0 190:1.0 236:1.0 267:1.0 300:1.0 330:1.0 356:1.0 
-1.0 3:1.0 56:1.0 98:1.0 116:1.0 144:1.0 176:1.0 182:1.0 236:1.0 274:1.0 296:1.0 303:1.0 356:1.0 
-1.0 44:1.0 56:1.0 91:1.0 116:1.0 144:1.0 176:1.0 197:1.0 236:1.0 268:1.0 296:1.0 338:1.0 356:1.0 
-0.3611037291055615 3:1.0 56:1.0 79:1.0 120:1.0 142:1.0 176:1.0 199:1.0 240:1.0 257:1.0 296:1.0 328:1.0 356:1.0 398:1.0 416:1.0 
-0.2859490077128253 38:1.0 56:1.0 87:1.0 120:1.0 130:1.0 176:1.0 197:1.0 236:1.0 257:1.0 296:1.0 335:1.0 356:1.0 
-0.604411854323642 26:1.0 60:1.0 72:1.0 116:1.0 144:1.0 176:1.0 197:1.0 236:1.0 257:1.0 296:1.0 330:1.0 356:1.0 
-1.0 3:1.0 56:1.0 98:1.0 116:1.0 144:1.0 176:1.0 182:1.0 236:1.0 266:1.0 300:1.0 302:1.0 356:1.0 
-1.0 38:1.0 56:1.0 84:1.0 116:1.0 130:1.0 176:1.0 182:1.0 236:1.0 266:1.0 300:1.0 331:1.0 356:1.0 
-0.8109785165333344 38:1.0 56:1.0 84:1.0 116:1.0 130:1.0 176:1.0 182:1.0 236:1.0 289:1.0 296:1.0 317:1.0 356:1.0 
-1.0 30:1.0 56:1.0 109:1.0 116:1.0 129:1.0 176:1.0 182:1.0 236:1.0 274:1.0 296:1.0 303:1.0 356:1.0 
-1.0 12:1.0 60:1.0 84:1.0 116:1.0 142:1.0 176:1.0 197:1.0 236:1.0 268:1.0 296:1.0 338:1.0 356:1.0 
-0.47715845682197433 26:1.0 60:1.0 91:1.0 116:1.0 144:1.0 176:1.0 192:1.0 236:1.0 242:1.0 296:1.0 329:1.0 360:1.0 389:1.0 420:1.0 
-0.2890842016499422 17:1.0 56:1.0 72:1.0 116:1.0 144:1.0 176:1.0 197:1.0 236:1.0 274:1.0 296:1.0 309:1.0 356:1.0 
-0.5416590884067163 31:1.0 56:1.0 87:1.0 120:1.0 135:1.0 176:1.0 197:1.0 236:1.0 268:1.0 296:1.0 338:1.0 356:1.0 
-1.0 12:1.0 56:1.0 94:1.0 116:1.0 129:1.0 176:1.0 192:1.0 236:1.0 242:1.0 296:1.0 326:1.0 360:1.0 382:1.0 416:1.0 
-0.9942393043506986 38:1.0 56:1.0 86:1.0 120:1.0 142:1.0 176:1.0 182:1.0 236:1.0 267:1.0 300:1.0 312:1.0 356:1.0 
-1.0 3:1.0 56:1.0 98:1.0 116:1.0 135:1.0 176:1.0 197:1.0 236:1.0 257:1.0 296:1.0 328:1.0 356:1.0 
-1.0 15:1.0 56:1.0 62:1.0 116:1.0 130:1.0 176:1.0 197:1.0 236:1.0 267:1.0 300:1.0 345:1.0 356:1.0 
-1.0 3:1.0 56:1.0 98:1.0 116:1.0 135:1.0 176:1.0 197:1.0 236:1.0 257:1.0 296:1.0 303:1.0 356:1.0 
-0.6834742728966005 15:1.0 56:1.0 62:1.0 116:1.0 129:1.0 176:1.0 182:1.0 236:1.0 267:1.0 300:1.0 349:1.0 356:1.0 
-1.0 3:1.0 56:1.0 98:1.0 116:1.0 130:1.0 176:1.0 214:1.0 236:1.0 252:1.0 296:1.0 317:1.0 356:1.0 
-1.0 49:1.0 56:1.0 75:1.0 116:1.0 142:1.0 176:1.0 214:1.0 236:1.0 252:1.0 296:1.0 317:1.0 356:1.0 
-0.7188870940001619 51:1.0 56:1.0 72:1.0 120:1.0 131:1.0 176:1.0 197:1.0 236:1.0 252:1.0 296:1.0 327:1.0 360:1.0 372:1.0 420:1.0 
-0.7100743078907858 12:1.0 56:1.0 89:1.0 116:1.0 144:1.0 176:1.0 197:1.0 236:1.0 257:1.0 296:1.0 331:1.0 356:1.0 394:1.0 416:1.0 451:1.0 476:1.0 
-0.7881953528262698 38:1.0 56:1.0 109:1.0 116:1.0 144:1.0 176:1.0 182:1.0 236:1.0 274:1.0 296:1.0 303:1.0 356:1.0 
-1.0 15:1.0 56:1.0 62:1.0 116:1.0 142:1.0 176:1.0 197:1.0 236:1.0 289:1.0 296:1.0 322:1.0 356:1.0 
-0.1950804387340977 31:1.0 56:1.0 71:1.0 116:1.0 130:1.0 176:1.0 202:1.0 236:1.0 243:1.0 296:1.0 338:1.0 356:1.0 
-1.0 38:1.0 56:1.0 109:1.0 116:1.0 144:1.0 176:1.0 182:1.0 236:1.0 274:1.0 296:1.0 309:1.0 356:1.0 
-1.0 27:1.0 60:1.0 109:1.0 116:1.0 135:1.0 176:1.0 184:1.0 236:1.0 243:1.0 296:1.0 338:1.0 356:1.0 
-1.0 38:1.0 56:1.0 73:1.0 116:1.0 129:1.0 176:1.0 197:1.0 236:1.0 274:1.0 296:1.0 328:1.0 356:1.0 
-1.0 38:1.0 56:1.0 94:1.0 116:1.0 129:1.0 176:1.0 182:1.0 236:1.0 267:1.0 300:1.0 302:1.0 356:1.0 
-1.0 38:1.0 56:1.0 75:1.0 116:1.0 130:1.0 176:1.0 197:1.0 236:1.0 259:1.0 300:1.0 317:1.0 356:1.0 377:1.0 416:1.0 
-1.0 17:1.0 56:1.0 75:1.0 116:1.0 142:1.0 176:1.0 197:1.0 236:1.0 268:1.0 296:1.0 338:1.0 356:1.0 
-1.0 30:1.0 56:1.0 84:1.0 116:1.0 130:1.0 176:1.0 197:1.0 236:1.0 266:1.0 300:1.0 303:1.0 356:1.0 
-0.9142289924329481 44:1.0 56:1.0 72:1.0 116:1.0 144:1.0 176:1.0 197:1.0 236:1.0 268:1.0 296:1.0 333:1.0 356:1.0 
-0.11006866369480967 3:1.0 56:1.0 93:1.0 116:1.0 130:1.0 176:1.0 199:1.0 240:1.0 257:1.0 296:1.0 317:1.0 356:1.0 363:1.0 416:1.0 
-1.0 4:1.0 56:1.0 87:1.0 120:1.0 144:1.0 176:1.0 184:1.0 236:1.0 243:1.0 296:1.0 338:1.0 356:1.0 
-1.0 12:1.0 56:1.0 84:1.0 116:1.0 130:1.0 176:1.0 197:1.0 236:1.0 268:1.0 296:1.0 330:1.0 356:1.0 
-1.0 30:1.0 56:1.0 77:1.0 116:1.0 142:1.0 176:1.0 197:1.0 236:1.0 268:1.0 296:1.0 338:1.0 356:1.0 
-0.853786555338742 2:1.0 56:1.0 84:1.0 116:1.0 142:1.0 176:1.0 197:1.0 236:1.0 268:1.0 296:1.0 338:1.0 356:1.0 
-1.0 13:1.0 56:1.0 62:1.0 116:1.0 129:1.0 176:1.0 197:1.0 236:1.0 268:1.0 296:1.0 338:1.0 356:1.0 
-1.0 12:1.0 56:1.0 73:1.0 116:1.0 129:1.0 176:1.0 182:1.0 236:1.0 266:1.0 300:1.0 338:1.0 356:1.0 
-1.0 49:1.0 56:1.0 62:1.0 116:1.0 135:1.0 176:1.0 197:1.0 236:1.0 252:1.0 296:1.0 349:1.0 356:1.0 
-0.6819393904030795 33:1.0 56:1.0 109:1.0 116:1.0 135:1.0 176:1.0 197:1.0 236:1.0 289:1.0 296:1.0 315:1.0 356:1.0 
-1.0 17:1.0 56:1.0 109:1.0 116:1.0 135:1.0 176:1.0 197:1.0 236:1.0 252:1.0 296:1.0 326:1.0 360:1.0 
